{"version": "0.5.4", "metadata": {"date": {"year": 2024, "month": 10, "day": 25, "hour": 11, "minute": 25, "second": 57}, "loudness": -16.031530380249023, "gain": 0.7396498346607642, "name": "", "modeled_by": "2dor", "gear_type": "amp", "gear_make": "Mesa Boogie", "gear_model": "Badlander Rectifier 100W", "tone_type": "hi_gain", "input_level_dbu": 22.903, "output_level_dbu": 13.303, "training": {"settings": {"ignore_checks": false}, "data": {"latency": {"manual": null, "calibration": {"algorithm_version": 1, "delays": [157], "safety_factor": 1, "recommended": 156, "warnings": {"matches_lookahead": false, "disagreement_too_high": false}}}, "checks": {"version": 3, "passed": true}}, "validation_esr": 0.010827929485546624}}, "architecture": "WaveNet", "config": {"layers": [{"input_size": 1, "condition_size": 1, "head_size": 8, "channels": 16, "kernel_size": 3, "dilations": [1, 2, 4, 8, 16, 32, 64, 128, 256, 512], "activation": "Tanh", "gated": false, "head_bias": false}, {"input_size": 16, "condition_size": 1, "head_size": 1, "channels": 8, "kernel_size": 3, "dilations": [1, 2, 4, 8, 16, 32, 64, 128, 256, 512], "activation": "Tanh", "gated": false, "head_bias": true}], "head": null, "head_scale": 0.02}, "weights": [-0.0015870122006163, 0.4396096169948578, -0.8173728585243225, -0.8249076008796692, -0.40424370765686035, 0.3262796103954315, 0.013828016817569733, 0.884817898273468, -0.13407079875469208, 0.34177079796791077, -0.4005037248134613, 0.006225168239325285, -0.9887025356292725, -0.6598939299583435, -0.5084874033927917, 0.1919824331998825, 0.0748780220746994, -0.16583748161792755, -0.19210714101791382, 0.055588848888874054, -0.13605135679244995, 0.13079878687858582, -0.15866465866565704, 0.28853729367256165, -0.04131156951189041, -0.1099357157945633, 0.3147726356983185, -0.1498861461877823, -0.20575375854969025, 0.15600749850273132, -0.06225162371993065, 0.23926794528961182, -0.28961291909217834, -0.06496480107307434, 0.2501884400844574, 0.10839628428220749, 0.1897382140159607, 0.24955637753009796, -0.11997397243976593, 0.08593004196882248, -0.057511333376169205, 0.16675055027008057, 0.07285381108522415, -0.025347573682665825, -0.30231332778930664, -0.07357743382453918, -0.02385239116847515, 0.28033745288848877, -0.06791859120130539, -0.09421105682849884, 0.036284659057855606, 0.09950216859579086, -0.06958585232496262, 0.20192299783229828, 0.07896251231431961, -0.2095981389284134, 0.20994524657726288, -0.12706410884857178, -0.21887752413749695, 0.11624966561794281, 0.05710100382566452, 0.14851532876491547, -0.31462690234184265, 0.00020668620709329844, -0.018385963514447212, -0.16002562642097473, 0.22652669250965118, -0.12087442725896835, -0.11054082214832306, 0.27528321743011475, 0.0513542965054512, 0.15229657292366028, -0.07520683109760284, 0.28180259466171265, 0.3324054181575775, -0.0037883480545133352, 0.18372386693954468, 0.07411109656095505, -0.12204383313655853, -0.23594199120998383, -0.32390961050987244, 0.27330055832862854, 0.18225149810314178, -0.05287414416670799, -0.0850190669298172, -0.1884765625, -0.23220379650592804, 0.0634460523724556, 0.17697134613990784, 0.08389262109994888, -0.10812387615442276, -0.07711540162563324, -0.09265299886465073, 0.19712680578231812, 0.006277963984757662, 0.09819357842206955, -0.07430797070264816, 0.1312253177165985, 0.01580866053700447, -0.24357764422893524, 0.300121933221817, 0.305728942155838, -0.1921178549528122, 0.12428458034992218, 0.06740288436412811, -0.1336061954498291, 0.04712061956524849, 0.08819679170846939, -0.14549851417541504, -0.12756484746932983, -0.24825149774551392, 0.2501252591609955, -0.26794636249542236, 0.25636324286460876, 0.05566291883587837, -0.2614097595214844, 0.12441442161798477, 0.02891249768435955, 0.1497606337070465, -0.1365661472082138, 0.02638535387814045, 0.1411961317062378, -0.2397407591342926, 0.03927735239267349, 0.004226593766361475, -0.24378710985183716, -0.05413706228137016, -0.21972689032554626, 0.09852519631385803, -0.11143416166305542, -0.0036971631925553083, -0.06289059668779373, -0.05969764292240143, -0.13875903189182281, 0.273826539516449, 0.015437527559697628, 0.19777776300907135, -0.11914309114217758, 0.06892824918031693, -0.05962691456079483, 0.28962138295173645, 0.10205093771219254, 0.28313148021698, -0.165328711271286, -0.14217190444469452, -0.02579132653772831, -0.07043436169624329, -0.0208413265645504, 0.05755029618740082, -0.2828068137168884, -0.1676517128944397, 0.011316261254251003, -0.19646011292934418, 0.05223754420876503, 0.21675501763820648, -0.3020038306713104, 0.06856805831193924, -0.27303770184516907, 0.10996658354997635, -0.07907714694738388, 0.056067537516355515, -0.10468258708715439, -0.07516550272703171, -0.11014298349618912, -0.17143042385578156, -0.0412314273416996, -0.068694569170475, 0.2140759825706482, -0.07818008959293365, -0.016089530661702156, 0.28503409028053284, -0.008333465084433556, 0.11292623728513718, 0.19863471388816833, -0.09173093736171722, 0.11468664556741714, -0.1564919650554657, -0.09499817341566086, 0.12616941332817078, -0.04928969964385033, 0.015172884799540043, -0.02537641115486622, -0.05618663877248764, -0.011492962017655373, 0.003907857462763786, 0.15092416107654572, -0.0469246506690979, -0.0059608579613268375, -0.26001065969467163, 0.04618608206510544, 0.09489183872938156, 0.2422505021095276, -0.06763391941785812, 0.024969786405563354, 0.015378559939563274, -0.08020617812871933, -0.08735057711601257, 0.2099890112876892, -0.03241163119673729, -0.010779340751469135, 0.1624096930027008, 0.1417948603630066, -0.12183281779289246, 0.052279528230428696, -0.041007544845342636, 0.1315712332725525, -0.18409466743469238, 0.11236569285392761, -0.06485286355018616, 0.305492103099823, -0.4582691490650177, -0.015901250764727592, 0.3409131169319153, -0.29470622539520264, -0.022119665518403053, -0.3122159242630005, 0.15187214314937592, -0.0951155424118042, -0.22006680071353912, 0.14537963271141052, -0.023133406415581703, -0.18789516389369965, 0.31625911593437195, 0.0012890658108517528, 0.18853622674942017, -0.21104127168655396, -0.005802439525723457, -0.15787000954151154, 0.3714231550693512, 0.002024279208853841, 0.33985424041748047, -0.1400606632232666, 0.04755716025829315, -0.18750542402267456, 0.37965601682662964, -0.08839843422174454, 0.397043913602829, -0.37972864508628845, -0.06622344255447388, -0.27943265438079834, 0.3280951976776123, 0.04943690076470375, -0.3654029369354248, 0.2062121480703354, 0.049974553287029266, -0.477444052696228, 0.3620680868625641, -0.13629963994026184, -0.331478476524353, 0.23929330706596375, -0.09139008820056915, -0.31450319290161133, 0.3856332004070282, -0.05047427490353584, 0.26033487915992737, -0.37946176528930664, -0.2907468378543854, 0.1235341727733612, -0.07688780128955841, -0.19349263608455658, 0.01264061126857996, 0.15419037640094757, 0.16223075985908508, 0.00412206444889307, -0.027141112834215164, 0.04083901643753052, -0.14598610997200012, -0.03618950769305229, 0.21788471937179565, -0.055555976927280426, -0.13594959676265717, -0.1741536557674408, -0.05010296031832695, 0.08720854669809341, -0.0034787864424288273, -0.14689837396144867, 0.2183455377817154, -0.18186907470226288, 0.08967388421297073, 0.12118428200483322, 0.15494002401828766, -0.1429709792137146, -0.12572436034679413, 0.006718382239341736, 0.11200738698244095, 0.17897389829158783, 0.05416790768504143, -0.048474691808223724, -0.09553433209657669, 0.07497969269752502, -0.14093542098999023, 0.07906664162874222, 0.13196687400341034, -0.11058946698904037, -0.11425630748271942, 0.0006517610163427889, -0.004515862558037043, -0.18402035534381866, 0.1546587347984314, -0.147299662232399, -0.14044883847236633, -0.09160780906677246, 0.0034058834426105022, 0.06131408363580704, -0.2779865860939026, 0.00825506541877985, 0.16339783370494843, -0.22459077835083008, 0.17807714641094208, 0.15745171904563904, 0.15292808413505554, -0.1546308845281601, -0.1326560527086258, 0.22314074635505676, -0.07630379498004913, -0.08674179762601852, 0.2103157788515091, -0.11777070164680481, -0.1099688857793808, -0.2796716094017029, 0.1229768618941307, 0.17589858174324036, 0.14311785995960236, 0.013786908239126205, 0.14638449251651764, -0.1454111486673355, 0.21589839458465576, 0.20246733725070953, 0.40330269932746887, -0.13756562769412994, -0.22757796943187714, -0.42104971408843994, 0.25650298595428467, 0.25432926416397095, 0.18798424303531647, -0.059938836842775345, -0.05709592252969742, 0.3615315556526184, 0.005446779541671276, -0.01602558046579361, 0.24033255875110626, -0.18348610401153564, -0.06677709519863129, 0.35618889331817627, -0.21661363542079926, -0.05000647157430649, 0.3508930206298828, -0.04562320560216904, -0.2645977735519409, -0.2616901993751526, 0.05484795197844505, 0.251047819852829, -0.08489509671926498, 0.1895454078912735, -0.16172891855239868, 0.08007292449474335, 0.12702392041683197, -0.07435055077075958, -0.12473166733980179, -0.15254473686218262, 0.044022589921951294, -0.16513995826244354, -0.30178210139274597, 0.2555510997772217, 0.05955900996923447, -0.04700736328959465, 0.2596716582775116, -0.11652323603630066, 0.08069881051778793, -0.16858340799808502, 0.3045291304588318, 0.41070953011512756, 0.2069539725780487, -0.044510964304208755, 0.048322152346372604, -0.22212956845760345, 0.11834979802370071, -0.061903126537799835, 0.24760442972183228, 0.1255958080291748, 0.3100098669528961, -0.18288426101207733, 0.04867364838719368, -0.05127769708633423, 0.19845089316368103, 0.14980344474315643, -0.0009584793006069958, 0.16156668961048126, -0.07721590995788574, -0.11847961694002151, 0.15609340369701385, -0.05698366463184357, -0.2677556872367859, 0.05768037587404251, -0.13257290422916412, -0.08939855545759201, 0.24470631778240204, -0.05093427002429962, 0.06335832178592682, -0.07448288798332214, -0.03167840465903282, 0.025614839047193527, -0.039430003613233566, 0.04150189831852913, 0.08675844967365265, -0.04680357873439789, 0.22013211250305176, 0.07439497113227844, -0.12136363238096237, 0.1673726886510849, -0.11439160257577896, -0.08879886567592621, 0.21759462356567383, -0.01686805672943592, -0.15828752517700195, -0.1504812091588974, -0.023926714435219765, 0.01827901415526867, 0.12427334487438202, 0.1634572446346283, 0.12193994224071503, -0.17501144111156464, 0.039728544652462006, 0.1358649879693985, 0.2161550521850586, -0.1067701205611229, -0.026518668979406357, -0.20935730636119843, -0.04354717209935188, 0.10265735536813736, -0.005493786185979843, 0.033290792256593704, 0.06880751252174377, 0.23136933147907257, 0.019789084792137146, 0.06293238699436188, 0.11465615034103394, -0.14506150782108307, 0.0020251816604286432, -0.04504222795367241, -0.17097562551498413, -0.2050587683916092, 0.06292959302663803, 0.07129063457250595, -0.19541209936141968, 0.0014250677777454257, -0.05517731234431267, 0.06381295621395111, -0.1355048269033432, 0.3100779056549072, 0.06214888021349907, -0.15286611020565033, 0.47913190722465515, -0.07344015687704086, 0.14108391106128693, -0.20722690224647522, 0.16035772860050201, 0.30328071117401123, -0.4482455849647522, 0.10967659950256348, 0.08347523212432861, -0.3957459032535553, 0.17243309319019318, -0.33768782019615173, 0.3847084641456604, -0.062421731650829315, 0.2852606773376465, -0.0027717796619981527, 0.31469619274139404, -0.2805376350879669, 0.39502304792404175, -0.009336227551102638, 0.28860989212989807, -0.3739316761493683, 0.17165271937847137, -0.3704323470592499, 0.21886010468006134, -0.0778706818819046, 0.14975972473621368, -0.26547369360923767, 0.04566134884953499, 0.06036965548992157, -0.4031442701816559, 0.11772442609071732, 0.22084105014801025, -0.2201792299747467, 0.24073228240013123, 0.31343546509742737, -0.3255767524242401, 0.10632361471652985, 0.19730547070503235, -0.318690687417984, 0.2157585620880127, -0.30573317408561707, 0.49636080861091614, -0.1319979876279831, 0.13401198387145996, -0.32412704825401306, 0.42163026332855225, 0.3416198790073395, -0.3780269920825958, 0.3461925983428955, -0.1480408012866974, 0.31528130173683167, -0.13587768375873566, -0.2976132929325104, 0.27981817722320557, -0.19839070737361908, -0.2533821165561676, 0.2895108163356781, -0.2890571355819702, 0.3056805729866028, -0.2746414840221405, 0.1989685595035553, 0.02511616423726082, 0.3213711082935333, -0.2401716411113739, 0.23350073397159576, -0.14919954538345337, 0.2439355105161667, -0.15022622048854828, 0.22810284793376923, -0.18021559715270996, 0.10877418518066406, -0.3310208320617676, 0.17846417427062988, -0.0807991623878479, 0.20004239678382874, -0.2521211504936218, -0.23995566368103027, 0.36840152740478516, -0.033845044672489166, -0.3280682861804962, 0.11683452129364014, -0.3659473657608032, -0.21901746094226837, 0.19677159190177917, -0.3507574796676636, -0.2669283449649811, 0.2653157114982605, -0.328174889087677, 0.27513667941093445, -0.2664557695388794, 0.20985829830169678, 0.19411037862300873, 0.0793507918715477, -0.1599840521812439, 0.09163562208414078, -0.15925021469593048, -0.0224625151604414, -0.208930104970932, -0.01824004389345646, 0.3156227767467499, -0.1683865487575531, 0.14459016919136047, 0.15895456075668335, -0.11829371005296707, 0.0735359787940979, 0.25035417079925537, 0.10028223693370819, -0.2399642914533615, -0.23401053249835968, -0.18395468592643738, 0.05460924282670021, -0.155891552567482, 0.21174032986164093, -0.14996854960918427, -0.19854046404361725, -0.028237303718924522, 0.12940309941768646, 0.22125400602817535, 0.1797219216823578, -0.14447271823883057, -0.24937158823013306, -0.1000475063920021, 0.22374776005744934, 0.10768675804138184, -0.18593132495880127, 0.16237665712833405, 0.25122836232185364, -0.11447197198867798, 0.00024085870245471597, 0.04413120076060295, -0.04132666066288948, 0.10523238033056259, 0.09613841027021408, -0.05351528525352478, 0.16645868122577667, 0.278774619102478, 0.2228551208972931, -0.11007309705018997, -0.24954411387443542, -0.32431042194366455, 0.058897070586681366, 0.3082841634750366, -0.12812967598438263, -0.1970168501138687, 0.35379645228385925, 0.31870347261428833, 0.19207872450351715, -0.3520874083042145, 0.12666568160057068, -0.03798288851976395, -0.09597957134246826, 0.1289001703262329, 0.005690134130418301, -0.14510232210159302, -0.25119447708129883, -0.13906125724315643, 0.2106252759695053, 0.05543042719364166, -0.1223539412021637, -0.1117306798696518, -0.2467506378889084, -0.010778073221445084, 0.357517808675766, 0.2840312719345093, 0.119814433157444, -0.07165803760290146, -0.17982274293899536, -0.14578595757484436, 0.3549990952014923, 0.22509117424488068, -0.0711132362484932, -0.26549986004829407, 0.02660198137164116, 0.14499181509017944, -0.23376893997192383, 0.05099831521511078, 0.052643705159425735, -0.14095444977283478, 0.2186608761548996, 0.10856322944164276, -0.21609707176685333, 0.24010434746742249, 0.031069450080394745, -0.28471115231513977, -0.31546372175216675, -0.1737227588891983, 0.3043424189090729, -0.05925288423895836, -0.06499134749174118, 0.11116944253444672, -0.006044016219675541, -0.22652128338813782, 0.1114618256688118, -0.05686638876795769, 0.26023879647254944, -0.08112289756536484, -0.011331629939377308, 0.21808844804763794, -0.02712881751358509, 0.1343575119972229, 0.029070300981402397, -0.10043291747570038, -0.06930136680603027, -0.09502149373292923, 0.12414003163576126, 0.0042303274385631084, 0.18124885857105255, 0.007403869181871414, -0.05675138905644417, -0.035141851752996445, -0.14567768573760986, -0.02190825343132019, 0.21411196887493134, -0.054323963820934296, 0.10436529666185379, -0.1692740023136139, 0.10033085942268372, -0.12898384034633636, 0.10404658317565918, -0.009519346058368683, 0.0024856894742697477, 0.06741556525230408, -0.03300910070538521, 0.005605923477560282, 0.13720130920410156, 0.13474513590335846, -0.016975846141576767, 0.2643735706806183, -0.06595528870820999, 0.0013945974642410874, 0.1244058832526207, 0.08800807595252991, 0.09996118396520615, -0.13332556188106537, -0.1022406741976738, -0.022762488573789597, 0.06857650727033615, 0.003888848004862666, -0.13357806205749512, 0.16721487045288086, 0.18330852687358856, 0.04305772855877876, -0.2213674932718277, 0.04628649726510048, -0.0723511129617691, -0.05135519057512283, -0.033336494117975235, -0.02288624458014965, -0.023445088416337967, -0.17155857384204865, -0.01990627311170101, -0.02730548568069935, 0.01476568728685379, 0.04681270942091942, 0.06529174000024796, -0.08145323395729065, 0.059828080236911774, 0.06765391677618027, -0.012626944109797478, -0.032067231833934784, -0.1593160629272461, 0.15204264223575592, -0.08837368339300156, 0.07524140924215317, 0.07563873380422592, 0.14478027820587158, 0.05302497372031212, 0.07987181842327118, 0.0058823637664318085, 0.014607349410653114, 0.04676167666912079, -0.05124394968152046, -0.05311698466539383, 0.07781191170215607, -0.08012410998344421, 0.0038906317204236984, -0.12729892134666443, 0.012288047932088375, 0.03671019896864891, -0.07839072495698929, -0.04810800775885582, -0.04599756747484207, 0.1257266253232956, -0.01609853282570839, -0.28526920080184937, 0.17290334403514862, -0.18012124300003052, -0.36854639649391174, 0.017084088176488876, 0.20247788727283478, 0.22096094489097595, 0.06576413661241531, 0.20916542410850525, 0.3573647737503052, -0.07859303802251816, 0.059034619480371475, 0.20498670637607574, -0.12860198318958282, -0.06663407385349274, -0.13148032128810883, 0.14619170129299164, 0.07771622389554977, 0.19202348589897156, -0.125200092792511, 0.02156738191843033, -0.32365602254867554, -0.09977695345878601, 0.047619931399822235, 0.2883739173412323, -0.19585728645324707, 0.06177232041954994, -0.19572044909000397, -0.08163104206323624, 0.040151264518499374, 0.37035366892814636, -0.1318204253911972, 0.08263798803091049, 0.30664703249931335, -0.1221381351351738, 0.16780801117420197, 0.3398228585720062, 0.09069108963012695, -0.008935497142374516, 0.40238988399505615, -0.09067895263433456, 0.22325822710990906, 0.1161268875002861, -0.1385723501443863, 0.026784196496009827, -0.2203083634376526, 0.06597374379634857, 0.002006464172154665, 0.04552697762846947, -0.1398455947637558, -0.11037402600049973, -0.06350260227918625, -0.017046339809894562, -0.09728933125734329, -0.011323262006044388, 0.0031520358752459288, 0.08585669845342636, -0.04600017890334129, -0.01148920226842165, -0.14083923399448395, -0.10620727390050888, 0.021885979920625687, 0.12511210143566132, 0.4721945822238922, -0.30891990661621094, 0.8408228158950806, -0.7670285701751709, -0.24485960602760315, 0.9921267032623291, 1.1908053159713745, -0.7127652764320374, 0.256172239780426, -0.039429180324077606, -0.20502488315105438, -0.531229555606842, 0.5084018707275391, -0.7425859570503235, 0.23493130505084991, 0.41960012912750244, 0.08846130222082138, 0.2610989511013031, 0.13582995533943176, 0.08590051531791687, 0.10378316789865494, 0.10585980862379074, 0.5024145841598511, -0.18428955972194672, -0.0687497928738594, -0.1156211644411087, -0.073966383934021, -0.2565716505050659, 0.2467852085828781, -0.11895570904016495, 0.20721997320652008, 0.005697646643966436, 0.0709698274731636, -0.17568445205688477, -0.30135273933410645, 0.005478412378579378, 0.0966455265879631, -0.07996804267168045, -0.12041900306940079, 0.12468179315328598, -0.03695886954665184, -0.045301008969545364, 0.17653709650039673, 0.04869118705391884, 0.17027203738689423, -0.14185410737991333, 0.1330072581768036, 0.22189436852931976, 0.12998294830322266, 0.14882881939411163, -0.0574706569314003, 0.18094447255134583, -0.30653560161590576, -0.0574868842959404, 0.09598146378993988, -0.19544237852096558, 0.09578289091587067, -0.03036927618086338, 0.13010738790035248, -0.27808213233947754, 0.2360377162694931, 0.28638410568237305, 0.0439419224858284, 0.1274063140153885, 0.35684487223625183, 0.09066142141819, -0.2717275321483612, 0.1221715435385704, -0.14574763178825378, -0.23314909636974335, -0.22371336817741394, -0.009280531667172909, -0.2086639106273651, -0.10425059497356415, -0.09116967022418976, 0.28314459323883057, 0.21232709288597107, 0.4967125654220581, -0.30787530541419983, 0.10027924925088882, 0.04199015349149704, -0.1639023721218109, -0.25555339455604553, 0.27010518312454224, 0.0698535144329071, 0.0710364431142807, 0.04689006879925728, -0.14318980276584625, 0.3223835229873657, 0.17993231117725372, -0.20621362328529358, 0.21666143834590912, -0.0439499206840992, 0.23730073869228363, -0.10675156116485596, 0.09105631709098816, -0.27219292521476746, 0.06765162944793701, 0.1705222874879837, 0.10658140480518341, 0.1894673854112625, 0.2546759247779846, 0.3810482621192932, -0.016539813950657845, 0.21850018203258514, 0.10591275990009308, -0.2514730989933014, -0.12459125369787216, 0.11315321922302246, -0.11781469732522964, 0.07282727211713791, 0.08995944261550903, 0.47212544083595276, 0.15394043922424316, -0.006246598903089762, 0.12399441003799438, -0.6135322451591492, -0.18115699291229248, -0.1598612517118454, -0.4370247423648834, -0.02095228061079979, -0.7019664645195007, 0.2340700775384903, 0.18959176540374756, 0.2614510953426361, -0.15403525531291962, 0.07771765440702438, 0.006765266414731741, 0.40202346444129944, -0.007474248297512531, 0.3463085889816284, -0.3439222574234009, -0.19331549108028412, 0.2928156852722168, 0.33712291717529297, 0.12246108055114746, -0.05831621587276459, -0.33276334404945374, 0.27183106541633606, -0.3490321934223175, 0.023104779422283173, -0.28624802827835083, -0.07906641811132431, -0.01157588791102171, -0.5393527150154114, -0.34914258122444153, -0.24714036285877228, -0.4232197105884552, 0.6214355826377869, -0.24290922284126282, -0.5004419684410095, 0.35184410214424133, -0.12474364042282104, 0.10742819309234619, 0.168351948261261, 0.26609817147254944, -0.2944142818450928, -0.3298173248767853, 0.12060099095106125, -0.3502058684825897, -0.13455060124397278, 0.15782976150512695, 0.42451006174087524, -0.2880672514438629, -0.1197674423456192, 0.31814178824424744, 0.8187999725341797, -0.21747355163097382, 0.17400601506233215, 0.3754728138446808, -0.1289086639881134, -0.25233402848243713, 0.6579145193099976, 0.07239367812871933, -0.024395117536187172, 0.11496929079294205, 0.02195592038333416, 0.2932239770889282, -0.43461552262306213, 0.22092188894748688, -0.19466674327850342, -0.3467802405357361, -0.16420988738536835, -0.03747517243027687, 0.03875232860445976, -0.16371220350265503, -0.13731716573238373, 0.0877005085349083, -0.02912437915802002, 0.263331800699234, -0.06712532043457031, 0.38624855875968933, 0.1872669756412506, -0.2388976365327835, 0.2681460976600647, -0.009185473434627056, 0.17571179568767548, -0.20089486241340637, -0.15080581605434418, 0.17393270134925842, -0.12677481770515442, -0.25498324632644653, 0.0028770603239536285, -0.03933732956647873, -0.4531295597553253, 0.08332017064094543, -0.1555868238210678, -0.4163009524345398, -0.12902332842350006, 0.06247376650571823, -0.0399131216108799, 0.14561432600021362, 0.04745056480169296, -0.35092929005622864, -0.15245507657527924, -0.05290427803993225, 0.20090258121490479, 0.41392847895622253, -0.7798448801040649, 0.2670972943305969, -0.12332913279533386, -0.030926577746868134, -0.24292655289173126, 0.13556373119354248, -0.11922205239534378, -0.14992469549179077, -0.24867479503154755, 0.0491328090429306, -0.1815437376499176, 0.25433021783828735, 0.22240515053272247, 0.10095705837011337, 0.09044945985078812, -0.12624776363372803, 0.2347627729177475, -0.08818920701742172, 0.17804552614688873, -0.04220011457800865, -0.17674517631530762, 0.2801562249660492, -0.38554146885871887, 0.24136896431446075, -0.11724572628736496, -0.12616251409053802, 0.1493535041809082, 0.029471416026353836, 0.15327724814414978, 0.2594493329524994, -0.07503395527601242, 0.2039441019296646, -0.10577192157506943, -0.12709026038646698, 0.1459045112133026, 0.21250765025615692, -0.21549779176712036, 0.025708690285682678, 0.3451294004917145, -0.005405807867646217, 0.3210652470588684, -0.08660086989402771, -0.12497981637716293, 0.2910594046115875, 0.23072902858257294, -0.031577229499816895, -0.1674797087907791, -0.29641494154930115, 0.0490020290017128, -0.2590138912200928, 0.022896306589245796, 0.14448760449886322, 0.1140618771314621, -0.039790745824575424, 0.06302118301391602, -0.4214043617248535, 0.4067732095718384, -0.25158849358558655, -0.13122598826885223, 0.04952769726514816, 0.014813676476478577, 0.0025106710381805897, -0.2690657377243042, -0.4449816346168518, 0.08976557850837708, -0.022628813982009888, 0.3825315535068512, 0.03146640956401825, -0.031622808426618576, 0.1684536635875702, 0.0287938192486763, 0.013169178739190102, -0.1507803052663803, 0.04675367847084999, -0.18453289568424225, -0.10701677203178406, 0.015581881627440453, 0.20157544314861298, 0.31633520126342773, -0.24512940645217896, -0.0938468798995018, 0.01233905740082264, -0.21674612164497375, -0.21005557477474213, 0.1710520088672638, 0.1270337849855423, -0.11039479821920395, -0.06385864317417145, 0.4192982614040375, 0.7209312319755554, -0.31990090012550354, 0.22096164524555206, 0.03624630346894264, -0.39606544375419617, 0.12888963520526886, -0.21881534159183502, 0.12133651226758957, -0.24597014486789703, -0.2125053107738495, -0.4141857624053955, -0.13590805232524872, -0.03212746977806091, 0.15414057672023773, -0.0035746716894209385, -0.23293094336986542, 0.1385451853275299, -0.3239095211029053, -0.032956354320049286, 0.4051910638809204, -0.13145777583122253, 0.13836003839969635, 0.013620893470942974, -0.2322675734758377, -0.007561842445284128, 0.21192219853401184, 0.29131436347961426, 0.0765988826751709, -0.2425220012664795, -0.0345916748046875, 0.2780419886112213, -0.045507755130529404, -0.13642118871212006, -0.08329785615205765, 0.06248162314295769, 0.18246589601039886, 0.050937145948410034, 0.22681227326393127, -0.09820429980754852, -0.06721607595682144, -0.019517825916409492, 0.10023699700832367, -0.2786226272583008, 0.23730358481407166, -0.09930946677923203, 0.1262284815311432, -0.0626899003982544, -0.04978082701563835, 0.03751857206225395, -1.1264601945877075, 0.16568484902381897, 0.15460632741451263, -0.23026183247566223, -0.7905258536338806, -0.7695155739784241, 0.3739492893218994, 0.3186916708946228, 0.30320048332214355, -0.18999166786670685, 0.21704860031604767, -0.055971939116716385, 0.08630882203578949, -0.2636953890323639, -0.34051740169525146, 0.3156867027282715, -0.07133667916059494, -0.22357173264026642, 0.34530171751976013, 0.06095996871590614, 0.1178603395819664, -0.07946408540010452, 0.09409499913454056, -0.15362955629825592, 0.15823549032211304, 0.03894209489226341, 0.40194812417030334, -0.3276168704032898, -0.28779420256614685, -0.20520801842212677, 0.03739882633090019, 0.2235126793384552, 0.2958233058452606, -0.13473369181156158, 0.24001213908195496, 0.1305549293756485, -0.12062827497720718, 0.3884795308113098, 0.112307608127594, -0.06060357764363289, 0.398002028465271, 0.06477345526218414, 0.07547185570001602, -0.31166550517082214, -0.08018200099468231, 0.1289864182472229, 0.8547832369804382, -0.2647314667701721, -0.028472349047660828, -0.3949286639690399, -0.17232953011989594, 0.16716207563877106, -0.08070395886898041, -0.05687059089541435, 0.10404050350189209, -0.07984021306037903, 0.2521965801715851, -0.11809275299310684, 0.31598371267318726, 0.030684925615787506, 0.012415247969329357, -0.3464336395263672, -0.19225487112998962, 0.4297923147678375, 0.3568989336490631, -0.15011067688465118, -0.2237389087677002, 0.40886807441711426, -0.014373062178492546, -0.06391872465610504, 0.17505523562431335, 0.20084933936595917, -0.0011164936004206538, -0.3558637201786041, -0.002950691618025303, 0.15296007692813873, -0.136025071144104, -0.2646702826023102, 0.32851365208625793, -0.10014893859624863, 0.15536004304885864, 0.01069773081690073, 0.10075780749320984, -0.10739646852016449, -0.37470147013664246, 0.12100264430046082, 0.18546758592128754, -0.2688748836517334, 0.0008623622707091272, 0.051581114530563354, -0.28607940673828125, -0.1844041645526886, -0.050510745495557785, 0.21434013545513153, -0.19402901828289032, -0.27713096141815186, 0.2604300379753113, -0.3077409565448761, -0.12419584393501282, 0.39828017354011536, 0.32457399368286133, 0.20795181393623352, -0.12736733257770538, 0.005169077776372433, -0.18746227025985718, 0.15018177032470703, 0.1597132831811905, 0.03456869721412659, -0.21228356659412384, -0.05869812145829201, 0.09627936035394669, 0.2168954610824585, 0.20298592746257782, 0.1693752408027649, -0.4257389307022095, 0.06486352533102036, -0.13610468804836273, -0.308689683675766, 0.012841242365539074, 0.06615984439849854, -0.13781867921352386, -0.09759747236967087, -0.14015129208564758, 0.41671326756477356, -0.1537625640630722, 0.04819218069314957, -0.09983625262975693, 0.21978558599948883, 0.021878760308027267, 0.10261624306440353, -0.1276298612356186, -0.10345926135778427, 0.0007600774988532066, -0.14161986112594604, -0.02417113073170185, 0.11880853772163391, -0.1406126618385315, -0.1124601736664772, -0.1003573089838028, -0.2284012883901596, 0.16324616968631744, -0.1658044457435608, 0.6511174440383911, -0.3887432813644409, -0.060450389981269836, 0.14637266099452972, 0.18320752680301666, 0.13441962003707886, 0.37524110078811646, 0.16092897951602936, 0.011222771368920803, -0.2065432220697403, -0.17268440127372742, 0.03386146202683449, 0.04880290850996971, -0.288360595703125, 0.03620295971632004, -0.14688873291015625, 0.2897859811782837, 0.024401823058724403, -0.39485207200050354, -0.03486626222729683, 0.0617368184030056, 0.136219322681427, -0.1866932064294815, 0.22298982739448547, -0.1561550348997116, -0.1858959048986435, -0.08627508580684662, 0.13785646855831146, 0.07367270439863205, -0.08365538716316223, 0.2193146049976349, -0.19751720130443573, 0.11999935656785965, -0.20959851145744324, 0.13824515044689178, -0.005127664189785719, 0.030853712931275368, -0.12748704850673676, -0.06514877825975418, -0.062105704098939896, 0.1286163479089737, 0.03461273014545441, -0.04979170858860016, 0.16323620080947876, 0.013039526529610157, 0.32097306847572327, -0.1952371895313263, 0.04761667177081108, -0.238752543926239, -0.8860710859298706, 0.3765707314014435, 0.15483494102954865, -0.19556860625743866, 0.19416071474552155, -0.45666059851646423, 0.7869943976402283, 0.03812842443585396, 0.45855358242988586, -0.12346602231264114, -0.0404665507376194, 0.1414760798215866, 0.1068493202328682, -0.02154991775751114, -0.3097200393676758, 0.7005347013473511, 0.39299625158309937, 0.09102773666381836, 0.03602808713912964, -0.006037482060492039, -0.03984147310256958, -0.3819003403186798, 0.020367978140711784, 0.10360653698444366, 0.12200339883565903, -0.23753665387630463, 0.06121844798326492, -0.20360536873340607, 0.10304433852434158, -0.013971351087093353, -0.07336852699518204, 0.22961942851543427, 0.026805195957422256, 0.13973891735076904, -0.37854403257369995, 0.27779144048690796, 0.07914958149194717, -0.03870909661054611, 0.2272225022315979, 0.08199071139097214, -0.20038707554340363, 0.016738297417759895, 0.12030460685491562, -0.15500135719776154, 0.12646272778511047, -0.08151477575302124, 0.32390981912612915, 0.25297898054122925, 0.18869568407535553, 0.026399007067084312, -0.1962975710630417, -0.002451399341225624, 0.1487184315919876, -0.2846868336200714, 0.01402540598064661, -0.2510344088077545, 0.1524365246295929, -0.0465070977807045, -0.08016788214445114, 0.433167964220047, 0.12339093536138535, -0.1489650309085846, -0.41768380999565125, -0.12106333673000336, 0.33560556173324585, 0.18164263665676117, 0.05824880674481392, 0.09791212528944016, 0.18999925255775452, 0.21864086389541626, -0.36841776967048645, 0.15353311598300934, 0.02666519582271576, -0.24733057618141174, -0.14960834383964539, -0.13008666038513184, 0.1664782613515854, 0.10767123103141785, 0.025690482929348946, 0.06579066812992096, 0.2518126964569092, 0.13115373253822327, 0.1019258201122284, -0.5082055926322937, -0.08771762996912003, 0.13466855883598328, -0.009534352459013462, 0.09139890968799591, 0.09921710193157196, -0.04570333659648895, -0.008433561772108078, 0.014606338925659657, 0.36673951148986816, -0.09160057455301285, -0.07353951036930084, -0.2061081826686859, 0.0381910540163517, -0.08679498732089996, 0.22879651188850403, -0.16698114573955536, -0.1210549920797348, 0.15273861587047577, -0.16113588213920593, 0.0842391848564148, 0.45078518986701965, 0.21970908343791962, 0.24355445802211761, -0.4158298075199127, -0.11663474142551422, 0.046343572437763214, 0.5057336688041687, -0.26782119274139404, -0.14782363176345825, -0.5669552087783813, -0.20915715396404266, -0.09782139211893082, -0.36093658208847046, 0.18140563368797302, 0.2241952121257782, -0.17741572856903076, 0.00891964789479971, 0.20912763476371765, 0.14938320219516754, -0.01092704851180315, -0.04399042949080467, 0.012228854931890965, 0.1820361465215683, -0.14017795026302338, -0.1297135204076767, -0.04182007163763046, -0.06257883459329605, -0.0013755662366747856, 0.1625864952802658, 0.14454227685928345, 0.0997500866651535, -0.026072440668940544, -0.12401260435581207, 0.06742984801530838, -0.03711910545825958, 0.00016863005293998867, -0.2076370269060135, 0.09484969079494476, -0.05992962047457695, -0.08456472307443619, 1.100320816040039, -0.835635244846344, -0.20693229138851166, 0.03352784737944603, 0.04132208600640297, 0.6572039127349854, -0.6043193340301514, 0.3232804834842682, -0.19801963865756989, 0.3153807520866394, -0.14503584802150726, -0.03513408079743385, -0.014915656298398972, -0.042893920093774796, 0.44233784079551697, -0.8477696776390076, 0.2339654564857483, 0.018789896741509438, -0.0589093379676342, 0.06411101669073105, -0.10630291700363159, 0.25207170844078064, -0.3086298704147339, -0.10644445568323135, -0.10156729072332382, 0.048462361097335815, -0.07301650941371918, 0.1314159780740738, -0.11127972602844238, 0.07775857299566269, -0.10523390024900436, 0.0955517366528511, -0.1435602903366089, 0.23293331265449524, 0.013465975411236286, -0.207192063331604, 0.16101667284965515, -0.023932483047246933, -0.10829649120569229, 0.21591849625110626, -0.05366023629903793, 0.11921810358762741, 0.023344242945313454, -0.05194840952754021, -0.09566403925418854, -0.31996098160743713, 0.1601334661245346, -0.5777269005775452, 0.6215838193893433, -0.5279439091682434, -0.2489074319601059, 0.015855606645345688, 0.19341015815734863, 0.6161412596702576, -0.03124246746301651, -0.2763824164867401, -0.3514503240585327, -0.1146654337644577, -0.006961116101592779, -0.11317555606365204, 0.27016112208366394, 0.09536894410848618, 0.7010427713394165, -0.6608468890190125, -0.1668681800365448, 0.1039254441857338, -0.22880207002162933, -0.0770500972867012, -0.2999407649040222, 0.37143009901046753, -0.022036250680685043, -0.12913471460342407, -0.07175415754318237, 0.03342068940401077, -0.1675848364830017, -0.09441136568784714, -0.0005800682120025158, 0.023332344368100166, 0.24165832996368408, -0.207388773560524, -0.28274205327033997, -0.32238295674324036, -0.3219829201698303, -0.06740599870681763, -0.032996755093336105, 0.18305328488349915, -0.7869881391525269, -0.7415092587471008, -0.3040001690387726, -0.4366212487220764, -0.2811674177646637, -0.2161141186952591, 0.11229095607995987, 0.285646915435791, -0.060408640652894974, -0.0014541250420734286, -0.17976118624210358, 0.031956691294908524, 0.2910103499889374, 0.27918875217437744, 0.1276126503944397, 0.029781237244606018, -0.0750480443239212, 0.10710927098989487, -0.2288816273212433, -0.45251742005348206, -0.2930334806442261, -0.06148450821638107, -0.241681307554245, -0.057716697454452515, 0.1644698679447174, 0.3432273864746094, -0.1609984189271927, -0.10602732747793198, 0.1604015827178955, 0.20989097654819489, -0.06157474219799042, -0.22166290879249573, 0.10756762325763702, -0.16575351357460022, -0.11204183846712112, -0.019010229036211967, 0.1493205726146698, 0.00927505362778902, -0.05170098692178726, 0.1007295623421669, -0.15627412497997284, 0.03378129005432129, -0.2963908314704895, -0.26507216691970825, -0.5890737175941467, 0.6819906234741211, 0.5659961104393005, 0.26085543632507324, -0.07702421396970749, -0.10453832894563675, -0.2583202123641968, -0.06065908074378967, -0.09967827796936035, -0.2869354486465454, -0.12251751124858856, -0.12335123121738434, 0.10787852108478546, -0.1225980594754219, 0.23091556131839752, -0.18887446820735931, 0.083138108253479, 0.15207313001155853, 0.21640296280384064, -0.540617823600769, -0.046496253460645676, -0.314805269241333, -0.42659133672714233, -0.28231120109558105, -0.3697455823421478, 0.18215052783489227, 0.2687520682811737, -0.16801844537258148, -0.5845455527305603, -0.22763948142528534, 0.25106382369995117, 0.2176673263311386, 0.12260071188211441, 0.2667156457901001, 0.6732370853424072, 0.15487788617610931, -0.03410356119275093, 0.2933137118816376, 0.06912019848823547, -0.26825180649757385, -0.10698824375867844, -0.03630122169852257, 0.2989460527896881, 0.1101621463894844, -0.12845247983932495, -0.03825085610151291, -0.01300269179046154, 0.2896125316619873, 0.004707462154328823, -0.10490968078374863, 0.16362939774990082, -0.11245240271091461, -0.1407841593027115, 0.1562333106994629, -0.032572634518146515, 0.02078469842672348, -0.05781806632876396, -0.17158998548984528, 0.12320155650377274, -0.34416595101356506, 0.19033369421958923, 0.03614046424627304, 0.8211418986320496, 0.1709587424993515, -0.07547051459550858, -0.12459714710712433, 0.0946936085820198, 0.1742345690727234, 0.25217100977897644, -0.018096204847097397, -0.11935953795909882, -0.007562785409390926, -0.10974183678627014, -0.09252844005823135, 0.3100578486919403, -0.009729028679430485, 0.616577684879303, -0.41786694526672363, -0.19348590075969696, 0.10778866708278656, -0.23991313576698303, 0.07830439507961273, -0.2045857161283493, 0.2988515794277191, -0.07611237466335297, -0.09796422719955444, -0.06580653786659241, -0.040712036192417145, 0.18516655266284943, 0.07313753664493561, 0.10845897346735, 0.10140159726142883, -0.3798164129257202, 0.18743759393692017, -0.05051654949784279, 0.2544217109680176, -0.11455262452363968, 0.17803022265434265, 0.005051315296441317, 0.013988800346851349, -0.008573561906814575, 0.1937287598848343, 0.0346594899892807, 0.05675341188907623, 0.1870289295911789, 0.14988484978675842, 0.08238247036933899, -0.3222954273223877, -0.036222103983163834, -0.4671313464641571, 0.4907534718513489, 0.0005714547587558627, -0.019382979720830917, -0.15071207284927368, -0.0023575173690915108, -0.018932538107037544, 0.0979665219783783, -0.03630972281098366, 0.1240151971578598, -0.2270549237728119, -0.025413639843463898, 0.07118456810712814, 0.3388086259365082, -0.10640215873718262, 0.016564279794692993, -0.1012909859418869, 0.07469049096107483, -0.015539512038230896, -0.13687698543071747, 0.038687918335199356, 0.02169155329465866, 0.26378968358039856, -0.16642355918884277, 0.08644676208496094, 0.027062512934207916, -0.1518474668264389, -0.07222939282655716, -0.3229263424873352, 0.13127417862415314, 0.0846363976597786, -0.11119657009840012, 0.02573331445455551, -0.4346317946910858, 0.041501037776470184, -0.2594495415687561, -0.04419182613492012, 0.3059442639350891, -0.045830629765987396, -0.1531030237674713, -0.04465760663151741, -0.13581913709640503, -0.10230507701635361, 0.029925527051091194, -0.16471365094184875, 0.26371437311172485, -0.28712964057922363, -0.011039800941944122, -0.19518525898456573, 0.34708309173583984, 0.05023285746574402, -0.12209239602088928, -0.05159122869372368, 0.04533272981643677, 0.32260453701019287, -0.07046768069267273, 0.07733286172151566, -0.3530943691730499, -0.22401277720928192, -0.08691823482513428, -0.09844574332237244, 0.3213602304458618, 0.02194904163479805, 0.401602178812027, -0.19216258823871613, 0.1852641999721527, 0.5428780317306519, 0.11301543563604355, 0.03176967427134514, 0.07628513127565384, 0.2635570168495178, -0.06411097198724747, -0.018760964274406433, 0.20690549910068512, -0.2239474356174469, 0.09171200543642044, -0.13715620338916779, 0.10613834857940674, -0.1923125982284546, 0.012510934844613075, -0.006868352647870779, -0.031798120588064194, -0.0022819647565484047, -0.2129267007112503, 0.10501818358898163, 0.19708482921123505, 0.12551851570606232, 0.06894432753324509, 0.08027159422636032, -0.16687017679214478, -0.030865494161844254, -0.01933661475777626, -0.05056679621338844, -0.1897466778755188, -0.24871255457401276, 0.07675253599882126, -0.26388970017433167, -0.06455838680267334, -0.3846673369407654, -0.07446815073490143, -0.14699861407279968, -0.0681292712688446, -0.04121208190917969, -0.052495021373033524, -0.22634677588939667, -0.4502626955509186, 0.042809512466192245, -0.0584246963262558, 0.13343070447444916, 0.28769102692604065, -0.12297385185956955, 0.09033878147602081, 0.014984169974923134, 0.16429130733013153, 0.018091246485710144, -0.17565876245498657, 0.13923391699790955, 0.07854543626308441, 0.2194395214319229, -0.17151819169521332, 0.05554456263780594, -0.08539342135190964, -0.08583873510360718, -0.06920508295297623, 0.1337631344795227, 0.22146041691303253, 0.37791383266448975, 0.08469162881374359, -0.103338822722435, 0.07197513431310654, -0.1270846277475357, 0.10908324271440506, 0.24693813920021057, -0.07792510837316513, -0.07782214134931564, -0.056539494544267654, 0.34307509660720825, 0.48701053857803345, 0.067428819835186, 0.05334443226456642, 0.2441280037164688, 0.11105407029390335, -0.840737521648407, -0.1579534411430359, 0.4866240918636322, -0.1030835509300232, 0.20210513472557068, -0.7007887959480286, -0.13309399783611298, -0.6275905966758728, 0.8093301057815552, -0.8816885948181152, -0.2255449742078781, -0.8722660541534424, 0.1707642376422882, -0.7786613702774048, 0.34143659472465515, -0.6282370090484619, -0.5399684309959412, -0.25912877917289734, 0.3535161018371582, 0.20224855840206146, 0.25402894616127014, -0.22432735562324524, -0.27058443427085876, -0.4070202708244324, 0.051831990480422974, 0.02273101732134819, 0.282669335603714, 0.35806286334991455, -0.021145731210708618, -0.08650364726781845, 0.161417156457901, 0.18689729273319244, 0.028614891692996025, -0.43840813636779785, 0.14459291100502014, 0.03318240866065025, -0.13917216658592224, 0.18932276964187622, 0.0022239494137465954, -0.3189023733139038, -0.15502992272377014, 0.050000619143247604, 0.25692567229270935, 0.517896831035614, 0.11492589861154556, 0.12145236879587173, 0.24525755643844604, 0.11009784042835236, -0.2782755196094513, -0.1900576800107956, 0.04010046645998955, 0.1261337697505951, 0.02035902626812458, 0.081485316157341, 0.048458803445100784, 0.05285736918449402, -0.052857909351587296, -0.08064541220664978, -0.37895241379737854, -0.06249319761991501, 0.044940561056137085, -0.031080156564712524, 0.2395147681236267, 0.02042870968580246, 0.3677055239677429, 0.034442219883203506, -0.41133299469947815, -0.2990640699863434, 0.04129466414451599, 0.22441405057907104, -0.20234057307243347, 0.30626919865608215, -0.30705103278160095, -0.04464361071586609, 0.14190801978111267, 0.047649845480918884, -0.11237561702728271, -0.26353731751441956, -0.11030527204275131, -0.07252325117588043, 0.5633667707443237, -0.12462964653968811, -0.09207451343536377, 0.18879592418670654, 0.28150686621665955, -0.6270020604133606, -0.002593786921352148, 0.350411057472229, 0.3159627318382263, 0.256681352853775, -0.10200623422861099, 0.14912427961826324, 0.49706435203552246, -0.0730646625161171, -0.0510031022131443, -0.17476458847522736, -0.5998539328575134, -0.200490802526474, -0.22530792653560638, 0.09756913781166077, -0.01735830493271351, -0.07951486855745316, 0.038873523473739624, -0.1795278638601303, 0.12474062293767929, 0.3046362102031708, -0.1395713835954666, -0.08003374934196472, 0.0015234219608828425, -0.0687277764081955, 0.14336654543876648, 0.22449719905853271, -0.13385625183582306, 0.03571338951587677, 0.27298563718795776, -0.12083379179239273, 0.0021529411897063255, -0.34715816378593445, -0.20459233224391937, -0.5069249272346497, 0.2640667259693146, 0.04230482876300812, -0.3036290407180786, 0.3300468921661377, -0.19459426403045654, -0.03544442728161812, 0.027653826400637627, 0.2938745617866516, -0.08574548363685608, 0.1608581244945526, 0.08579079061746597, -0.0714169293642044, -0.06967499107122421, 0.028130710124969482, -0.05906330421566963, -0.17711083590984344, -0.09879288822412491, 0.267322838306427, -0.12891271710395813, 0.150537371635437, 0.19180326163768768, 0.17471344769001007, 0.18320581316947937, 0.10402822494506836, 0.0031139131169766188, 0.015447142533957958, 0.03344106301665306, -0.09074222296476364, -0.06658255308866501, -0.1646997630596161, -0.012348274700343609, -0.22935259342193604, -0.10105042159557343, 0.30939480662345886, 0.21822823584079742, 0.14389199018478394, -0.01074306946247816, 0.1685992032289505, 0.12583236396312714, 0.26575660705566406, 0.0015330975875258446, -0.10298982262611389, 0.15507806837558746, 0.21202650666236877, -0.05634813383221626, 0.10007402300834656, 0.3439145088195801, 0.006102713756263256, 0.08940660208463669, 0.0847722738981247, 0.1528254598379135, 0.3893485367298126, 0.141755610704422, 0.22523783147335052, 0.22752217948436737, -0.07308202236890793, -0.19914692640304565, -0.11172866821289062, -0.05884398892521858, -0.09836817532777786, 0.05785086750984192, 0.053296227008104324, -0.01179954968392849, -0.10318407416343689, -0.10179910063743591, 0.18213820457458496, -0.22088055312633514, 0.3125581741333008, 0.03035438247025013, 0.11728662997484207, 0.11876006424427032, 0.07638921588659286, -0.18480762839317322, 0.07192131876945496, -0.10743105411529541, -0.1226186528801918, -0.1617705076932907, -0.3740222454071045, 0.02040129527449608, 0.10317552089691162, 0.19490231573581696, 0.38353630900382996, 0.1318410336971283, -0.09035930782556534, 0.3449987769126892, -0.04348524659872055, 0.15397922694683075, -0.019231555983424187, -0.2154645323753357, -0.4594593942165375, -0.24628616869449615, 0.2723415493965149, 0.20553317666053772, -0.11888325214385986, -0.26674553751945496, 0.18398581445217133, -0.11103786528110504, 0.37758979201316833, -0.04394879937171936, -0.2609550654888153, 0.26232296228408813, -0.17335495352745056, -0.016862906515598297, -0.12384114414453506, 0.20325416326522827, -0.020057279616594315, -0.1999686062335968, 0.3525501787662506, -0.23347410559654236, 0.16502709686756134, 0.12993666529655457, -0.1905554234981537, 0.06032226234674454, 0.0690809115767479, -0.07852520048618317, 0.04547804966568947, 0.07403738796710968, 0.2557973861694336, 0.11825662851333618, -0.01133688073605299, -0.04559480398893356, 0.09278770536184311, 0.23982195556163788, -0.021139521151781082, -0.2516821622848511, 0.08614519238471985, 0.22422908246517181, -0.06931155174970627, -0.05600081756711006, 0.3905669152736664, -0.15241803228855133, 0.07982123643159866, -0.02617236040532589, 0.2751748561859131, 0.2821855843067169, 0.2277437448501587, 0.026820451021194458, -0.3305261731147766, 0.07235947251319885, -0.09389662742614746, -0.2568076252937317, 0.3008398413658142, -0.2314751297235489, -0.0307651087641716, -0.10302263498306274, -0.2867538332939148, 0.5029496550559998, -0.1986803412437439, 0.03784583881497383, 0.29460665583610535, -0.47489652037620544, -0.11695915460586548, -0.24198293685913086, -0.5260037183761597, 0.3780849277973175, -0.06728897988796234, 0.0229074414819479, 0.23871812224388123, -0.2804965078830719, 0.15118816494941711, -0.3812839686870575, -0.26515325903892517, 0.0730939581990242, -0.09850867837667465, 0.49934056401252747, -0.458755761384964, -0.3264966905117035, 0.22878487408161163, -0.022890672087669373, 0.09981650859117508, 0.2346705049276352, 0.02302740514278412, -0.03915037214756012, -0.12797433137893677, 0.18400733172893524, 0.12977814674377441, -0.08997515588998795, -0.051054276525974274, -0.13337567448616028, -0.11979744583368301, -0.17308281362056732, 0.227243110537529, 0.06054350361227989, -0.06938537955284119, -0.15016528964042664, 0.19479478895664215, 0.015317452140152454, -0.016749272122979164, -0.1102740541100502, -0.059806592762470245, -0.03742456063628197, -0.2523181438446045, -0.0012581312330439687, 0.07520979642868042, -0.034775085747241974, 0.09907852858304977, -0.05422913283109665, -0.2008664309978485, 0.03454294800758362, 0.11339859664440155, -0.17255879938602448, -0.16201797127723694, -0.43902331590652466, 0.20498614013195038, -0.047727618366479874, -0.037523698061704636, 0.31063759326934814, -0.04249246418476105, 0.1453678160905838, -0.28281667828559875, 0.38842520117759705, 0.13569192588329315, -0.2168385237455368, -0.17116254568099976, -0.16895468533039093, 0.10177396982908249, -0.14779025316238403, -0.0923093855381012, 0.018444187939167023, -0.3757260739803314, 0.10003337264060974, -0.15262745320796967, 0.03227458894252777, 0.1986900269985199, 0.19810067117214203, 0.07755954563617706, -0.09571501612663269, -0.016727996990084648, 0.22979070246219635, -0.14459456503391266, -0.20284928381443024, 0.045789241790771484, -0.19753804802894592, -0.26590949296951294, 0.03793008252978325, -0.07281303405761719, 0.23502756655216217, -0.05553523823618889, -0.08234404772520065, -0.03658014535903931, -0.10581174492835999, 0.01656118594110012, -0.17873775959014893, -0.27969491481781006, 0.08268558233976364, -0.0019764266908168793, 0.023958805948495865, 0.1339181661605835, 0.2063991129398346, 0.23153235018253326, -0.5951651930809021, -0.1963350623846054, 0.1881798654794693, 0.21310344338417053, 0.05755138769745827, -0.2734414041042328, 0.018489284440875053, -0.16714011132717133, -0.17104029655456543, 0.1985301375389099, 0.14513976871967316, 0.19356372952461243, 0.07346820086240768, -0.023660993203520775, -0.2472318857908249, 0.4113217294216156, -0.11865703761577606, 0.332858145236969, 0.10316160321235657, -0.14677157998085022, 0.050538357347249985, 0.08921115845441818, -0.07854069769382477, -0.13447077572345734, -0.32286709547042847, 0.022342819720506668, -0.2693338692188263, -0.576917827129364, 0.10332313925027847, -0.1061711460351944, 0.2598095238208771, 0.03484343737363815, 0.13242416083812714, 0.1871514767408371, -0.0723385140299797, 0.09731078147888184, 0.5295984148979187, 0.23765356838703156, 0.3523307740688324, -0.067337766289711, 0.03876712918281555, 0.1920166164636612, 0.32443690299987793, -0.02995130978524685, -0.07277922332286835, 0.03094971925020218, -0.25505051016807556, -0.1680486500263214, -0.4168095588684082, -0.05993614345788956, -0.3823719322681427, -0.034056924283504486, -0.13626757264137268, 0.07527916878461838, -0.08961709588766098, -0.08176878839731216, 0.18831945955753326, -0.21074075996875763, -0.20997948944568634, -0.18376772105693817, -0.004140261095017195, 0.24150454998016357, 0.03317279368638992, -0.5857807397842407, 0.1852201521396637, -0.3333742022514343, 0.041168212890625, 0.05107179284095764, -0.05433371290564537, 0.25923943519592285, 0.0748915746808052, 0.05715736001729965, 0.06730589270591736, -0.489731103181839, 0.44183191657066345, 0.22703894972801208, 0.05242644622921944, 0.0930664986371994, -0.27650266885757446, 0.03369106724858284, 0.03948960453271866, 0.007159586530178785, 0.06941346079111099, 0.14555029571056366, -0.017780503258109093, 0.339633047580719, -0.1217525526881218, 0.19347518682479858, 0.12923356890678406, -0.4670546054840088, -0.47987100481987, -0.16320335865020752, -0.08023635298013687, 0.18367445468902588, 0.21343660354614258, 0.8126235604286194, 0.15021277964115143, 0.2347157746553421, 0.2625792324542999, 0.17462460696697235, 0.08971353620290756, -0.046435002237558365, 0.13861539959907532, 0.22618664801120758, -0.13533459603786469, 0.0378141850233078, 0.24908185005187988, 0.0656869187951088, 0.005313793662935495, -0.17157335579395294, 0.41042715311050415, -0.20255087316036224, 0.05531834810972214, -0.1528780460357666, 0.08543722331523895, 0.19650335609912872, -0.1888856589794159, -0.15535476803779602, -0.06527599692344666, 0.1843530535697937, 0.45194050669670105, 0.07604364305734634, -0.06730490922927856, 0.3316951394081116, 0.07282161712646484, 0.11391215026378632, -0.039585210382938385, -0.12920115888118744, -0.2918442487716675, -0.13352809846401215, 0.2152540236711502, -0.10184496641159058, -0.39801299571990967, 0.04961931332945824, -0.10508095473051071, -0.020666731521487236, 0.21357394754886627, 0.08754229545593262, 0.11759962886571884, 0.2126438468694687, -0.19390568137168884, -0.10500341653823853, 0.1853015124797821, 0.5263113379478455, 0.16182298958301544, -0.11749862879514694, -0.08479805290699005, -0.15468932688236237, -0.16599924862384796, -0.18019656836986542, -0.10778789967298508, 0.2130265235900879, -0.15394112467765808, -0.1205519512295723, 0.25031983852386475, 0.222129225730896, -0.061156101524829865, -0.23484422266483307, 0.06963155418634415, -0.006259399000555277, -0.18189148604869843, 0.2715180516242981, 0.32371586561203003, 0.11010561883449554, -0.13295814394950867, -0.29377564787864685, -0.089088574051857, 0.0043654898181557655, -0.11899489164352417, -0.13697974383831024, 0.03994176909327507, 0.08522715419530869, 0.25147712230682373, -0.06480859220027924, -0.13151699304580688, 0.050224900245666504, 0.015033447183668613, 0.14585553109645844, 0.11091268062591553, 0.29054901003837585, 0.2735958993434906, 0.12318551540374756, 0.01662181317806244, 0.23057526350021362, -0.020639071241021156, 0.18487648665905, 0.14016027748584747, 0.005072674248367548, -0.0011694012209773064, 0.054975319653749466, 0.013881760649383068, 0.15961962938308716, -0.021155135706067085, -0.14716938138008118, -0.3451150953769684, -0.36130964756011963, -0.11104663461446762, -0.03594083711504936, 0.2137901782989502, 0.03126437962055206, -0.03816724568605423, -0.09256383776664734, -0.018253015354275703, 0.14419010281562805, 0.0006525801727548242, -0.11917657405138016, 0.036773376166820526, -0.2197992205619812, -0.09173280745744705, 0.03236760199069977, -0.2576709985733032, -0.05140509083867073, -0.14118064939975739, -0.10993459075689316, 0.029105253517627716, 0.06650212407112122, 0.2561098337173462, -0.02914780005812645, -0.05947824567556381, 0.03726808354258537, -0.10017941892147064, 0.16304516792297363, 0.11781644821166992, -0.10834499448537827, -0.0365154892206192, 0.0398733988404274, 0.06617843359708786, 0.034657999873161316, -0.04420631751418114, -0.008472044952213764, -0.1534852534532547, -0.1023842990398407, 0.0405256561934948, -0.015209645964205265, 0.023949667811393738, 0.15003392100334167, -0.2809019982814789, -0.029722170904278755, -0.05372728034853935, 0.14367066323757172, 0.07851289212703705, -0.3952868580818176, -0.07986480742692947, 0.0023556866217404604, -0.15944229066371918, -0.0614878349006176, -0.10702447593212128, 0.1439565271139145, -0.2120228111743927, 0.02557915262877941, 0.17176023125648499, 0.16739560663700104, -0.24038706719875336, -0.21246746182441711, -0.023918168619275093, 0.540505051612854, -0.1809898018836975, 0.20811697840690613, 0.08059109002351761, -0.057141222059726715, 0.019994599744677544, 0.1874983310699463, -0.09688190370798111, -0.013172519393265247, -0.4595124423503876, 0.37612974643707275, -0.256284236907959, 0.20107348263263702, 0.28486812114715576, -0.02438102662563324, 0.23217369616031647, 0.08465280383825302, 0.0007630845648236573, 0.05018721893429756, -0.09071961790323257, -0.12002808600664139, 0.3309723734855652, -0.1842379868030548, 0.14355342090129852, 0.005185706075280905, -0.2294350415468216, -0.05355728045105934, 0.48544859886169434, -0.517569363117218, 0.2063850462436676, -0.1323196291923523, -0.1079949289560318, -0.10061872750520706, 0.2548682391643524, -0.44843652844429016, 0.047286663204431534, 0.05166412889957428, 0.417557954788208, -0.01249211560934782, -0.1359574943780899, -0.10022309422492981, 0.0827413871884346, -0.15072326362133026, -0.2747330069541931, -0.2096046656370163, -0.1154729351401329, 0.09681757539510727, -0.2307836264371872, 0.5060977339744568, -0.05235932022333145, 0.4393054246902466, -0.04534398391842842, -0.14397266507148743, 0.1998753696680069, 0.02328309789299965, -0.20748181641101837, -0.17935651540756226, -0.22792932391166687, 0.25166669487953186, -0.0129669439047575, -0.04557724669575691, 0.17918232083320618, -0.18196387588977814, 0.1899234801530838, 0.19362203776836395, 0.3192810118198395, -0.025429068133234978, -0.24436622858047485, -0.016098657622933388, 0.11817875504493713, -0.1855558305978775, 0.30449607968330383, -0.2577654719352722, -0.11324092000722885, 0.39877989888191223, 0.2998908460140228, 0.004595975391566753, 0.24515561759471893, -0.08757473528385162, -0.3600056767463684, -0.08376529812812805, 0.0582219734787941, -0.04029078409075737, -0.348995178937912, 0.0265126284211874, 0.21574485301971436, 0.3124353587627411, -0.19828982651233673, 0.021803971379995346, 0.3972940444946289, -0.003388072829693556, -0.208460733294487, -0.12252029031515121, 0.020427200943231583, 0.2245621234178543, -0.009824837557971478, -0.2591610252857208, -0.07796768099069595, -0.09670642763376236, 0.10937971621751785, 0.060571469366550446, 0.025957154110074043, 0.08969692140817642, 0.3123190999031067, -0.10777900367975235, -0.04644740745425224, -0.11645533889532089, 0.012853646650910378, 0.19188015162944794, 0.0867285281419754, 0.03354359418153763, -0.1392933875322342, -0.10737677663564682, -0.20348846912384033, 0.04697715863585472, -0.06061071902513504, 0.2363056093454361, -0.1548020839691162, -0.13673602044582367, -0.25460049510002136, -0.07224463671445847, -0.004683998413383961, -0.0215652696788311, -0.2247592806816101, -0.05714729055762291, 0.02111058123409748, 0.11890843510627747, 0.18222400546073914, 0.19507305324077606, 0.11835907399654388, -0.10753953456878662, 0.2938554286956787, 0.05136271193623543, 0.2158493846654892, -0.20098286867141724, -0.05192648246884346, 0.028849048539996147, -0.11086581647396088, 0.1797092854976654, 0.044934213161468506, 0.2055802196264267, -0.005441699642688036, -0.22445271909236908, -0.11570756882429123, 0.12076684087514877, 0.14343439042568207, 0.06532302498817444, 0.2793460786342621, 0.07746605575084686, 0.19062545895576477, 0.09743116796016693, -0.06499479711055756, 0.06429249793291092, 0.3456251323223114, 0.29851460456848145, -0.03130565211176872, -0.29195916652679443, 0.009761888533830643, -0.11242829263210297, 0.023152334615588188, 0.18135355412960052, 0.17960712313652039, 0.10708556324243546, -0.2967822849750519, -0.03792605549097061, -0.024491282179951668, -0.2610318660736084, 0.10874343663454056, 0.12668263912200928, 0.03701998293399811, 0.050083402544260025, -0.20664630830287933, -0.3208068907260895, 0.18006816506385803, 0.17752131819725037, 0.023264627903699875, -0.012203574180603027, 0.001201460137963295, 0.26659151911735535, -0.08492536097764969, 0.15601015090942383, 0.23463259637355804, 0.19093549251556396, -0.019554609432816505, -0.18096540868282318, 0.07560514658689499, 0.14112910628318787, -0.22079594433307648, -0.32876458764076233, -0.13107945024967194, -0.12008517235517502, 0.11668361723423004, -0.24228598177433014, 0.11137044429779053, -0.00478063290938735, -0.2426958829164505, 0.014837055467069149, -0.03598768636584282, -0.17554934322834015, 0.05680494382977486, -0.04103219136595726, 0.1416388750076294, -0.032966069877147675, 0.19763176143169403, 0.025494391098618507, -0.12168923765420914, 0.03349210321903229, -0.09600511938333511, -0.09810902178287506, -0.04586344212293625, 0.14747615158557892, 0.20174410939216614, -0.09236320853233337, -0.21566973626613617, -0.10165004432201385, -0.16519008576869965, 0.03948076441884041, -0.11287245154380798, -0.18772737681865692, -0.14096710085868835, -0.006604434456676245, -0.09640363603830338, -0.19609540700912476, -0.0878177061676979, 0.21144326031208038, -0.14768585562705994, -0.03713960200548172, 0.22765541076660156, -0.04064290598034859, -0.15609794855117798, -0.04560767486691475, -0.09339319169521332, 0.17893075942993164, -0.08952264487743378, -0.16110067069530487, 0.1797267347574234, 0.07775460928678513, -0.18084760010242462, -0.1865014284849167, -0.015113187953829765, 0.2124892622232437, 0.26214686036109924, 0.18882474303245544, 0.18812063336372375, -0.19812171161174774, 0.00071628054138273, -0.062396470457315445, 0.003448865143582225, -0.03333171829581261, -0.02457059919834137, 0.30484265089035034, 0.0428461879491806, -0.029448146000504494, 0.42630428075790405, -0.20076404511928558, 0.06092694774270058, 0.21969066560268402, -0.11077864468097687, 0.06390133500099182, -0.2667379379272461, -0.21816445887088776, -0.38483211398124695, -0.42317938804626465, 0.008992301300168037, -0.21292228996753693, -0.16954955458641052, 0.11116842180490494, 0.40615904331207275, 0.07595711946487427, 0.21917982399463654, 0.22698251903057098, 0.04893822222948074, -0.1184956505894661, -0.21436470746994019, 0.2890394330024719, -0.4076991379261017, -0.19807247817516327, 0.14434342086315155, 0.1868358701467514, 0.19334617257118225, 0.10198858380317688, 0.3106641471385956, 0.3007032871246338, -0.007031416054815054, -0.22839774191379547, 0.1041715145111084, -0.03387477621436119, -0.15547797083854675, 0.36301499605178833, 0.02437511272728443, 0.06438110023736954, -0.10433356463909149, -0.15648093819618225, 0.22123274207115173, 0.21252267062664032, -0.22982536256313324, -0.2670232355594635, -0.1721286028623581, 0.45937982201576233, -0.25956395268440247, -0.2861885130405426, 0.1491488367319107, -0.33423560857772827, 0.21585632860660553, 0.18703985214233398, 0.17013069987297058, 0.04317501187324524, -0.1832195669412613, -0.013464733958244324, -0.05864029750227928, -0.3218054473400116, 0.15935811400413513, -0.09560122340917587, -0.012145960703492165, -0.04713423550128937, -0.17737483978271484, -0.17438268661499023, 0.10951421409845352, 0.04248090088367462, -0.1823854297399521, -0.2195763885974884, -0.39199262857437134, 0.48284003138542175, -0.23982195556163788, 0.09930893778800964, 0.1563456654548645, 0.03778102248907089, -0.011067964136600494, -0.129136323928833, 0.17809057235717773, -0.07099547982215881, -0.11658596992492676, -0.38713374733924866, -0.044674456119537354, 0.12009258568286896, 0.33720719814300537, -0.09353459626436234, 0.2221621721982956, 0.004189649596810341, -0.11027401685714722, 0.21634285151958466, -0.1541157066822052, -0.24269145727157593, 0.1370360553264618, -0.39681410789489746, 0.35250937938690186, -0.3501879870891571, -0.555343508720398, -0.4244271218776703, -0.09567441791296005, 0.09307130426168442, -0.1184205710887909, -0.19853194057941437, -0.15936832129955292, -0.03703330084681511, 0.04745803400874138, 0.10240470618009567, -0.27444028854370117, 0.15620696544647217, -0.035349130630493164, -0.13625842332839966, 0.19774724543094635, 0.4568532705307007, -0.9740776419639587, 0.45113831758499146, -0.21517623960971832, -0.0754501223564148, 0.13083000481128693, -0.28959396481513977, -0.530287504196167, 0.10866480320692062, -0.3617094159126282, -0.06816761940717697, -0.17278757691383362, -0.14120511710643768, -0.23307761549949646, 0.23822207748889923, -0.06368084251880646, -0.16233892738819122, 0.18688496947288513, 0.09755022823810577, 0.05815407261252403, -0.2485538274049759, 0.10974587500095367, 0.034969739615917206, 0.06134482100605965, -0.2508343756198883, -0.07935597747564316, 0.03520587086677551, 0.014974789693951607, 0.375620573759079, 0.35383424162864685, -0.2424638271331787, -0.1997644007205963, 0.19437472522258759, 0.29264941811561584, -0.3656083047389984, -0.0916796550154686, 0.08451314270496368, 0.06750765442848206, -0.13893947005271912, -0.12534575164318085, -0.10482775419950485, 0.10096533596515656, -0.004745303653180599, -0.006011495366692543, 0.3005727529525757, -0.19217494130134583, -0.1048268973827362, -0.2172810137271881, -0.26468634605407715, 0.1339854896068573, -0.009085601195693016, 0.003862527199089527, -0.08562033623456955, 0.19596651196479797, 0.08863799273967743, 0.04517335817217827, -0.14214138686656952, 0.21497182548046112, 0.2766854763031006, -0.0920817106962204, -0.021746650338172913, 0.12829209864139557, -0.105007104575634, 0.022404387593269348, 0.050270695239305496, -0.008223588578402996, -0.058157164603471756, -0.07114025205373764, 0.03032020665705204, -0.013615906238555908, 0.29034772515296936, 0.14942295849323273, 0.03844738006591797, -0.0021281063091009855, -0.058256302028894424, -0.22151656448841095, -0.07083955407142639, -0.043740421533584595, 0.28254884481430054, 0.0519305057823658, -0.15446747839450836, -0.6475213766098022, 0.03404558449983597, -0.06216228008270264, 0.18614231050014496, -0.17359432578086853, -0.9766449332237244, 1.194380283355713, 0.17399422824382782, -0.6779564619064331, 0.2928767204284668, -0.2545819878578186, 0.02687404304742813, 0.7186560034751892, -1.2085906267166138, 1.084326982498169, 0.5772668123245239, -0.13360099494457245, -0.3804427981376648, 0.10179200023412704, -0.7334862947463989, 0.12309245020151138, -0.24366308748722076, 0.06518369168043137, 0.07622014731168747, 0.08465400338172913, 0.30835574865341187, 0.3490179479122162, -0.17169137299060822, 0.3222799599170685, 0.04477938264608383, 0.2599247694015503, 0.3866221308708191, -0.44439107179641724, -0.13504795730113983, 0.14824628829956055, -0.4852590560913086, 0.09958350658416748, 0.02950351871550083, -0.07300572097301483, 0.07738710939884186, 0.42444658279418945, 0.11288291215896606, 0.003569577820599079, -0.1799614578485489, -0.38766899704933167, 0.23592473566532135, -0.013417255133390427, -0.013440189883112907, 0.09179729223251343, 0.24607090651988983, 0.12405189126729965, -0.14444276690483093, 0.17175883054733276, 0.005529717542231083, -0.33562377095222473, -0.08961369842290878, 0.31105539202690125, -0.4018740952014923, -0.1420564204454422, -0.38331833481788635, -0.28104111552238464, -0.2987906336784363, -0.04379871115088463, 0.14878135919570923, 0.06435414403676987, -0.059440597891807556, -0.2244018316268921, 0.25389665365219116, 0.3859384059906006, -0.0666596069931984, 0.3216376304626465, -0.12105768918991089, -0.3802138566970825, 0.1039038896560669, -0.2129221111536026, 0.19451184570789337, 0.43102550506591797, -0.0022317462135106325, 0.1635490208864212, 0.28020405769348145, 0.055041491985321045, 0.06339790672063828, 0.3671143651008606, -0.14198385179042816, -0.01634875126183033, -0.013880254700779915, 0.24345040321350098, 0.06009187176823616, 0.3066409230232239, -0.46035799384117126, 0.18547524511814117, -0.20646913349628448, 0.12357333302497864, 0.06301683932542801, -0.013804269023239613, 0.076624795794487, -0.15450620651245117, 0.1294325441122055, 0.31741443276405334, 0.21380199491977692, -0.36823782324790955, -0.005952626466751099, -0.00017332071729470044, 0.1361243575811386, 0.06773626804351807, -0.24514973163604736, 0.3104395270347595, -0.02024613507091999, -0.33485642075538635, -0.04983997344970703, -0.17160458862781525, 0.3357965350151062, -0.116122305393219, -0.08008307963609695, 0.1804414689540863, 0.04309969022870064, 0.1419205367565155, 0.07061168551445007, -0.03912363573908806, 0.15414707362651825, 0.2353624701499939, -0.03922593221068382, -0.030815336853265762, -0.024879734963178635, -0.20879757404327393, 0.13737128674983978, 0.22769775986671448, -0.13345502316951752, 0.22153231501579285, -0.01754131354391575, 0.1952868103981018, 0.1220952719449997, 0.3291501998901367, 0.03150540590286255, -0.23429642617702484, -0.036354195326566696, 0.28721725940704346, 0.07599512487649918, 0.0251397043466568, 0.02407338283956051, 0.3867266774177551, 0.20235738158226013, 0.03723285719752312, 0.3555475175380707, 0.05852556601166725, 0.28113919496536255, 0.14529137313365936, -0.45136168599128723, -0.3542422950267792, 0.22920313477516174, 0.009778949432075024, 0.1412375420331955, 0.5362141132354736, 0.11714497208595276, -0.033086903393268585, 0.07441148906946182, -0.48034796118736267, 0.1577788144350052, -0.188119575381279, 0.3920995593070984, -0.3297261893749237, -0.26437100768089294, 0.03232713043689728, -0.00421608192846179, 0.2925730049610138, -0.03956073895096779, -0.23838454484939575, 0.30420663952827454, -0.1258585900068283, 0.46741676330566406, -0.25595149397850037, -0.197676882147789, -0.0881684422492981, 0.10358114540576935, 0.30955299735069275, -0.13934431970119476, 0.1454343944787979, -0.14528155326843262, 0.3852311968803406, -0.15916651487350464, 0.1664319485425949, -0.06593966484069824, -0.03858330473303795, -0.3143312633037567, 0.24943289160728455, -0.31863924860954285, 0.05162752419710159, 0.11915970593690872, 0.23605751991271973, 0.057125650346279144, -0.32506516575813293, 0.028367994353175163, -0.05220901221036911, -0.029165832325816154, -0.16154003143310547, 0.06228338181972504, -0.1018281877040863, 0.18052631616592407, -0.12703320384025574, 0.06317340582609177, 0.28850311040878296, 0.05929257348179817, 0.45779117941856384, 0.1652073860168457, -0.32688337564468384, -0.19039994478225708, -0.18029667437076569, 0.3557097911834717, -0.43947532773017883, -0.3286290466785431, 0.05361425504088402, 0.16705067455768585, -0.11054497212171555, -0.24827241897583008, -0.08225643634796143, -0.19178406894207, 0.28263744711875916, -0.05232704058289528, -0.3330618739128113, -0.46950989961624146, 0.09137309342622757, 0.02629339136183262, -0.16807900369167328, -0.03415178507566452, 0.07573103159666061, 0.48084405064582825, 0.2253732979297638, -0.09416458010673523, -0.22858503460884094, 0.0468406043946743, -0.1250758320093155, -0.23815877735614777, 0.007798257749527693, 0.01693843863904476, 0.09921654313802719, 0.019789177924394608, -0.00017326997476629913, 0.07174775749444962, 0.06253831088542938, -0.16716337203979492, 0.005757284816354513, 0.10726524889469147, 0.11643277853727341, -0.022421032190322876, -0.019486747682094574, 0.14662477374076843, -0.019311364740133286, -0.024601513519883156, -0.06306059658527374, -0.1399223506450653, 0.06997054070234299, -0.15900535881519318, 0.17205296456813812, 0.2436486929655075, 0.09254594147205353, 0.22065016627311707, -0.1276828944683075, 0.07445628941059113, -0.024382712319493294, -0.08434722572565079, 0.00901069212704897, -0.010884416289627552, -0.1195317879319191, -0.11258843541145325, -0.0928296223282814, -0.3766142427921295, -0.08807168900966644, -0.23213012516498566, -0.060631439089775085, 0.10621072351932526, 0.2882336676120758, 0.09688393026590347, -0.06978509575128555, 0.10044588148593903, 0.09868022054433823, 0.21832333505153656, -0.08666060864925385, -0.0892861932516098, 0.564075231552124, 0.0638800784945488, 0.1642635315656662, 0.15948404371738434, -0.03664479777216911, 0.11823400110006332, -0.3866535723209381, -0.40920203924179077, 0.18379312753677368, 0.1758441925048828, 0.32961347699165344, 0.05034760758280754, -0.09180250763893127, 0.17553876340389252, 0.251058965921402, -0.03577926754951477, -0.14568190276622772, -0.2614755928516388, -0.04215293750166893, 0.2724231779575348, -0.026476696133613586, 0.05905314162373543, 0.09901802986860275, 0.3735256791114807, 0.15397541224956512, 0.12790487706661224, 0.3102926015853882, -0.1942932903766632, -0.35419532656669617, 0.22593767940998077, 0.00652316166087985, -0.20380866527557373, -0.03400684893131256, -0.06129378825426102, 0.12587471306324005, -0.2280249297618866, 0.2263273447751999, 0.35493770241737366, -0.1994594931602478, -0.17067480087280273, -0.12449996173381805, -0.160526841878891, 0.12005679309368134, 0.3046659231185913, 0.08374880254268646, -0.11009659618139267, 0.23517856001853943, 0.2048233598470688, -0.08611501753330231, -0.4748106002807617, 0.08817828446626663, -0.04137256368994713, -0.010019727051258087, 0.05643051117658615, 0.07360133528709412, 0.22792179882526398, -0.3863564729690552, -0.2291470617055893, 0.05947389826178551, 0.12806347012519836, 0.06383471935987473, 0.14436295628547668, 0.279534250497818, 0.0773848444223404, -0.38524454832077026, -0.14980928599834442, -0.19139811396598816, 0.04422665387392044, -0.217393696308136, -0.03628470376133919, 0.13546977937221527, -0.005650847684592009, 0.03701886534690857, 0.08530556410551071, 0.08035098761320114, -0.1339920163154602, 0.02408321015536785, 0.290825754404068, -0.16850484907627106, -0.25121012330055237, -0.38058748841285706, 0.10108775645494461, 0.17939886450767517, -0.39691874384880066, 0.024049853906035423, 0.0831911638379097, -0.13894528150558472, 0.044734615832567215, 0.01741136983036995, -0.05618402361869812, 0.2043081670999527, 0.46155646443367004, -0.3367628753185272, -0.12342894077301025, -0.04662526398897171, 0.3237602114677429, -0.07261718809604645, -0.4147058427333832, -0.01618652604520321, -0.17191626131534576, -0.13195209205150604, -0.3028361201286316, -0.0032070616725832224, 0.03389506787061691, -0.2692708373069763, 0.05323951691389084, 0.1870894581079483, 0.0007963821990415454, 0.14393840730190277, -0.09327135980129242, -0.14648635685443878, -0.009965311735868454, 0.07742054760456085, 0.2631465494632721, 0.06868963688611984, -0.21774445474147797, -0.06351937353610992, -0.06495536118745804, 0.1668650507926941, -0.04875066503882408, -0.0946822389960289, -0.0450361967086792, -0.01755659654736519, -0.05369268357753754, 0.0630846917629242, -0.25651246309280396, -0.137279212474823, 0.19558747112751007, 0.17547084391117096, 0.12257424741983414, -0.2095162719488144, -0.03394865244626999, -0.16487933695316315, 0.046599503606557846, -0.007773292250931263, 0.19939766824245453, 0.18070289492607117, 0.2455093115568161, 0.049584388732910156, -0.11571921408176422, 0.036058928817510605, 0.05139784514904022, -0.0544026643037796, -0.2606436312198639, -0.07122233510017395, 0.10231183469295502, -0.11342015862464905, 0.034409377723932266, 0.1731330305337906, 0.035577766597270966, 0.10328224301338196, -0.11775626242160797, 0.2532275319099426, -0.008707904256880283, -0.12843742966651917, -0.01856761984527111, 0.08100393414497375, 0.24434372782707214, 0.23971988260746002, 0.5220343470573425, -0.3116023540496826, -0.1122676208615303, -0.15008604526519775, 0.1337946504354477, -0.1628645360469818, -0.24724721908569336, 0.1243969202041626, 0.029319744557142258, 0.050585176795721054, 0.02190476655960083, 0.0061795711517333984, -0.07675091922283173, -0.17646977305412292, -0.08226487040519714, -0.11709669232368469, -0.22606922686100006, 0.10393583029508591, -0.17675188183784485, 0.1344616860151291, 0.06699641793966293, -0.09620831161737442, -0.15288670361042023, 0.09624387323856354, -0.07690051198005676, -0.06244519352912903, 0.23589135706424713, 0.10909195244312286, -0.09192768484354019, -0.2723131775856018, -0.2896538972854614, 0.5447499752044678, -0.047000110149383545, 0.11155407130718231, -0.2613622844219208, -0.39463698863983154, -0.2929541766643524, 0.4436413049697876, 0.1448233425617218, -0.12853188812732697, 0.36483410000801086, -0.24142338335514069, -0.10079226642847061, 0.10996410250663757, -0.1348351389169693, 0.046440888196229935, -0.25286564230918884, 0.09570635110139847, -0.040815550833940506, -0.07666947692632675, 0.20695464313030243, 0.1648574024438858, -0.09781983494758606, 0.06997736543416977, 0.11180904507637024, 0.04954904690384865, 0.09920446574687958, -0.05618791654706001, 0.08242174237966537, 0.13393452763557434, -0.16453014314174652, 0.19343413412570953, -0.21022926270961761, 0.11448042094707489, 0.3251189589500427, 0.09300485998392105, -0.02409224957227707, -0.10926578938961029, 0.5289967656135559, 0.22657771408557892, -0.7600451707839966, -0.30762237310409546, 0.27965956926345825, -0.0911342054605484, -0.09458696842193604, -0.11951974034309387, -0.2560376226902008, 0.33319392800331116, 0.17931944131851196, 0.0008047359297052026, -0.31043922901153564, 0.003137568011879921, 0.20120014250278473, -0.188144713640213, -0.03501255810260773, -0.10859690606594086, 0.10292195528745651, -0.004220038652420044, -0.09730958193540573, 0.10792877525091171, -0.015932170674204826, -0.04277292266488075, -0.14721140265464783, -0.1610778421163559, 0.27891233563423157, -0.035003241151571274, -0.1166505366563797, -0.004541642032563686, 0.13370977342128754, 0.07627096027135849, -0.31404006481170654, 0.06786458939313889, 0.09426136314868927, 0.014568348415195942, -0.0061265709809958935, -0.042509354650974274, 0.02217734046280384, 0.011467011645436287, -0.2716819941997528, 0.025768108665943146, -0.3012082278728485, -0.25460463762283325, 0.198410302400589, 0.11240215599536896, 0.12779341638088226, -0.17457987368106842, 0.02804674580693245, 0.07548597455024719, -0.034524571150541306, -0.007963131181895733, 0.1047053411602974, -0.30543211102485657, 0.15644140541553497, 0.17228460311889648, -0.2252425104379654, 0.1384936273097992, -0.026858048513531685, -0.3072379231452942, -0.08337774872779846, -0.1419162005186081, 0.24647468328475952, -0.07843947410583496, -0.020249158143997192, 0.027902355417609215, 0.13485299050807953, 0.04094570130109787, -0.3134256601333618, 0.1841636598110199, 0.13805121183395386, -0.2735123038291931, -0.005351453088223934, 0.03244206681847572, 0.26431113481521606, 0.2095031589269638, 0.16528435051441193, -0.061041928827762604, -0.21341419219970703, -0.09657320380210876, 0.15576259791851044, -0.26641878485679626, 0.15665261447429657, -0.20101861655712128, -0.07469435781240463, -0.38808783888816833, 0.07057473063468933, 0.039901211857795715, -0.017103025689721107, -0.09095364809036255, -0.027447037398815155, -0.07727617025375366, -0.15724922716617584, -0.24284476041793823, -0.15165266394615173, 0.03541603311896324, 0.15623925626277924, -0.04103844612836838, 0.3108236789703369, -0.19779491424560547, 0.14850369095802307, -0.08903306722640991, -0.11587320268154144, 0.030251719057559967, 0.24635633826255798, -0.2967677116394043, -0.30078569054603577, -0.12902145087718964, 0.05848828703165054, -0.06981878727674484, -0.3361537456512451, 0.32551220059394836, 0.12294360250234604, 0.08022227883338928, -0.218333438038826, -0.024620192125439644, 0.0809178575873375, -0.2602413594722748, 0.05719764903187752, 0.17767980694770813, 0.38344621658325195, 0.2889017164707184, -0.054500140249729156, 0.031025342643260956, 0.08644580841064453, -0.2942923903465271, -0.04433765262365341, -0.08954710513353348, 0.3924696743488312, -0.26137080788612366, -0.29091760516166687, 0.24098335206508636, -0.07020429521799088, 0.32263967394828796, -0.19648711383342743, 0.06487317383289337, 0.3959854245185852, -0.13426539301872253, -0.014091704040765762, -0.06300137937068939, -0.3413069248199463, -0.10100799053907394, -0.2627846896648407, 0.23671004176139832, 0.14064253866672516, 0.08930617570877075, -0.1518336981534958, -0.08037814497947693, -0.03831944614648819, 0.4997960925102234, -0.08880028128623962, -0.13147404789924622, 0.20509831607341766, -0.3453734219074249, -0.23858530819416046, 0.014800433069467545, 0.06866884231567383, 0.02370295114815235, 0.016516564413905144, 0.15553238987922668, 0.27309557795524597, -0.016071178019046783, -0.09810440987348557, -0.23496708273887634, 0.20822881162166595, -0.2436707466840744, -0.22783535718917847, 0.2357613742351532, 0.05672026053071022, 0.1780300736427307, -0.01139430608600378, -0.1065736785531044, 0.07185797393321991, -0.13741250336170197, 0.20655298233032227, -0.10349363833665848, 0.013281410560011864, -0.06665409356355667, -0.1531744748353958, -0.15629388391971588, 0.17584943771362305, 0.012397406622767448, -0.10836440324783325, -0.27567365765571594, 0.03194228559732437, 0.09775365144014359, -0.20819640159606934, 0.027172408998012543, 0.06158847361803055, 0.025876443833112717, -0.11075940728187561, -0.20647668838500977, -0.3097898066043854, -0.11468258500099182, -0.054834239184856415, 0.016415977850556374, -0.09187402576208115, 0.001347709447145462, 0.3138742744922638, 0.21508780121803284, -0.13307160139083862, -0.0497753769159317, -0.2590343952178955, -0.6533843278884888, 0.0555499903857708, -0.02430214360356331, 0.026136960834264755, 0.32819312810897827, 0.09164092689752579, -0.2889270782470703, 0.02979440428316593, 0.06085545942187309, -0.22116009891033173, 0.09884969890117645, 0.15970218181610107, -0.22122853994369507, -0.1876370757818222, 0.002113012131303549, 0.5381089448928833, -0.12563204765319824, 0.3627513349056244, -0.08133184909820557, 0.23060494661331177, -0.34035107493400574, 0.029434464871883392, 0.3022810220718384, -0.3685157597064972, 0.2714993953704834, 0.007849323563277721, 1.144787073135376, -0.25403329730033875, -0.13204839825630188, 0.11009037494659424, 0.0693710669875145, -0.17413240671157837, -0.017196645960211754, -0.02319265529513359, 0.11905422806739807, -0.2124186009168625, 0.09629250317811966, 0.21842895448207855, 0.04759851470589638, -0.02513767220079899, -0.07414745539426804, -0.93988436460495, 0.15409545600414276, 0.14027199149131775, -0.07940565794706345, -0.08914394676685333, 0.029824234545230865, 0.040167197585105896, 0.12166892737150192, -0.16244898736476898, -0.3657585084438324, 0.07670368254184723, 0.1421792060136795, 0.07525721937417984, 0.20084847509860992, -0.042578086256980896, -0.05994183570146561, -0.14292597770690918, 0.18284380435943604, -0.06977315247058868, -0.1524192839860916, -0.06581462919712067, -0.05666551738977432, 0.35104450583457947, 0.041719552129507065, -0.13191959261894226, -0.03834040090441704, 0.18101918697357178, 0.011040493845939636, -0.10716159641742706, -0.23725536465644836, -0.12091348320245743, 0.25274989008903503, 0.13410045206546783, -0.02782820537686348, -0.2113584727048874, -0.15574972331523895, -0.058966729789972305, 0.0783337652683258, -0.009056179784238338, 0.1013680100440979, 0.22056078910827637, 0.1733797937631607, 0.11506323516368866, -0.23667208850383759, -0.2102939933538437, -0.1692933291196823, -0.21627061069011688, 0.06669079512357712, 0.16037459671497345, -0.004923396278172731, 0.1651843637228012, 0.07829348742961884, -0.3354492783546448, -0.02193642035126686, -0.04419320449233055, -0.0007897833129391074, -0.2798052430152893, 0.056494634598493576, 0.1261904388666153, -0.03189284726977348, -0.11322181671857834, -0.1029062271118164, 0.24258549511432648, 0.052005376666784286, -0.05151840299367905, 0.12501643598079681, 0.14426906406879425, -0.0498187318444252, -0.07410632818937302, 0.2798447012901306, 0.3427148461341858, -0.08465536683797836, 0.13495081663131714, -0.12165689468383789, 0.11976808309555054, 0.0472247377038002, -0.09568881243467331, -0.024592967703938484, -0.27053993940353394, 0.1658446043729782, -0.18790432810783386, 0.44225361943244934, 0.05089116469025612, -0.23550783097743988, -0.35468554496765137, -0.21471261978149414, -0.054583773016929626, -0.049672000110149384, 0.03510800376534462, 0.1765725314617157, -0.09895264357328415, -0.15786924958229065, 0.8178685307502747, -0.05773359537124634, -0.09409170597791672, -0.13887326419353485, -0.4477081298828125, 0.05100894719362259, 0.07656760513782501, 0.2048068791627884, 0.0957801342010498, 0.12743347883224487, -0.248818039894104, 0.015296727418899536, -0.015576601959764957, -0.19382154941558838, 0.11840709298849106, -0.23467186093330383, 0.22108577191829681, 0.34991031885147095, 0.08000632375478745, -0.03271568939089775, -0.079828642308712, 0.07753033190965652, -0.09910528361797333, -0.16797776520252228, 0.11671886593103409, 0.10583102703094482, 0.33288589119911194, 0.06508274376392365, 0.1453341692686081, -0.09997431933879852, -0.07544699311256409, -0.102824367582798, 0.08264993876218796, -0.12332320213317871, -0.009684053249657154, -0.124033123254776, -0.1969538927078247, -0.17855945229530334, -0.09284091740846634, -0.0933765396475792, -0.010348187759518623, -0.361689954996109, 0.21655046939849854, -0.01920303702354431, -0.39714157581329346, -0.22291898727416992, 0.07530013471841812, 0.10612230747938156, -0.19959113001823425, -0.1294582635164261, 0.4411381185054779, 0.09672968089580536, -0.019052991643548012, -0.4880675971508026, -0.19401851296424866, 0.07387512922286987, 0.2849108874797821, -0.2990817427635193, -0.14573884010314941, -0.18797361850738525, -0.06622087210416794, -0.08948417007923126, -0.35636088252067566, 0.16805507242679596, -0.14529219269752502, -0.43928301334381104, -0.05460209399461746, -0.014808205887675285, 0.27402862906455994, -0.15003566443920135, -0.05874766409397125, 0.18290546536445618, 0.3948652148246765, 0.2565949261188507, -0.3243328928947449, 0.10521072149276733, -0.04567110911011696, 0.05228465050458908, -0.1336531639099121, 0.07397860288619995, 0.24580755829811096, -0.2027212679386139, 0.05974865332245827, 0.0466424785554409, -0.06551496684551239, 0.035923730581998825, -0.19624343514442444, 0.2751311659812927, 0.09620185196399689, -0.042698901146650314, 0.3089342713356018, 0.15958423912525177, -0.1270749419927597, -0.281937837600708, 0.04483885318040848, 0.342776894569397, -0.3082348704338074, -0.013134046457707882, -0.02896498516201973, -0.04863607883453369, 0.01853148266673088, 0.4591176211833954, -0.2526949346065521, -0.19305159151554108, 0.3147493004798889, -0.0812288299202919, -0.09495508670806885, 0.20909029245376587, 0.3173857033252716, 0.0030654172878712416, -0.1758677065372467, 0.08797647058963776, -0.046185459941625595, -0.3393101394176483, -0.19685779511928558, -0.07677709311246872, 0.3013913035392761, -0.21761967241764069, -0.12947161495685577, 0.3447134792804718, 0.13807757198810577, 0.11351201683282852, -0.038441628217697144, 0.045107509940862656, -0.05521165952086449, 0.15893615782260895, -0.26347261667251587, 0.11167734116315842, 0.1925051510334015, -0.07791254669427872, 0.10275913029909134, -0.13129492104053497, -0.16950425505638123, -0.2748803198337555, 0.4905593991279602, 0.14886857569217682, -0.09890677779912949, 0.014430252835154533, 0.3318573832511902, -0.07873330265283585, -0.17330162227153778, -0.12272357195615768, -0.06311294436454773, 0.16743293404579163, -0.3252730965614319, 0.052905794233083725, -0.03199419006705284, -0.00043828782509081066, 0.45012569427490234, 0.138701394200325, -0.37957000732421875, 0.05104445666074753, 0.12041585892438889, -0.057193029671907425, 0.06275803595781326, 0.14625155925750732, 0.3466823697090149, -0.052717238664627075, -0.26860928535461426, 0.12875813245773315, 0.10996165126562119, 0.17812737822532654, -0.15043476223945618, 0.2377924919128418, 0.19804823398590088, -0.2665894329547882, 0.07195380330085754, 0.05764974281191826, 0.12973318994045258, -0.10152362287044525, -0.16176940500736237, 0.17814083397388458, 0.24092677235603333, -0.20997749269008636, -0.2181875854730606, -0.06006428226828575, 0.25420233607292175, -0.12782765924930573, -0.1902717649936676, 0.12208129465579987, 0.07097222656011581, 0.31868258118629456, -0.11228510737419128, -0.027479417622089386, 0.27146288752555847, -0.019089650362730026, 0.0999763011932373, -0.018353069201111794, -0.1799427568912506, -0.13121525943279266, -0.11599738895893097, 0.11098627001047134, -0.27598997950553894, -0.14644227921962738, -0.1584264636039734, 0.0470355823636055, -0.1811661422252655, 0.12793996930122375, -0.13640470802783966, -0.07816373556852341, 0.3518449366092682, -0.16469861567020416, -0.056934356689453125, 0.06792712956666946, 0.31428930163383484, -0.039629578590393066, -0.33564114570617676, 0.09487482905387878, 0.0032723508775234222, -0.5036016702651978, -0.0754922479391098, -0.06469468027353287, 0.323727548122406, -0.11419060081243515, -0.02906014770269394, 0.31981122493743896, 0.07041028141975403, -0.04779350757598877, -0.02309856191277504, 0.10068327188491821, -0.10465952754020691, 0.2551532983779907, -0.014492377638816833, 0.102726511657238, 0.22260470688343048, -0.18553948402404785, -0.022719856351614, 0.00747147761285305, 0.18573163449764252, 0.0011090518673881888, -0.2548442482948303, 0.25129327178001404, -0.09000254422426224, -0.1565844714641571, 0.02889237552881241, 0.6651962399482727, 0.056263506412506104, 0.7554647326469421, -1.3289731740951538, -0.5172605514526367, 0.378968209028244, -0.11469115316867828, -0.2757439613342285, 0.7941910028457642, 0.679834246635437, -0.6848784685134888, 0.6958146691322327, -0.08266039192676544, -1.0165776014328003, -0.6903446316719055, -0.4136075973510742, -0.3029554784297943, -0.4352814853191376, 0.6521156430244446, -0.4930363595485687, -0.19289708137512207, 0.37096473574638367, -0.20033955574035645, -0.2759391665458679, -0.14190511405467987, -0.0873110294342041, -0.0882304385304451, 0.18580859899520874, -0.09250817447900772, -0.36037153005599976, -0.018436875194311142, -0.2861994504928589, 0.02174791321158409, -0.028814973309636116, -0.07529047876596451, 0.07021312415599823, -0.1736414134502411, -0.2736145853996277, 0.3431408703327179, -0.04436856508255005, -0.32998523116111755, -0.24104255437850952, -0.010693278163671494, 0.06187957897782326, 0.1028561070561409, 0.44158947467803955, 0.10914643853902817, 0.08738140761852264, 0.07658819854259491, 0.17727932333946228, -0.43306222558021545, -0.015838393941521645, -0.14641717076301575, -0.1873176544904709, 0.05618910491466522, 0.08625040203332901, 0.2143678069114685, -0.04444597288966179, -0.3572346568107605, -0.16450859606266022, 0.010768628679215908, 0.5326243042945862, 0.029419848695397377, 0.24031485617160797, -0.19608831405639648, 0.057254232466220856, 0.027650868520140648, 0.19285759329795837, 0.15657037496566772, 0.3526601493358612, 0.13315507769584656, -0.14925579726696014, -0.18887615203857422, -0.410712331533432, 0.22098278999328613, -0.1864730566740036, 0.17530320584774017, 0.12650789320468903, 0.0820341408252716, -0.22887951135635376, -0.016576016321778297, -0.08259528875350952, 0.039782438427209854, 0.20315860211849213, -0.4166194200515747, -0.12537585198879242, 0.00269855884835124, -0.056922171264886856, 0.07518013566732407, -0.1481519639492035, -0.009316250681877136, 0.2129219025373459, -0.2648531198501587, -0.4704241454601288, -0.2904973328113556, -0.331808865070343, -0.18296000361442566, 0.2662547826766968, 0.18877477943897247, 0.23632000386714935, -0.17210416495800018, 0.3771263360977173, 0.17830504477024078, 0.12982423603534698, 0.18407249450683594, 0.18661780655384064, -0.15910252928733826, 0.03938432037830353, 0.1731616109609604, 0.06323590874671936, -0.5178793668746948, -0.026108097285032272, -0.17585907876491547, -0.0985683873295784, -0.3204173743724823, -0.34284624457359314, 0.02951176092028618, -0.25400444865226746, 0.1355312466621399, 0.022360434755682945, -0.3998217284679413, -0.07581419497728348, -0.06758609414100647, -0.07125209271907806, 0.11744614690542221, 0.1370183378458023, -0.01858607679605484, -0.2561584711074829, -0.3082316219806671, -0.45496129989624023, -0.16444501280784607, 0.1791413277387619, 0.048269763588905334, -0.48158344626426697, -0.4319113790988922, 0.28293415904045105, -0.17130650579929352, 0.003411859041079879, 0.17730414867401123, 0.5492814779281616, -0.0007210217299871147, 0.13405999541282654, -0.0227211806923151, -0.5027151703834534, -0.2026887685060501, 0.048006389290094376, -0.09822751581668854, -0.20471668243408203, -0.033903975039720535, 0.0005569232744164765, -0.2190234363079071, -0.036651283502578735, -0.06777439266443253, 0.3046708106994629, -0.09473741799592972, -0.16319946944713593, 0.31130483746528625, 0.3959658443927765, -0.03640522435307503, -0.14534255862236023, -0.14947475492954254, -0.015744933858513832, 0.11237483471632004, 0.0010993072064593434, -0.09147506952285767, 0.0569646917283535, -0.47426819801330566, -0.0016022121999412775, -0.28203248977661133, 0.08357736468315125, 0.604487955570221, 0.2203918844461441, 0.13967706263065338, 0.11258549243211746, 0.09272297471761703, -0.010779935866594315, -0.07052426040172577, 0.13670986890792847, -0.36925625801086426, -0.18092022836208344, -0.11887076497077942, -0.04754173383116722, 0.101377934217453, -0.09601809084415436, 0.25845152139663696, -0.22631525993347168, -0.2300989329814911, 0.09781009703874588, -0.1265919804573059, 0.012011326849460602, 0.01696733571588993, -0.14809256792068481, 0.35167965292930603, 0.27956289052963257, -0.11682447046041489, 0.19433946907520294, 0.18927741050720215, -0.16961893439292908, 0.13849692046642303, 0.28490155935287476, -0.44010406732559204, 0.10327090322971344, 0.3230964243412018, -0.10430307686328888, 0.06068670004606247, 0.19417980313301086, -0.07753995805978775, 0.01915787346661091, 0.08531901985406876, 0.07878816872835159, 0.09103413671255112, 0.14891758561134338, -0.24630123376846313, 0.13464227318763733, -0.07609882950782776, 0.022291768342256546, 0.2136591374874115, 0.24500341713428497, -0.6321707367897034, -0.2155156284570694, -0.34532591700553894, 0.04156394302845001, 0.014598979614675045, -0.09568536281585693, -0.316750168800354, 0.14388680458068848, 0.07882703840732574, 0.3800964653491974, -0.11052055656909943, 0.0398949459195137, -0.16184478998184204, 0.18688130378723145, 0.12073932588100433, 0.3318397104740143, 0.2642904222011566, -0.07932167500257492, -0.3333272337913513, -0.22828559577465057, -0.2584061026573181, 0.03745000436902046, 0.5625844597816467, -0.021234210580587387, -0.2238418459892273, 0.05718615651130676, -0.06284796446561813, -0.4727397859096527, 0.30231690406799316, 0.20213064551353455, -0.1781056672334671, 0.09580013155937195, -0.2783789336681366, -0.0457148440182209, 0.16073842346668243, 0.48999935388565063, 0.05428638681769371, 0.2763742208480835, -0.05628495663404465, 0.33986055850982666, -0.2887502610683441, -0.37999051809310913, -0.3631663918495178, -0.08108659833669662, 0.06783607602119446, -0.29443326592445374, -0.22748036682605743, -0.18780013918876648, -0.40270811319351196, -0.11797893792390823, 0.32086169719696045, -0.35310256481170654, 0.26378804445266724, 0.0604109950363636, -0.18369841575622559, 0.21019043028354645, 0.21767526865005493, -0.029872657731175423, 0.08539751172065735, -0.056813593953847885, 0.04046240821480751, 0.298469215631485, -0.13480716943740845, -0.08867267519235611, 0.24506334960460663, 0.11126327514648438, -0.10417427122592926, -0.16328969597816467, 0.017525995150208473, 0.09924665838479996, 0.13942426443099976, 0.08796542882919312, 0.26720672845840454, 0.03348089009523392, 0.12933777272701263, -0.2518007755279541, -0.18497289717197418, -0.05998122692108154, -0.2904219329357147, 0.25766539573669434, -0.08456701785326004, -0.03439668193459511, 0.024812182411551476, 0.033752020448446274, -0.09073489159345627, -0.01698172837495804, 0.0713525339961052, 0.31560513377189636, 0.0885763168334961, -0.09660226106643677, 0.03405281528830528, 0.07817947864532471, 0.0397697389125824, -0.011324800550937653, 0.11847584694623947, -0.008899043314158916, 0.40356752276420593, 0.27843916416168213, -0.07366517186164856, 0.03570530191063881, -0.1902511715888977, -0.10836274921894073, -1.2131288051605225, 0.10140865296125412, 0.01671307347714901, -0.026705659925937653, -0.13488240540027618, -0.1160784363746643, -0.04284558817744255, 0.02542153000831604, -0.16155636310577393, -0.37718483805656433, 0.17946840822696686, -0.1522063910961151, -0.05269648879766464, -0.002378577832132578, 0.037718743085861206, 0.3151004910469055, -0.0023619583807885647, -0.11836426705121994, -0.3281845450401306, 0.10684129595756531, 0.07849439978599548, 0.160564124584198, -0.044366344809532166, 0.1673356592655182, 0.2601156234741211, -0.06351034343242645, 0.15125800669193268, 0.02720348909497261, 0.10983208566904068, -0.059386249631643295, 0.026788540184497833, -0.05035583674907684, 0.12067989259958267, -0.25342416763305664, -0.05416322499513626, 0.014795676805078983, 0.020943716168403625, -0.09232529252767563, -0.04519416764378548, 0.046629440039396286, -0.2688639760017395, -0.029365168884396553, 0.016071250662207603, -0.018223049119114876, -0.046773724257946014, -0.04248964414000511, 0.06703030318021774, 0.4093581438064575, 0.6884888410568237, -0.18100802600383759, -0.2533528804779053, -0.22505870461463928, -0.0871041938662529, 0.07486934214830399, 0.10810922831296921, 0.039775699377059937, 0.07100890576839447, 0.16918160021305084, 0.18882033228874207, 0.09225670248270035, -0.04655063524842262, -0.36260345578193665, -0.4703182280063629, -0.2751370966434479, -0.31314927339553833, -0.04682987183332443, 0.1357240080833435, 0.11026038229465485, 0.17080289125442505, -0.015045037493109703, 0.08248627185821533, -0.08925436437129974, 0.10453753918409348, -0.4293935298919678, 0.3550756275653839, -0.26673582196235657, -0.052524954080581665, -0.02346603199839592, 0.08168748021125793, -0.2757279574871063, -0.04766086861491203, 0.14828252792358398, 0.1332017183303833, 0.0342271625995636, -0.19791050255298615, 0.14706352353096008, 0.21848608553409576, -0.3762035071849823, -0.11276920884847641, 0.09194468706846237, -0.14883823692798615, 0.16114124655723572, -0.08613404631614685, -0.19455549120903015, 0.5051676630973816, 0.10389427095651627, 0.4606940746307373, -0.5100951194763184, 0.17692385613918304, 0.0843966081738472, -0.11045565456151962, -0.2044813185930252, 0.15029041469097137, 0.1559046357870102, 0.05786833539605141, -0.10205991566181183, 0.2574700713157654, -0.012716762721538544, 0.05534829571843147, 0.3458716571331024, -0.09371545910835266, 0.04198550805449486, -0.0687653049826622, -0.08531134575605392, 0.11214796453714371, 0.07086362689733505, -0.0813111737370491, 0.11381562799215317, 0.2130945920944214, 0.12403955310583115, 0.20190051198005676, -0.052252501249313354, -0.2896251976490021, -0.07929925620555878, -0.15447717905044556, 0.0843551829457283, -0.10823255032300949, 0.012719770893454552, 0.08532921224832535, 0.036633267998695374, 0.0306862685829401, -0.1524766981601715, 0.23304833471775055, 0.26848578453063965, -0.24409964680671692, -0.15107272565364838, 0.05584443360567093, -0.1436154544353485, 0.27100205421447754, -0.20564787089824677, -0.09061694145202637, 0.14285869896411896, 0.06662065535783768, 0.11448905616998672, 0.36707350611686707, -0.03094026818871498, -0.030168037861585617, -0.13394726812839508, 0.16261151432991028, 0.11028435081243515, -0.06272368878126144, -0.2672344148159027, 0.06318449229001999, 0.05958819389343262, 0.03931841626763344, -0.006709613837301731, 0.44792452454566956, 0.032878994941711426, 0.33298853039741516, -0.12080386281013489, -0.03410651907324791, 0.1263894885778427, 0.2904116213321686, -0.015382330864667892, 0.10821858048439026, -0.2502085864543915, -0.02094259299337864, 0.06380021572113037, 0.02375638671219349, 0.24208660423755646, 0.07402215152978897, -0.26157450675964355, 0.12296527624130249, -0.032409895211458206, -0.07438033819198608, -0.033741485327482224, -0.04620543122291565, 0.016730869188904762, 0.21816709637641907, -0.011897364631295204, -0.2368139922618866, 0.008900722488760948, -0.08922658860683441, -0.06830655038356781, 0.06551680713891983, 0.11204630136489868, -0.0028875465504825115, 0.19113187491893768, 0.12178541719913483, -0.02192412130534649, -0.12720054388046265, -0.1497359722852707, -0.6368630528450012, -0.09046393632888794, -0.15823370218276978, -0.05777862295508385, -0.2176889032125473, -0.03278891742229462, -0.17092359066009521, 0.26814281940460205, -0.007130621932446957, -0.47231408953666687, 0.02224251814186573, -0.06217383220791817, -0.2159048169851303, -0.10497646033763885, -0.16397356986999512, 0.3840710520744324, -0.3190474808216095, -0.4099513590335846, 0.1510246843099594, -0.06832470744848251, 0.4353434145450592, -0.14271709322929382, 0.22626473009586334, 0.49778205156326294, -0.3076510429382324, -0.2794126570224762, 0.024442460387945175, -0.009673135355114937, -0.1522553414106369, -0.39496928453445435, 0.14669978618621826, -0.03472915664315224, -0.25067299604415894, 0.1852947175502777, 0.16605697572231293, 0.20911139249801636, -0.29367101192474365, -0.06914164125919342, 0.3922044336795807, -0.0412270724773407, -0.0910678282380104, 0.1802871823310852, -0.3051376938819885, -0.1280871033668518, 0.2010067105293274, -0.09223141521215439, 0.12240921705961227, 0.2867463231086731, -0.26096823811531067, -0.2071199268102646, 0.1967376470565796, -0.20497345924377441, 0.1452605426311493, -0.36649006605148315, -0.07461315393447876, -0.15461088716983795, -0.09018126875162125, 0.003204053733497858, 0.09325195103883743, 0.5682311654090881, -0.40112197399139404, 0.26722440123558044, -0.026421695947647095, -0.10388896614313126, 0.1897825449705124, 0.16697075963020325, 0.10062269121408463, 0.02567139081656933, -0.0871070921421051, 0.029461780562996864, -0.37525486946105957, -0.31904691457748413, 0.005147542338818312, 0.06228518486022949, -0.3961314260959625, 0.22245371341705322, 0.29030197858810425, 0.5312551259994507, -0.15293563902378082, 0.18132273852825165, 0.4392889142036438, 0.04872645065188408, -0.13114938139915466, 0.02632632851600647, 0.1737307608127594, -0.15078626573085785, 0.28565672039985657, 0.20171251893043518, -0.24510422348976135, 0.013367289677262306, 0.21322467923164368, 0.1069037914276123, 0.04918089881539345, 0.08481394499540329, -0.38280120491981506, 0.05828209966421127, 0.0547831766307354, 0.09577932953834534, -0.013891964219510555, 