{"version": "0.5.4", "metadata": {"date": {"year": 2024, "month": 10, "day": 25, "hour": 9, "minute": 52, "second": 18}, "loudness": -20.081422805786133, "gain": 0.8351300623094973, "name": "", "modeled_by": "2dor", "gear_type": "amp", "gear_make": "Mesa Boogie", "gear_model": "Badlander Rectifier 100W", "tone_type": "hi_gain", "input_level_dbu": 22.903, "output_level_dbu": 13.303, "training": {"settings": {"ignore_checks": false}, "data": {"latency": {"manual": null, "calibration": {"algorithm_version": 1, "delays": [157], "safety_factor": 1, "recommended": 156, "warnings": {"matches_lookahead": false, "disagreement_too_high": false}}}, "checks": {"version": 3, "passed": true}}, "validation_esr": 0.010524839285533383}}, "architecture": "WaveNet", "config": {"layers": [{"input_size": 1, "condition_size": 1, "head_size": 8, "channels": 16, "kernel_size": 3, "dilations": [1, 2, 4, 8, 16, 32, 64, 128, 256, 512], "activation": "Tanh", "gated": false, "head_bias": false}, {"input_size": 16, "condition_size": 1, "head_size": 1, "channels": 8, "kernel_size": 3, "dilations": [1, 2, 4, 8, 16, 32, 64, 128, 256, 512], "activation": "Tanh", "gated": false, "head_bias": true}], "head": null, "head_scale": 0.02}, "weights": [-0.013836306519806385, 0.6106975078582764, -0.8198436498641968, -0.8370720744132996, -0.4631216526031494, 0.1786309778690338, 0.022925732657313347, 0.8603460788726807, -0.13710373640060425, 0.31767037510871887, -0.24358294904232025, -0.26817187666893005, -1.0567528009414673, -0.6851457953453064, -0.6588941812515259, 0.18466506898403168, 0.26223665475845337, 0.17123883962631226, -0.042894478887319565, -0.16341333091259003, 0.13656280934810638, 0.19854465126991272, 0.06571615487337112, 0.019592931494116783, -0.1081508994102478, 0.1112031415104866, 0.04203230142593384, -0.2182319611310959, 0.01659063622355461, -0.11341047286987305, -0.12681157886981964, 0.011963007971644402, -0.02690941095352173, -0.006808189675211906, -0.009118572808802128, -0.09988828748464584, -0.038429491221904755, 0.02714020200073719, 0.15105514228343964, 0.15235482156276703, 0.14335229992866516, -0.12192364782094955, -0.010611972771584988, -0.24418458342552185, -0.030095163732767105, -0.008662983775138855, 0.19990722835063934, 0.012038706801831722, -0.1305561065673828, 0.1068870946764946, 0.0178963765501976, 0.07785768061876297, 0.1527969092130661, -0.06893226504325867, 0.012538224458694458, 0.012404493056237698, -0.05925258994102478, -0.19326217472553253, 0.004715403541922569, -0.15510313212871552, -0.011844572611153126, -0.12448795139789581, -0.08428499847650528, 0.037774428725242615, 0.3604227900505066, 0.028495684266090393, 0.14871352910995483, -0.35045942664146423, 0.29677870869636536, 0.09361327439546585, 0.27329525351524353, -0.2588499188423157, 0.1024344339966774, 0.5041090846061707, -0.08167693018913269, 0.17281942069530487, 0.41102027893066406, -0.3317376673221588, 0.05840486288070679, -0.45110461115837097, 0.06525248289108276, 0.0921451523900032, 0.20996646583080292, -0.4828108549118042, -0.1406402289867401, -0.409381628036499, 0.18048657476902008, -0.11334390193223953, 0.41530534625053406, -0.3022017180919647, 0.07959654927253723, -0.30866679549217224, 0.307411253452301, 0.009263006038963795, 0.23477649688720703, -0.29638710618019104, 0.1177225336432457, 0.40631237626075745, -0.32386237382888794, -0.04433305561542511, 0.5201966166496277, -0.10844139754772186, -0.017207736149430275, 0.34552475810050964, -0.34158697724342346, 0.04282475635409355, 0.2829202711582184, -0.32698437571525574, 0.03819459304213524, -0.3535586893558502, 0.21665166318416595, 0.06869156658649445, -0.09127092361450195, 0.10049064457416534, 0.19207853078842163, 0.018259597942233086, 0.10146505385637283, -0.12973646819591522, -0.12334593385457993, -0.10559506714344025, 0.186397984623909, -0.13525056838989258, -0.21061114966869354, 0.20039492845535278, -0.271675705909729, -0.2160603255033493, 0.10819520801305771, 0.046792928129434586, 0.06314215809106827, -0.2755759656429291, -0.10750941187143326, -0.05129166692495346, -0.07551665604114532, 0.1364826261997223, 0.2431565225124359, -0.14601828157901764, -0.08932983130216599, -0.10418026149272919, 0.22581198811531067, 0.21786795556545258, 0.25801169872283936, -0.06737729161977768, 0.009572337381541729, -0.1310722827911377, 0.022665923461318016, -0.19095046818256378, -0.025310629978775978, 0.15606817603111267, -0.21715039014816284, -0.2523104250431061, -0.0056501952931284904, -0.26300087571144104, -0.16696688532829285, 0.21285313367843628, -0.06081213802099228, -0.2734726369380951, 0.22941960394382477, -0.03023744933307171, 0.050878752022981644, -0.277924507856369, -0.06174474582076073, 0.015107796527445316, -0.24249127507209778, -0.1873755156993866, -0.19055967032909393, 0.13154657185077667, 0.001966306706890464, 0.22555840015411377, -0.25309237837791443, 0.057550616562366486, 0.2987585663795471, -0.18349002301692963, 0.18584318459033966, 0.2125982940196991, -0.2681662142276764, 0.04551997035741806, -0.16431798040866852, 0.07927814871072769, 0.09447401016950607, -0.12373881787061691, -0.1482274830341339, -0.09705560654401779, -0.06779646873474121, 0.1644439846277237, 0.09060931205749512, 0.17679330706596375, -0.21481390297412872, -0.07918424904346466, -0.2706243097782135, 0.22831235826015472, 0.16313084959983826, 0.24883827567100525, -0.24622949957847595, 0.05460681766271591, 0.054355502128601074, -0.22576755285263062, -0.015467618592083454, 0.22228658199310303, -0.20838721096515656, 0.06245024874806404, 0.17597536742687225, -0.03208789601922035, -0.04919856786727905, 0.06558778882026672, -0.21732915937900543, 0.10511939227581024, -0.15009309351444244, 0.3483049273490906, -0.13027262687683105, 0.01228275429457426, -0.0355987586081028, 0.024883469566702843, -0.17650774121284485, -0.07564710080623627, -0.04931366443634033, 0.21670687198638916, -0.06386452913284302, -0.1247740238904953, 0.314879834651947, -0.06937894225120544, -0.07077647745609283, 0.3297419548034668, 0.08617766201496124, 0.07321714609861374, -0.2956062853336334, 0.05006910115480423, -0.1240362823009491, 0.114041768014431, 0.03040311485528946, 0.027955807745456696, -0.1955796480178833, 0.07168878614902496, -0.07789704948663712, 0.27777737379074097, 0.0763021931052208, -0.024763215333223343, -0.11356956511735916, -0.12383800745010376, -0.12588977813720703, 0.21977666020393372, 0.07328693568706512, 0.03869890049099922, 0.13421675562858582, 0.025093475356698036, 0.02674947679042816, 0.059859152883291245, 0.1539829969406128, -0.1699032038450241, 0.1976686418056488, 0.021255437284708023, -0.13391005992889404, 0.21123768389225006, 0.15971118211746216, 0.08845900744199753, -0.21350142359733582, -0.006936768069863319, -0.15865696966648102, 0.08675961196422577, -0.007795408833771944, 0.012180841527879238, -0.013473081402480602, -0.04614971578121185, -0.03677898645401001, 0.03710968419909477, 0.17496612668037415, -0.1610005497932434, -0.11383875459432602, 0.16686034202575684, 0.016603313386440277, -0.02377163991332054, 0.0682743489742279, 0.01850162446498871, -0.0903952568769455, -0.11696648597717285, -0.05988546833395958, -0.04665398225188255, 0.29938337206840515, 0.019053570926189423, 0.0570075698196888, -0.08211928606033325, -0.06053633987903595, -0.12150061130523682, 0.06424999237060547, 0.21118077635765076, 0.07846230268478394, -0.027948178350925446, -0.14562846720218658, -0.013104311190545559, 0.10878309607505798, -0.09819275140762329, -0.14259803295135498, 0.19644030928611755, -0.06858877837657928, -0.0780421569943428, 0.08945351094007492, -0.20018728077411652, 0.0275442972779274, 0.016809795051813126, -0.04776773601770401, -0.11532192677259445, 0.06409388780593872, 0.06300457566976547, -0.0854802057147026, -0.20382925868034363, -0.09790770709514618, -0.27429237961769104, -0.08666205406188965, 0.13239969313144684, 0.1557706743478775, -0.1896599382162094, -0.1941361278295517, -0.12401052564382553, 0.2147354632616043, -0.12780629098415375, -0.04692045971751213, 0.2631864547729492, -0.13960561156272888, -0.09014257043600082, 0.23884204030036926, 0.061256736516952515, 0.08394444733858109, -0.1729888916015625, -0.142500102519989, -0.054987289011478424, 0.15065613389015198, 0.2051195651292801, 0.1860266774892807, -0.1470930576324463, 0.040579717606306076, -0.12217738479375839, 0.10597642511129379, -0.06754054129123688, 0.22434112429618835, -0.10314129292964935, -0.15849953889846802, -0.024765823036432266, 0.29462602734565735, 0.09058380872011185, 0.04154565930366516, 0.30161920189857483, -0.10993456095457077, -0.15399429202079773, 0.28304851055145264, 0.007336928974837065, -0.1866571605205536, 0.2971360981464386, 0.0024247567635029554, -0.01687229797244072, 0.08580337464809418, 0.04625752568244934, -0.015477336011826992, -0.15232780575752258, -0.10343552380800247, -0.07299690693616867, 0.3212398886680603, 0.21845538914203644, 0.13245025277137756, -0.28955593705177307, -0.2556169033050537, -0.14643524587154388, 0.26469534635543823, -0.29787859320640564, -0.29568758606910706, 0.47627755999565125, -0.08213077485561371, -0.050013840198516846, 0.46915203332901, 0.040089190006256104, 0.09917739033699036, -0.3432697355747223, -0.28621435165405273, -0.13588017225265503, 0.07517866790294647, 0.0849318653345108, 0.040205925703048706, -0.4428102672100067, -0.05822363868355751, -0.08861638605594635, 0.4225568175315857, 0.2740562856197357, 0.3176562488079071, -0.383407324552536, -0.09585987776517868, -0.05646626278758049, 0.3968343138694763, -0.024411289021372795, -0.12017171829938889, 0.4315888583660126, -0.20488683879375458, -0.10940566658973694, 0.37886592745780945, -0.18984900414943695, -0.2614767253398895, 0.2767001986503601, -0.27508345246315, -0.08991553634405136, 0.46888184547424316, 0.13933689892292023, 0.09877748042345047, -0.2831878066062927, 0.05082008242607117, -0.09938062727451324, -0.0972258672118187, 0.3060538172721863, 0.2793819010257721, -0.072227843105793, -0.03836671635508537, -0.11249478161334991, -0.09373275190591812, -0.09507644176483154, -0.30443495512008667, -0.06291994452476501, -0.04430825263261795, -0.20791101455688477, -0.13140954077243805, 0.09949291497468948, 0.15391170978546143, -0.01866931840777397, -0.051160041242837906, 0.024993959814310074, -0.03583270683884621, 0.08680254966020584, 0.22935456037521362, 0.10994794964790344, -0.05729230120778084, -0.30831071734428406, -0.007910915650427341, 0.05333517864346504, 0.14452844858169556, 0.06988634169101715, -0.2638465166091919, -0.15208911895751953, 0.09893851727247238, -0.14537625014781952, -0.3003353774547577, -0.0669742003083229, -0.14620086550712585, -0.3340921700000763, 0.028931649401783943, -0.30394840240478516, -0.35812339186668396, -0.17782378196716309, -0.20161700248718262, -0.12035492807626724, -0.17169663310050964, 0.2572600841522217, 0.13069280982017517, 0.023115625604987144, 0.12152025103569031, -0.021834412589669228, 0.35571083426475525, 0.15027476847171783, 0.2134849578142166, -0.14751721918582916, -0.17214994132518768, 0.0467885322868824, 0.2231757491827011, -0.008234530687332153, -0.18928459286689758, 0.1753082573413849, -0.21261826157569885, -0.12480122596025467, 0.25278446078300476, -0.045435525476932526, 0.10863638669252396, -0.14225433766841888, 0.18053287267684937, 0.02160048671066761, 0.14380624890327454, 0.03267702832818031, 0.13722462952136993, -0.07345528900623322, 0.032294850796461105, -0.06341701745986938, 0.2926017940044403, -0.0778379812836647, -0.06422189623117447, -0.16450722515583038, -0.1435345858335495, 0.012682119384407997, 0.1256149262189865, -0.13571983575820923, -0.18341012299060822, 0.30100828409194946, -0.09341438114643097, 0.035695355385541916, 0.304353266954422, 0.0031337940599769354, -0.068517304956913, 0.17162422835826874, -0.1021055206656456, -0.05111103877425194, 0.2923571765422821, -0.0825234204530716, 0.14069701731204987, -0.2996380031108856, 0.04721619933843613, -0.1451842188835144, 0.2950507700443268, 0.08113839477300644, 0.16387797892093658, -0.0006274614715948701, 0.11740557104349136, -0.21697182953357697, 0.21715785562992096, -0.031125126406550407, -0.25595623254776, 0.15723319351673126, 0.013710237108170986, -0.24235044419765472, 0.06748360395431519, 0.035088591277599335, 0.23878033459186554, -0.16354098916053772, 0.21840034425258636, 0.02235567383468151, 0.181157648563385, -0.03430749103426933, 0.38359659910202026, -0.11288802325725555, 0.12387324869632721, -0.29417917132377625, 0.19144973158836365, -0.16763173043727875, 0.1967126876115799, -0.19270525872707367, 0.19696712493896484, -0.3172578513622284, 0.11693504452705383, -0.011591149494051933, -0.14565402269363403, 0.2524937689304352, -0.06361124664545059, -0.4191291630268097, -0.012617472559213638, 0.04584949091076851, -0.33567559719085693, 0.004555507097393274, 0.0035271402448415756, -0.27190282940864563, 0.028255024924874306, -0.11990366876125336, 0.1711074709892273, -0.27084338665008545, 0.1938614398241043, 0.5632374882698059, -0.026662472635507584, 0.06945473700761795, -0.42970359325408936, 0.32575953006744385, -0.19616350531578064, 0.24118249118328094, -0.03513356298208237, -0.15142248570919037, 0.4072084426879883, -0.19298984110355377, -0.09913600236177444, 0.3367508351802826, -0.09949620813131332, 0.0679221972823143, -0.49912768602371216, 0.10191968083381653, -0.1363839954137802, 0.2973007261753082, -0.3222166895866394, 0.19638843834400177, -0.4099506437778473, 0.15432561933994293, 0.029070647433400154, 0.41669461131095886, -0.09834945946931839, 0.1572040170431137, -0.4052635729312897, 0.10499969124794006, -0.08290107548236847, 0.48017045855522156, -0.24213539063930511, -0.20003318786621094, 0.4315900504589081, -0.05159471556544304, -0.09980130195617676, 0.2603462040424347, -0.30967432260513306, -0.023551953956484795, 0.36555254459381104, -0.25380459427833557, -0.04049142450094223, 0.432029128074646, -0.07352494448423386, 0.2828073799610138, -0.3060048520565033, 0.1762867271900177, -0.06860147416591644, 0.1313057839870453, 0.1602134108543396, 0.14589662849903107, 0.0457935594022274, 0.026174798607826233, 0.04820328950881958, -0.043917302042245865, -0.022655485197901726, -0.14276181161403656, -0.27436113357543945, 0.2383212000131607, -0.13982686400413513, -0.2311844527721405, 0.18862195312976837, -0.0007381677278317511, 0.07771758735179901, -0.13552255928516388, -0.07745853066444397, -0.24067941308021545, 0.11663319170475006, 0.024088343605399132, 0.22508551180362701, 0.02374531701207161, 0.029876358807086945, -0.10821560770273209, 0.28178849816322327, 0.08941753208637238, 0.0872076228260994, 0.006504180375486612, -0.03532281517982483, -0.29186561703681946, 0.08464246243238449, -0.16704747080802917, -0.03369373828172684, 0.09891421347856522, -0.2211323380470276, -0.1852259635925293, 0.1903650462627411, -0.048829250037670135, -0.12691237032413483, 0.11651730537414551, -0.028200779110193253, -0.20569691061973572, 0.04944446310400963, -0.11756014078855515, -0.006786309648305178, -0.11887867748737335, -0.06830461323261261, 0.15725991129875183, 0.1856139451265335, 0.007859192788600922, -0.21926717460155487, 0.08102243393659592, -0.07886926084756851, 0.24635814130306244, -0.05433332547545433, -0.029853221029043198, 0.2062748223543167, 0.0011848269496113062, 0.11702252179384232, 0.01963474228978157, -0.07251881062984467, -0.04533066973090172, -0.07681639492511749, 0.10298973321914673, -0.04866316169500351, 0.16306303441524506, 0.0765833929181099, -0.03649822250008583, -0.021479057148098946, -0.1727122962474823, -0.02165789157152176, 0.22110086679458618, -0.013308238238096237, 0.12047161161899567, -0.15777869522571564, 0.0754322037100792, -0.14708311855793, 0.09187299758195877, 0.019532429054379463, 0.03099025785923004, 0.1653246134519577, 0.14550337195396423, -0.014625675976276398, 0.12400675565004349, 0.1617310643196106, -0.036082975566387177, 0.2522405982017517, -0.037693046033382416, -0.01556691899895668, 0.11472681909799576, 0.11916925758123398, 0.14871840178966522, -0.10403002053499222, -0.10810834169387817, -0.02400687336921692, -0.10949781537055969, -0.09307897090911865, 0.012279470451176167, 0.20829328894615173, 0.14451496303081512, -0.09282295405864716, -0.2527658939361572, 0.08913225680589676, -0.211711585521698, -0.0844455137848854, 0.009926636703312397, -0.16182591021060944, -0.05807644873857498, -0.1280001997947693, 0.11004634201526642, -0.0014057464431971312, -0.03664840757846832, -0.011118036694824696, 0.08123493194580078, -0.09721897542476654, 0.1973251849412918, 0.09911014139652252, -0.057038091123104095, -0.1840549260377884, -0.20575708150863647, 0.1874077320098877, 0.053423941135406494, 0.10893901437520981, 0.02737780101597309, 0.006537381559610367, 0.02133537083864212, 0.12289715558290482, -0.1895003616809845, -0.12254833430051804, -0.07090036571025848, -0.18871288001537323, -0.08502282947301865, 0.1222265437245369, -0.21803094446659088, -0.02829698473215103, -0.08371326327323914, -0.1267818808555603, 0.004669416695833206, -0.03743564710021019, 0.05540211498737335, -0.043460097163915634, 0.05409198999404907, 0.22719334065914154, -0.2554590702056885, -0.13463449478149414, -0.4256233274936676, 0.17774315178394318, 0.22127480804920197, 0.43300676345825195, -0.3370779752731323, -0.14940397441387177, 0.4431327283382416, -0.20070086419582367, -0.29312267899513245, 0.31259018182754517, -0.3309105932712555, -0.32076552510261536, -0.33297640085220337, 0.36592456698417664, 0.30075761675834656, 0.4003675878047943, -0.05346710979938507, -0.11580460518598557, -0.2089340090751648, 0.2352069765329361, 0.11613684147596359, 0.37933096289634705, -0.15992508828639984, -0.2942836284637451, -0.20263652503490448, 0.3284956216812134, 0.09405802935361862, 0.2976497411727905, -0.1498388946056366, -0.3081214725971222, 0.29884520173072815, -0.22545087337493896, -0.31745797395706177, 0.3951302766799927, -0.22301939129829407, -0.12966275215148926, 0.2254204899072647, -0.14985139667987823, -0.3004889190196991, 0.4776611924171448, -0.4314158856868744, -0.34119153022766113, -0.33936965465545654, 0.24529527127742767, 0.14245502650737762, -0.1597067266702652, 0.073338083922863, -0.2130417674779892, -0.020156890153884888, 0.10012822598218918, 0.008954698219895363, 0.009536955505609512, 0.08366598933935165, 0.03127982094883919, 0.011032414622604847, -0.03793365880846977, -0.07333627343177795, -0.15423469245433807, 0.08046959340572357, -0.05430399253964424, -0.09724874049425125, 0.5388476252555847, -0.47922253608703613, 0.6797695159912109, -0.5897061824798584, -0.05762598291039467, 0.7881724834442139, 0.8405846953392029, -0.9489694833755493, 0.23116278648376465, -0.09208188951015472, -0.5576382875442505, -0.1734781563282013, 0.18217580020427704, -0.7682518362998962, 0.18968477845191956, 0.661102294921875, -0.07953710854053497, -0.5502259135246277, -0.045236214995384216, 0.013894732110202312, 0.31121838092803955, 0.09032578766345978, 0.11103936284780502, 0.021925829350948334, 0.20619332790374756, 0.1486494094133377, -0.1627623438835144, 0.13035281002521515, 0.01231937576085329, -0.1406874656677246, 0.2155173420906067, -0.18645374476909637, 0.10339605063199997, -0.16467678546905518, -0.18984723091125488, 0.1295495629310608, 0.17490819096565247, 0.00930158980190754, 0.0142291821539402, -0.1248440071940422, -0.272871732711792, -0.06781569123268127, -0.2706185281276703, 0.3526742458343506, 0.16486114263534546, 0.042178116738796234, 0.10476548224687576, 0.09682305157184601, 0.02661902830004692, -0.04927157238125801, -0.03243215009570122, 0.19788485765457153, -0.06344012916088104, -0.13589471578598022, 0.06765231490135193, -0.02845119498670101, 0.04998371750116348, -0.09442435204982758, 0.18640409409999847, -0.20416149497032166, 0.1387593150138855, 0.27727654576301575, 0.017699379473924637, -0.2240971028804779, 0.207985520362854, 0.02840246446430683, -0.2033252716064453, -0.07574398070573807, 0.0707482397556305, 0.011296180076897144, -0.07500088959932327, 0.10114753246307373, -0.3966497778892517, -0.12926237285137177, -0.03324439004063606, -0.022399593144655228, 0.07730977237224579, 0.33018526434898376, -0.32837554812431335, -0.0904172733426094, -0.20378395915031433, -0.616905152797699, -0.21326375007629395, 0.3915812075138092, 0.3630765974521637, 0.11131934076547623, 0.008830285631120205, -0.3370775878429413, 0.2833705544471741, 0.09811156988143921, -0.4746343493461609, 0.512917160987854, -0.09980963170528412, 0.130892813205719, -0.05539290979504585, -0.1224963366985321, -0.33535516262054443, -0.3856605887413025, 0.2231501191854477, 0.05682092159986496, 0.40573352575302124, 0.11290785670280457, 0.2208465039730072, 0.5951948165893555, 0.31334856152534485, -0.028728965669870377, -0.13079997897148132, 0.1617802381515503, 0.027809109538793564, 0.06722366809844971, 0.24225570261478424, -0.4401599168777466, 0.13702578842639923, 0.17431513965129852, 0.1955169141292572, 0.38478973507881165, -0.06167939677834511, -0.23134508728981018, -0.07461412996053696, -0.05284593999385834, 0.18850401043891907, -0.15788176655769348, -0.4304536283016205, 0.25541242957115173, 0.06977811455726624, -0.18696331977844238, 0.045939866453409195, -0.1847044974565506, 0.3183593451976776, 0.21875587105751038, 0.3717299699783325, -0.2899864912033081, -0.3579920828342438, 0.19229494035243988, 0.2960098087787628, 0.13340699672698975, 0.1857929825782776, -0.2145995795726776, 0.20129185914993286, -0.33659544587135315, 0.14560623466968536, -0.24461574852466583, -0.0010448892135173082, 0.25103679299354553, -0.06381494551897049, -0.1530451625585556, -0.300814688205719, -0.24124372005462646, 0.06668446958065033, -0.024600785225629807, -0.1600864976644516, 0.014603499323129654, -0.13969390094280243, -0.12505537271499634, 0.1699942648410797, 0.016131753101944923, 0.01420374121516943, -0.19651395082473755, 0.03886205330491066, -0.0479411818087101, -0.020715443417429924, 0.1689130812883377, 0.43729832768440247, -0.31332194805145264, -0.4359890818595886, 0.16236068308353424, 0.3411632180213928, -0.44114241003990173, 0.1187240481376648, 0.05353137478232384, 0.07988808304071426, -0.06309084594249725, 0.35738107562065125, 0.026520976796746254, 0.07662606984376907, 0.4803886115550995, 0.19951066374778748, 0.28011977672576904, -0.390916645526886, 0.18439264595508575, -0.08036580681800842, -0.1999160200357437, -0.013526295311748981, -0.3915438950061798, -0.05935997515916824, -0.23890601098537445, -0.21009938418865204, 0.008205970749258995, -0.15763109922409058, 0.09150203317403793, -0.10332458466291428, 0.35656508803367615, -0.1250394582748413, -0.6788931488990784, 0.020375819876790047, -0.03793414309620857, 0.15292665362358093, -0.08428958058357239, -0.0216680858284235, 0.5969318151473999, -0.10286331176757812, 0.06566030532121658, 0.13490115106105804, -0.15272670984268188, -0.1226145476102829, 0.25890880823135376, -0.2581685185432434, -0.6381730437278748, -0.03187268599867821, 0.73736971616745, -0.028991809114813805, -0.22180457413196564, -0.10021205246448517, -0.1442381590604782, 0.10772275924682617, 0.5400756597518921, 0.3754577040672302, 0.3790889382362366, 0.43903860449790955, -0.6886430978775024, 0.15622858703136444, -0.2788375914096832, -0.2398788332939148, 0.2405485212802887, 0.07147963345050812, 0.21780572831630707, -0.18015512824058533, -0.04475468024611473, -0.2579488754272461, 0.3037146031856537, 0.32442861795425415, -0.11257331073284149, -0.11899537593126297, 0.13668760657310486, 0.1697094589471817, -0.26886650919914246, -0.08888433128595352, -0.13662491738796234, -0.22595733404159546, 0.5986632704734802, -0.38249436020851135, 0.31118088960647583, -0.21321243047714233, -0.09167872369289398, 0.1874331533908844, -0.17620350420475006, 0.05755702778697014, 0.4404086768627167, -0.3582497835159302, 0.05501973628997803, 0.0667467713356018, -0.10795263200998306, 0.040515534579753876, 0.3675291836261749, -0.35250410437583923, -0.2892764210700989, 0.44689449667930603, 0.021971551701426506, 0.4029030501842499, -0.24688765406608582, -0.43453478813171387, 0.3842422664165497, 0.32305285334587097, 0.11219149082899094, -0.19051027297973633, 0.1139310672879219, 0.2090502381324768, -0.29215702414512634, 0.39870885014533997, -0.020022356882691383, 0.2728045880794525, 0.3135121762752533, 0.17634880542755127, -0.29325830936431885, 0.08431994915008545, -0.31593945622444153, -0.15335729718208313, -0.06328438967466354, 0.2514777183532715, 0.21457087993621826, -0.03379315137863159, -0.0323028527200222, 0.0038599667605012655, -0.0009970240062102675, 0.014557582326233387, 0.0031745545566082, 0.30522677302360535, -0.47047778964042664, 0.05064844340085983, 0.0498814731836319, -0.14881211519241333, 0.09390467405319214, 0.15947285294532776, -0.04622064158320427, -0.07464546710252762, -0.1586233526468277, 0.16820798814296722, -0.13011534512043, -0.08721543848514557, 0.14871768653392792, 0.05085817351937294, 0.11678783595561981, 0.05322575196623802, -0.04395284503698349, -0.3132304847240448, 0.5889986753463745, 0.11900294572114944, 0.20251475274562836, -0.29220348596572876, 0.06555354595184326, -0.05021436884999275, -0.27553126215934753, -0.11302021145820618, -0.0683603510260582, -0.020615117624402046, -0.09359677135944366, 0.10997284203767776, -0.20020607113838196, -0.07563140243291855, 0.058922428637742996, -0.2598043382167816, -0.32246845960617065, -0.43566346168518066, 0.39817485213279724, -0.7409597039222717, -0.8896777033805847, 0.48147234320640564, -0.11917562037706375, 0.117034912109375, -0.3346308767795563, -0.19415409862995148, -0.13772334158420563, 0.32077544927597046, 0.19599443674087524, -0.001752051874063909, -0.16443274915218353, -0.022225135937333107, 0.10119467228651047, 0.38983333110809326, -0.40292954444885254, -0.11780796945095062, 0.028883012011647224, -0.15378613770008087, 0.19460999965667725, 0.4912440776824951, -0.3394196033477783, -0.011388462036848068, -0.05930214747786522, -0.17430706322193146, -0.2278030812740326, 0.07669205218553543, 0.12952828407287598, -0.34698495268821716, -0.4671899080276489, 0.24759477376937866, 0.06366196274757385, 0.2620846927165985, 0.46701809763908386, -0.09349822998046875, -0.2990182936191559, -0.32806769013404846, 0.12368853390216827, 0.3179517090320587, 0.3292834460735321, -0.05962139740586281, -0.43693557381629944, -0.23215997219085693, 0.2199205756187439, 0.5334979891777039, -0.4055611491203308, -0.045558150857686996, 0.3256765305995941, 0.2590479552745819, 0.19592225551605225, -0.015634793788194656, 0.07863277196884155, 0.06304918229579926, 0.23678617179393768, -0.12367590516805649, 0.07742796093225479, 0.21319136023521423, 0.025518575683236122, 0.04017345607280731, -0.35891225934028625, -0.09398788958787918, -0.22076468169689178, -0.2521427571773529, 0.22418515384197235, 0.2133050113916397, 0.036773864179849625, -0.30317407846450806, 0.04339992254972458, 0.07911413162946701, 0.07004183530807495, 0.13646435737609863, 0.10587961971759796, 0.10575301200151443, 0.1657341718673706, 0.17204076051712036, 0.5714142918586731, 0.3093505799770355, -0.17401185631752014, 0.16395974159240723, -0.4777154326438904, -0.19654691219329834, 0.10663557052612305, -0.1526876986026764, -0.022042792290449142, -0.230930358171463, -0.07853342592716217, -0.030657976865768433, 0.16906999051570892, 0.17379702627658844, -0.16264504194259644, -0.596720278263092, -0.3096282482147217, 0.4015924036502838, 0.20180048048496246, 0.12232242524623871, 0.09486649930477142, -0.5047433376312256, 0.1433217078447342, -0.020843351259827614, -0.4319149851799011, -0.03359716758131981, 0.04413164407014847, -0.4140041768550873, 0.0660017728805542, 0.12007936835289001, 0.3416104316711426, 0.43002814054489136, 0.42036327719688416, -0.11081521213054657, -0.06012647971510887, 0.016773927956819534, 0.07261420041322708, 0.19692362844944, 0.00764048658311367, 0.3098718225955963, -0.12440532445907593, -0.32487690448760986, 0.21809594333171844, 0.10031197965145111, -0.2021387666463852, 0.12531901895999908, 0.016074294224381447, -0.10500887781381607, -0.870119571685791, -0.06431251764297485, 0.26316502690315247, 0.030252913013100624, 0.14479652047157288, -0.08339355140924454, -0.4961056411266327, -0.07007229328155518, 0.24824965000152588, 0.31965598464012146, -0.11747553199529648, -0.15037119388580322, -0.12049613147974014, -0.21524378657341003, 0.18210150301456451, 0.614820659160614, -0.005380976479500532, -0.2641366124153137, 0.3052813410758972, 0.13868333399295807, -0.02553442493081093, 0.23826000094413757, -0.15218782424926758, -0.20326627790927887, 0.15466055274009705, -0.2799672484397888, -0.2047927975654602, 0.19755485653877258, -0.0013837171718478203, -0.00883779302239418, -0.2010543793439865, -0.008047197945415974, 0.209673210978508, -0.29622599482536316, -0.2445695996284485, -0.1494867503643036, 0.3923572599887848, 0.47006452083587646, 0.1250395029783249, -0.10410607606172562, -0.009748734533786774, -0.2435087263584137, -0.021089067682623863, 0.18806347250938416, 0.11930222064256668, 0.11036249250173569, 0.1579822450876236, -0.19184057414531708, 0.008997620083391666, -0.01506106834858656, -0.33556613326072693, 0.08023471385240555, -0.1678261160850525, -0.4950525164604187, -0.04903446137905121, 0.017063677310943604, 0.22901880741119385, 0.0844486653804779, 0.06432950496673584, -0.2117343693971634, -0.13195303082466125, -0.14291590452194214, 0.2544308304786682, 0.1257379651069641, 0.005839679390192032, -0.12030108273029327, -0.03361726552248001, 0.06342866271734238, -0.05320659279823303, -0.3510136902332306, -0.916343629360199, 0.14194419980049133, -0.34338435530662537, -0.3176276683807373, 0.4104614555835724, -0.04755380004644394, -0.18909363448619843, -0.3918156623840332, 0.1078605130314827, 0.08443690091371536, 0.5904226899147034, -0.1059713363647461, -0.019351724535226822, -0.19480125606060028, -0.5391911268234253, 0.2813725769519806, 0.017049401998519897, 0.003301461925730109, 0.07402059435844421, -0.16125927865505219, 0.05751604586839676, 0.22570832073688507, -0.011384035460650921, -0.4354093372821808, 0.4922381639480591, -0.004626414738595486, -0.0819971114397049, -0.0020277071744203568, -0.01138972770422697, -0.27826568484306335, -0.14177100360393524, -0.2307378202676773, 0.20108318328857422, -0.3685821294784546, 0.28990045189857483, -0.029779862612485886, 0.2595943510532379, -0.28447046875953674, 0.24859201908111572, -0.2760544717311859, 0.12364714592695236, -0.02859410271048546, 0.16808411478996277, -0.03902291879057884, 0.17323677241802216, 0.20201647281646729, -0.1681073158979416, 0.8967608213424683, -0.5934433937072754, -0.07965406775474548, 0.45948395133018494, -0.4577317535877228, 0.24054297804832458, 0.05377043038606644, 0.25199753046035767, -0.26589009165763855, 0.17446282505989075, -0.16316962242126465, 0.12357722967863083, -0.19458624720573425, -0.10679001361131668, -0.08162952959537506, 0.4402500092983246, 0.24788524210453033, 0.062023647129535675, -0.33721452951431274, -0.21405147016048431, 0.2118263989686966, 0.2399011254310608, 0.0733531266450882, 0.11427157372236252, 0.1469389647245407, 0.09390807896852493, 0.07603272050619125, 0.13677997887134552, -0.14844325184822083, -0.04217005893588066, 0.10515175014734268, -0.31382739543914795, 0.009810185991227627, -0.009078463539481163, 0.1825876533985138, -0.12404504418373108, -0.035575754940509796, -0.16828995943069458, 0.003374083898961544, 0.19681815803050995, 0.26932230591773987, -0.05582548305392265, 0.04412449896335602, -0.1075931116938591, 0.1879449039697647, -0.23331835865974426, -0.16944798827171326, 0.08003613352775574, -0.16842882335186005, 0.21318893134593964, 0.28469201922416687, -0.1555718183517456, 0.6037702560424805, -0.1106310784816742, -0.41928040981292725, -0.2378927767276764, -0.02461184933781624, 0.0557793490588665, 0.35999128222465515, 0.1447988897562027, -0.21862450242042542, -0.02444237470626831, -0.021155251190066338, 0.1404188573360443, -0.04496699571609497, 0.1224297508597374, -0.15454812347888947, -0.1741378754377365, 0.23524871468544006, -0.005675451830029488, -0.1169205829501152, 0.1230676993727684, -0.015003335662186146, -0.2041134387254715, 0.07949677109718323, 0.11987756192684174, -0.3345070481300354, -0.0320916473865509, -0.2096307873725891, -0.31233957409858704, 0.12844519317150116, 0.15718546509742737, 0.0991365909576416, -0.3550508916378021, -0.056221578270196915, -0.31767556071281433, 0.36834952235221863, 0.22230136394500732, 0.33292898535728455, -0.2523653209209442, -0.02946835570037365, -0.20253987610340118, 0.24596354365348816, -0.1426200121641159, -0.3609870672225952, 0.311636745929718, 0.530731201171875, 0.44858092069625854, -0.5793638229370117, -0.006927356123924255, 0.324002742767334, -0.15315654873847961, -0.02998555451631546, -0.21374116837978363, 0.25939586758613586, 0.10722082108259201, 0.33680441975593567, -0.16362008452415466, 0.36901959776878357, 0.519149661064148, 0.3720976710319519, -0.2109202891588211, -0.5600910782814026, -0.5238708257675171, 0.23245051503181458, 0.24255599081516266, -0.07771226763725281, -0.036192383617162704, -0.21881115436553955, -0.5340095162391663, 0.23117925226688385, 0.1701432317495346, -0.03016444854438305, -0.4118914008140564, 0.3872146010398865, 0.38648679852485657, 0.5096330046653748, 0.7240058183670044, 0.7872502207756042, -0.33623093366622925, -0.15973719954490662, 0.3450944721698761, 0.0920666977763176, -0.07780112326145172, -0.16483336687088013, -0.3167204260826111, -0.10718866437673569, -0.0021824201103299856, 0.4730912446975708, -0.04901377484202385, -0.26977646350860596, 0.049809060990810394, 0.12810632586479187, -0.17666490375995636, 0.4203560948371887, 0.3088794946670532, 0.17827504873275757, 0.12290602922439575, -0.5383772850036621, -0.21993334591388702, 0.14158406853675842, -0.0035823595244437456, -0.20685924589633942, -0.6690540313720703, -0.6720018982887268, -0.26722946763038635, 0.19382387399673462, 0.12610770761966705, 0.08763503283262253, -0.02611270174384117, -0.14292368292808533, 0.1664818376302719, -0.017292939126491547, -0.01674475520849228, -0.017921147868037224, 0.04331507533788681, 0.07741028070449829, -0.05021132901310921, 0.07390750199556351, -0.23656004667282104, 0.20754188299179077, 0.14968718588352203, -0.10786335170269012, 0.009836173616349697, 0.1367470771074295, -0.08643323928117752, 0.42178601026535034, -0.21480205655097961, 0.12163898348808289, 0.09840290993452072, 0.14645574986934662, 0.030937358736991882, -0.051618948578834534, -0.2337399572134018, -0.011755081824958324, 0.044383592903614044, -0.1990484595298767, -0.0689026266336441, 0.18669821321964264, 0.304216206073761, -0.08710021525621414, -0.05932905152440071, -0.4053078293800354, 0.8182372450828552, -0.22991037368774414, -0.22474776208400726, 0.3690292537212372, -0.05646037682890892, 0.016868285834789276, -0.17902278900146484, 0.015821633860468864, -0.07440292835235596, 0.11509522050619125, -0.07716625183820724, -0.06630779802799225, 0.048516351729631424, -0.2055974155664444, -0.1716289073228836, 0.1634388267993927, 0.043974485248327255, -0.1923927366733551, 0.01868695206940174, 0.3840874135494232, -0.23015768826007843, 0.008326209150254726, 0.2087346762418747, 0.1298702359199524, 0.1636020392179489, 0.1714061200618744, 0.5334205031394958, 0.14123162627220154, -0.2528785169124603, -0.00677398219704628, 0.19612973928451538, 0.07547321915626526, 0.18845869600772858, 0.03470626845955849, -0.23789261281490326, -0.403061181306839, -0.09875471144914627, 0.3387812674045563, 0.17901071906089783, -0.16930605471134186, -0.32732611894607544, -0.19199837744235992, -0.08589622378349304, 0.1835968792438507, -0.12545786798000336, 0.04330546781420708, 0.2706144154071808, -0.6170252561569214, -0.007121777627617121, 0.6969590783119202, -0.31180745363235474, -0.26286792755126953, -0.06670931726694107, -0.20018859207630157, 0.061211470514535904, 0.3644266128540039, 0.17509600520133972, -0.20565439760684967, -0.29769811034202576, 0.24683958292007446, 0.0979289561510086, -0.010278933681547642, -0.41450414061546326, 0.17375001311302185, 0.041635770350694656, -0.1630265861749649, 0.2809511125087738, 0.14918653666973114, -0.11465338617563248, 0.12278848886489868, 0.001164146582596004, -0.35469502210617065, 0.09607858210802078, -0.20041456818580627, 0.5712381601333618, 0.06343144178390503, -0.6040258407592773, -0.013059863820672035, 0.018658390268683434, 0.004944679327309132, 0.37740862369537354, -0.01844974234700203, -0.04625553637742996, -0.06875906139612198, 0.0662560909986496, 0.03834761306643486, 0.002064815256744623, -0.05572434142231941, -0.05118408426642418, -0.48775413632392883, 0.16827282309532166, 0.1491621732711792, -0.02486215904355049, 0.2536209225654602, 0.03370485082268715, 0.07741924375295639, -0.711654782295227, -0.03858235850930214, -0.01878962852060795, -0.1444336324930191, 0.15504401922225952, 0.01899869553744793, 0.1340165138244629, -0.18091821670532227, 0.032558947801589966, -0.02977845072746277, 0.11911074817180634, -0.036327216774225235, 0.054349806159734726, -0.15501639246940613, 0.041618794202804565, 0.055408477783203125, -0.058347951620817184, 0.12634055316448212, 0.12398233264684677, -0.20168553292751312, 0.06038878113031387, 0.08587553352117538, -0.05355628952383995, 0.24621906876564026, 0.018683603033423424, -0.0959392711520195, -0.09451644867658615, 0.11612901836633682, 0.16333797574043274, -0.16586782038211823, -0.2772245705127716, -0.3171428143978119, -0.20721979439258575, -0.14742498099803925, 0.1724880337715149, -0.14106307923793793, 0.07586491107940674, -0.03326669707894325, -0.06454666703939438, -0.012112831696867943, -0.008921877481043339, 0.13194452226161957, -0.06201368570327759, -0.16052953898906708, 0.1997915506362915, -0.004677863325923681, -0.10755719989538193, -0.31510233879089355, -0.38785320520401, -0.316873699426651, -0.13626086711883545, -0.261842280626297, -0.15207192301750183, 0.11103132367134094, -0.007087088655680418, -0.03426922857761383, 0.09638090431690216, 0.059506651014089584, 0.0735725611448288, -0.06407598406076431, -0.12708139419555664, 0.009899439290165901, -0.01770799607038498, 0.2753120958805084, 0.025315679609775543, 0.04058143123984337, -0.065102219581604, -0.032098136842250824, -0.08238928020000458, 0.04486435651779175, -0.04478246718645096, 0.2078726887702942, 0.23055677115917206, 0.03052208200097084, 0.49063974618911743, 0.11336766928434372, -0.11642267554998398, 0.27006223797798157, 0.14377139508724213, -0.19098451733589172, 0.05401237681508064, -0.17240194976329803, 0.15960653126239777, -0.05440396070480347, 0.044158466160297394, -0.001842900412157178, 0.05454869568347931, -0.2545126676559448, 0.23557816445827484, -0.22117474675178528, 0.11026982963085175, -0.17137548327445984, 0.10820477455854416, 0.269008070230484, -0.24891844391822815, -0.25390926003456116, -0.25611987709999084, 0.25637000799179077, -0.408725768327713, -0.14151915907859802, 0.028199458494782448, -0.02744305320084095, 0.10523013025522232, -0.1765659749507904, -0.05599052831530571, -0.23310060799121857, 0.15451869368553162, -0.2538151741027832, -0.10837437212467194, -0.21654506027698517, 0.05508119985461235, 0.09378320723772049, 0.05538812279701233, -0.4536669850349426, -0.03252870589494705, 0.20272834599018097, -0.03221606835722923, 0.0006504429038614035, 0.1470687836408615, -0.08706885576248169, 0.094647116959095, 0.15152744948863983, -0.11216679215431213, 0.3371555209159851, -0.1460985392332077, -0.033757299184799194, -0.0300703514367342, 0.10367283970117569, 0.26761630177497864, 0.14815708994865417, -0.24032127857208252, -0.07479443401098251, -0.18383552134037018, 0.12375503033399582, 0.16018903255462646, 0.05853034183382988, -0.00204224674962461, -0.19169694185256958, -0.11082872003316879, 0.3411802649497986, -0.17448709905147552, -0.051152754575014114, 0.1393415480852127, -0.15241028368473053, 0.01046696025878191, 0.2089482694864273, 0.10662190616130829, 0.02779596485197544, -0.04401551932096481, -0.507247805595398, -0.10450411587953568, 0.004451862070709467, 0.4630170166492462, 0.3068515956401825, 0.014203540049493313, -0.4500596225261688, -0.23536193370819092, -0.3010331690311432, 0.34344351291656494, 0.32976922392845154, 0.3563307821750641, 0.16557107865810394, 0.10781272500753403, -0.0481695793569088, 0.7950647473335266, 0.8115205764770508, 0.22075437009334564, 0.2109035849571228, 0.39879289269447327, 0.32790637016296387, -0.16182257235050201, -0.23612737655639648, -0.012762059457600117, -0.1479019969701767, -0.0979359969496727, -0.35253041982650757, -0.21880678832530975, -0.3359314203262329, -0.12701766192913055, 0.04176926240324974, -0.011762733571231365, -0.1402205228805542, -0.2209615260362625, 0.094248466193676, 0.2691914737224579, 0.1641562134027481, 0.18339622020721436, -0.14809367060661316, 0.18916280567646027, 0.105286605656147, -0.11869939416646957, -0.07907799631357193, 0.306895911693573, 0.3149310350418091, 0.2136935293674469, 0.23255373537540436, -0.07753157615661621, 0.1406160444021225, -0.0772596150636673, -0.11836400628089905, 0.11065131425857544, 0.2601054906845093, 0.3320923447608948, 0.015572336502373219, 0.20703953504562378, -0.20862537622451782, 0.06939155608415604, -0.4065525233745575, 0.01854800246655941, -0.0523945651948452, 0.02903529815375805, 0.3638535439968109, -0.09584996849298477, 0.023052189499139786, 0.1339656114578247, 0.04843240603804588, 0.02366853691637516, -0.03095480054616928, -0.39919161796569824, -0.7414433360099792, -0.007303549442440271, 0.206362783908844, -0.2931368350982666, 0.41828489303588867, -0.578974723815918, -0.4936907887458801, -0.793006181716919, 1.0668407678604126, -1.0393942594528198, -0.8514496684074402, -0.8077355027198792, 0.3592573404312134, -0.4405874013900757, -0.06110949441790581, -0.9732771515846252, 0.02083517238497734, 0.17647401988506317, 0.14479734003543854, 0.32239803671836853, 0.3763701021671295, -0.06473526358604431, -0.22692352533340454, -0.08674794435501099, -0.02927420288324356, -0.16963256895542145, 0.04380562901496887, 0.1962641030550003, 0.03952489420771599, 0.24794654548168182, -0.12564514577388763, 0.014882129617035389, -0.05295984819531441, 0.1471731811761856, 0.008711691945791245, -0.09728630632162094, -0.32282066345214844, -0.20518779754638672, -0.15578776597976685, -0.29930296540260315, 0.14571000635623932, -0.28056636452674866, 0.08237411081790924, -0.06722229719161987, 0.06471226364374161, -0.26283711194992065, 0.2301030308008194, 0.42864108085632324, 0.09809054434299469, -0.29084545373916626, -0.09137813746929169, 0.2422807514667511, -0.11904624849557877, 0.1603359580039978, -0.11887232959270477, 0.00908241979777813, 0.0004074223106727004, 0.0702911764383316, -0.17046576738357544, -0.22916994988918304, -0.023058855906128883, 0.004707488231360912, 0.11184552311897278, -0.13272488117218018, 0.1280873566865921, 0.11629939079284668, -0.16062821447849274, -0.27800583839416504, -0.265546977519989, 0.09609568864107132, -0.12196073681116104, 0.08888843655586243, -0.07357154041528702, -0.18565821647644043, 0.05674119293689728, 0.3828597962856293, 0.08237671852111816, 0.37476783990859985, 0.15717849135398865, -0.022141780704259872, 0.1649305820465088, 0.05335468798875809, 0.004724109545350075, -0.09090670198202133, 0.12017688900232315, -0.19706490635871887, 0.02714633010327816, 0.005978456232696772, 0.3091133236885071, 0.27469757199287415, -0.21577537059783936, 0.0321970097720623, 0.5077449083328247, 0.37265992164611816, -0.14975962042808533, -0.14647775888442993, -0.0349801667034626, 0.09942690283060074, -0.08175026625394821, 0.11668463051319122, 0.028811383992433548, -0.17128106951713562, 0.12013635039329529, -0.09944543987512589, -0.21562603116035461, 0.23185285925865173, -0.04653605818748474, -0.09189912676811218, -0.06851911544799805, -0.28536248207092285, 0.1829761117696762, -0.07019753754138947, 0.2784934937953949, -0.4548198878765106, 0.07668452709913254, -0.056997720152139664, 0.15741434693336487, 0.47696372866630554, -0.5112473964691162, -0.16869840025901794, 0.24316704273223877, -0.2792145311832428, -0.2714557349681854, 0.08070763945579529, 0.3361189365386963, 0.06052418053150177, -0.13058584928512573, 0.3757675886154175, 0.1044236272573471, 0.06410166621208191, 0.1179625540971756, 0.0945592075586319, 0.132308229804039, -0.30307483673095703, -0.03675907477736473, 0.06761924922466278, -0.221967875957489, 0.33333224058151245, -0.22135306894779205, 0.06309682875871658, -0.1206977367401123, 0.03073456883430481, 0.17339007556438446, 0.14041773974895477, -0.023333314806222916, 0.029273560270667076, -0.1097201481461525, 0.025522345677018166, -0.2559657394886017, -0.019584493711590767, -0.008968967013061047, -0.13759931921958923, 0.22099022567272186, 0.1751328557729721, 0.2779301404953003, -0.18492254614830017, -0.028874631971120834, -0.2728637456893921, -0.00984024815261364, 0.42837727069854736, -0.24049799144268036, 0.18832528591156006, -0.13564974069595337, 0.09024646878242493, 0.19392281770706177, -0.13033607602119446, 0.1711498200893402, -0.09588053822517395, -0.20820258557796478, -0.2091275304555893, 0.10695777088403702, 0.2860553562641144, 0.07646600902080536, 0.103336401283741, 0.1746099889278412, -0.25435468554496765, -0.1730329543352127, -0.28885528445243835, -0.18768265843391418, 0.19362463057041168, 0.1649353951215744, -0.021423574537038803, -0.2480967789888382, 0.020834175869822502, 0.4471890330314636, 0.20884676277637482, -0.13063576817512512, 0.09031539410352707, 0.08647727966308594, 0.0723227709531784, -0.11544158309698105, 0.11550278216600418, 0.3281671404838562, 0.31522542238235474, -0.1649579256772995, -0.19115674495697021, -0.25620681047439575, -0.11277075856924057, 0.2507449984550476, 0.47582027316093445, -0.24992138147354126, 0.05643860995769501, 0.030792109668254852, -0.18201151490211487, 0.021800395101308823, -0.20522834360599518, 0.00883940514177084, -0.1429101675748825, -0.09796734899282455, -0.12324633449316025, -0.24365530908107758, 0.12325840443372726, -0.02139665000140667, -0.002992867026478052, -0.05581047385931015, 0.1544104814529419, 0.08339094370603561, 0.11623100191354752, -0.24785646796226501, -0.15002328157424927, 0.15863536298274994, -0.1716519296169281, -0.04636312648653984, 0.0801880732178688, -0.07445618510246277, -0.12994223833084106, -0.22169719636440277, 0.5070823431015015, 0.0055239517241716385, 0.010466258972883224, -0.12707318365573883, -0.012423506006598473, 0.5028150081634521, 0.029046768322587013, 0.10934078693389893, -0.40940773487091064, 0.2404557317495346, -0.1572779417037964, -0.08646642416715622, 0.07570575177669525, 0.060897666960954666, 0.34296804666519165, 0.17444360256195068, -0.2235119640827179, -0.20059053599834442, -0.06926409900188446, 0.4113474488258362, 0.08877050876617432, -0.06885380297899246, -0.08284144848585129, -0.18467414379119873, 0.32693809270858765, -0.2094329297542572, 0.2458476424217224, 0.491123229265213, 0.12362193316221237, 0.31770816445350647, 0.2158794105052948, -0.05099675804376602, 0.1371312141418457, -0.16764651238918304, -0.07548581063747406, -0.0012033574748784304, 0.12007242441177368, 0.09464514255523682, -0.15348359942436218, 0.5772828459739685, 0.1961263120174408, -0.1386183202266693, 0.19217801094055176, -0.20947863161563873, -0.37154656648635864, -0.21713116765022278, 0.08546100556850433, -0.08520065248012543, -0.133419007062912, -0.11791572719812393, 0.15197840332984924, 0.31915411353111267, 0.5414631962776184, -0.23337985575199127, 0.29117268323898315, -0.12768757343292236, -0.1777437925338745, -0.11773012578487396, -0.6093963980674744, 0.08289594948291779, -0.4784533679485321, 0.014654663391411304, -0.040505800396203995, 0.009983478114008904, 0.11736617237329483, -0.26447275280952454, -0.09531323611736298, 0.053984589874744415, 0.06952163577079773, 0.19807496666908264, -0.06702852249145508, -0.08830415457487106, -0.10027103126049042, -0.04502183198928833, 0.21809813380241394, -0.03202713280916214, 0.05666247010231018, 0.03674880415201187, -0.14969290792942047, 0.05275687947869301, 0.03925635665655136, 0.2513015568256378, 0.06744510680437088, 0.10631903260946274, -0.08887691050767899, -0.1057104840874672, -0.06006637215614319, -0.08067677915096283, 0.019971752539277077, 0.05516557767987251, -0.09192042797803879, -0.14858610928058624, -0.0677303671836853, -0.236993670463562, -0.12441609799861908, 0.06983385235071182, -0.009732029400765896, -0.03450504317879677, -0.028213808313012123, 0.1830233931541443, -0.1363753229379654, 0.0043311212211847305, -0.18759113550186157, 0.14108410477638245, 0.19564320147037506, -0.17055365443229675, -0.2008272409439087, -0.3447090983390808, -0.1993636190891266, 0.14158640801906586, 0.1091940775513649, -0.07909771800041199, -0.10156813263893127, -0.026151983067393303, -0.12923845648765564, 0.2369627058506012, 0.07956314831972122, 0.10389108955860138, 0.03866371884942055, -0.2391861379146576, -0.009729718789458275, 0.24363815784454346, 0.28850439190864563, -0.07490335404872894, -0.00523487851023674, 0.053055208176374435, -0.20104056596755981, -0.06170883774757385, 0.04246200993657112, 0.23794448375701904, -0.17619171738624573, -0.012260460294783115, -0.05677635967731476, 0.11380662024021149, -0.07664395123720169, -0.13229654729366302, 0.003157056635245681, 0.17287907004356384, 0.06574589014053345, 0.2461000233888626, 0.19314923882484436, 0.03522059693932533, 0.08726907521486282, -0.48976168036460876, 0.07280945777893066, 0.013900063931941986, 0.09710536152124405, -0.12331824004650116, 0.04215717688202858, -0.06305988878011703, -0.1788066327571869, 0.13488732278347015, 0.052438147366046906, 0.4779495596885681, 0.31131190061569214, -0.44251272082328796, -0.1367948055267334, 0.09077567607164383, -0.004726567305624485, -0.24317777156829834, 0.11722046136856079, 0.00211355765350163, -0.26167553663253784, 0.2595522701740265, 0.02675437740981579, 0.027219131588935852, -0.05042986944317818, -0.1420661360025406, -0.024552365764975548, -0.34514039754867554, -0.2454095482826233, 0.32064685225486755, -0.027970941737294197, 0.022651826962828636, 0.14285576343536377, 0.07918576896190643, 0.24936363101005554, -0.11258392035961151, -0.19334733486175537, 0.14614807069301605, 0.15224429965019226, 0.19759982824325562, -0.014430247247219086, -0.06004336476325989, -0.1638534814119339, 0.07822095602750778, -0.015268221497535706, 0.1359921395778656, 0.24334408342838287, -0.056447066366672516, 0.07567881047725677, -0.3340829014778137, 0.027865519747138023, 0.3368961215019226, 0.05284888297319412, 0.05797714367508888, 0.15252399444580078, 0.014900770038366318, -0.03173438832163811, 0.16700346767902374, -0.33765625953674316, 0.03984681889414787, -0.21488623321056366, -0.6971113085746765, -0.14328566193580627, -0.0016317107947543263, -0.10233230888843536, 0.23898856341838837, -0.011067777872085571, 0.06487172096967697, -0.11303780227899551, 0.06529939919710159, -0.011151695623993874, -0.22170639038085938, 0.10760506987571716, -0.095551498234272, -0.10194376111030579, 0.08067083358764648, 0.06755321472883224, 0.14770014584064484, -0.006238562986254692, 0.11314215511083603, 0.07197248935699463, 0.0878990888595581, -0.016994327306747437, -0.059619270265102386, -0.1282188594341278, 0.16762161254882812, 0.18870621919631958, 0.021346548572182655, -0.1282680481672287, -0.14675192534923553, -0.0751136764883995, 0.11083842813968658, 0.09025927633047104, 0.0445905402302742, -0.11477279663085938, -0.10796048492193222, 0.18493935465812683, -0.24251508712768555, -0.09000538289546967, 0.022365203127264977, -0.11563225835561752, -0.05178815871477127, 0.2209462672472, -0.1134062260389328, 0.05429941043257713, -0.2738754153251648, -0.2506425380706787, 0.02729387953877449, 0.013732078485190868, 0.22871026396751404, 0.19857169687747955, -0.07226353883743286, -0.35306093096733093, 0.26911601424217224, -0.17693454027175903, 0.08515512198209763, 0.08980770409107208, -0.04743466153740883, 0.09468583017587662, 0.131688192486763, -0.0398668497800827, 0.34549281001091003, -0.1378326267004013, 0.13608761131763458, 0.11452343314886093, -0.15785850584506989, -0.010067441500723362, 0.016523417085409164, -0.09194601327180862, -0.03444696217775345, -0.35337620973587036, 0.5146812796592712, 0.06816475093364716, -0.18227359652519226, 0.012096009217202663, -0.10664712637662888, -0.08951418846845627, 0.16074031591415405, 0.16684581339359283, 0.01132131926715374, -0.0355960950255394, -0.22301620244979858, -0.09786912053823471, 0.14509035646915436, -0.13844624161720276, 0.41611137986183167, -0.36875903606414795, -0.2375488579273224, 0.0011883543338626623, 0.2769271433353424, -0.21200969815254211, -0.12447749823331833, 0.2505931258201599, 0.06521550565958023, 0.28304624557495117, -0.05041183903813362, -0.04468584433197975, -0.09853867441415787, -0.3930129110813141, -0.17426331341266632, 0.160732701420784, -0.39551103115081787, 0.48584169149398804, -0.10500384122133255, 0.07990872859954834, -0.1911526322364807, 0.0015778562519699335, -0.16086183488368988, 0.005904328543692827, -0.3392413556575775, 0.16419030725955963, 0.07359643280506134, -0.030393807217478752, 0.18453861773014069, -0.12305254489183426, 0.07838045060634613, 0.01796843484044075, -0.11040419340133667, 0.17020827531814575, -0.07730592787265778, -0.11223436892032623, -0.05848454311490059, 0.05453087389469147, 0.16520076990127563, -0.004952848423272371, -0.10414227843284607, -0.15787959098815918, 0.01480833999812603, -0.025583116337656975, 0.02411607839167118, 0.12305866926908493, -0.011818276718258858, 0.09776263684034348, -0.20416145026683807, 0.10640522837638855, -0.19228968024253845, 0.09484593570232391, -0.22600993514060974, -0.13349466025829315, 0.10763339698314667, -0.025343982502818108, 0.19415625929832458, -0.40505239367485046, 0.09030840545892715, 0.06980198621749878, -0.04553240165114403, 0.09066352993249893, -0.15601319074630737, -0.022962499409914017, 0.016696080565452576, -0.5316582322120667, 0.029277395457029343, 0.07357184588909149, 0.005094594322144985, 0.008689559996128082, 0.031616415828466415, -0.08299829810857773, 0.11222179979085922, 0.07506793737411499, 0.23109951615333557, -0.4251060485839844, -0.14107836782932281, -0.13559117913246155, -0.11400828510522842, -0.21262262761592865, -0.16936270892620087, 0.022478878498077393, -0.01356999296694994, 0.2265947014093399, 0.04831352457404137, -0.1625131368637085, -0.23586714267730713, -0.034753017127513885, 0.20541825890541077, 0.047058869153261185, 0.1148945689201355, -0.1915484070777893, -0.3852071166038513, 0.022507810965180397, -0.10478376597166061, -0.058519210666418076, -0.03113568015396595, -0.05634967237710953, -0.3135777711868286, 0.049788616597652435, 0.27003711462020874, -0.1721964180469513, 0.004195312038064003, 0.1448337286710739, -0.10063765197992325, 0.0012698781210929155, 0.03254174068570137, 0.2597261071205139, -0.20854899287223816, 0.06736929714679718, -0.08760101348161697, 0.10101883113384247, -0.3758515417575836, -0.33021506667137146, 0.32192549109458923, 0.07045195251703262, 0.08391852676868439, 0.2507738471031189, -0.06398764997720718, -0.26470014452934265, 0.02636457234621048, -0.11314881592988968, -0.19741980731487274, -0.08281692862510681, 0.05646056681871414, 0.1502293348312378, -0.0832262933254242, 0.18846797943115234, -0.12706595659255981, -0.03908190131187439, -0.05212204530835152, 0.04146147519350052, -0.0039275288581848145, 0.15248198807239532, -0.03790581598877907, 0.1791672557592392, -0.12839822471141815, -0.020867906510829926, 0.035944219678640366, -0.12634006142616272, 0.03602626919746399, -0.13980458676815033, -0.17338111996650696, -0.0953240916132927, 0.19483786821365356, -0.1894785463809967, 0.0008386213448829949, 0.009985215030610561, 0.18483734130859375, -0.26600465178489685, -0.044813454151153564, -0.07876309007406235, 0.3011190891265869, 0.16481882333755493, -0.03219551593065262, -0.4197950065135956, 0.12025196105241776, 0.1346225142478943, -0.13341137766838074, 0.02219145931303501, 0.2105451226234436, -0.31123992800712585, -0.06068742275238037, -0.13346299529075623, 0.19808924198150635, 0.4622243046760559, -0.030122466385364532, -0.28657835721969604, 0.07417812943458557, -0.060644421726465225, -0.4259069263935089, 0.41375380754470825, -0.11169659346342087, -0.016397085040807724, -0.13065074384212494, 0.21409863233566284, -0.0012354638893157244, 0.1760662943124771, 0.28024357557296753, 0.2991103529930115, -0.28683891892433167, 0.18183262646198273, -0.008907732553780079, -0.03521677851676941, 0.016327708959579468, 0.023893922567367554, -0.2144319862127304, 0.07973700761795044, 0.01945522055029869, 0.08031168580055237, -0.17587290704250336, 0.022372419014573097, 0.28792041540145874, -0.06647186726331711, 0.008240154944360256, 0.14095591008663177, -0.015052750706672668, -0.03618474304676056, -0.051419999450445175, -0.0499313659965992, 0.14899161458015442, 0.21454627811908722, 0.23052683472633362, -0.029876288026571274, -0.28555232286453247, -0.5254621505737305, -0.24717934429645538, -0.1282440721988678, -0.10020262748003006, 0.10027195513248444, 0.03217562660574913, -0.03505028039216995, 0.2198268473148346, 0.23440712690353394, 0.19726207852363586, 0.009706143289804459, 0.10679465532302856, -0.3086957037448883, -0.21642981469631195, 0.5120442509651184, 0.08754964917898178, -0.04212528467178345, 0.17436936497688293, 0.1409277319908142, -0.12266498059034348, 0.13598565757274628, -0.16035328805446625, 0.03174188360571861, -0.24176615476608276, 0.02769106812775135, -0.06949442625045776, -0.11406015604734421, 0.11427032202482224, 0.0370793417096138, -0.2989308536052704, -0.027888869866728783, 0.0460699200630188, -0.0008295775041915476, -0.054689083248376846, -0.20136825740337372, 0.5858519077301025, -0.11147505789995193, 0.21686454117298126, 0.13644906878471375, 0.04866288974881172, -0.019914617761969566, -0.11008620262145996, 0.036535926163196564, -0.052506908774375916, 0.19431790709495544, -0.11900211125612259, 0.12630870938301086, -0.09223297983407974, -0.24689479172229767, 0.17742767930030823, 0.10138552635908127, -0.18762877583503723, 0.15120655298233032, 0.1423133909702301, 0.10276667773723602, 0.05650981888175011, 0.036622487008571625, 0.029631979763507843, 0.07030998915433884, -0.09590000659227371, 0.09713055938482285, -0.009562180377542973, -0.4984716773033142, -0.13163569569587708, -0.03763403370976448, -0.05048004910349846, -0.1229701116681099, 0.11122169345617294, 0.3802703619003296, -0.1294681280851364, -0.01831720769405365, 0.17570635676383972, 0.008616658858954906, 0.11256465315818787, 0.06259799748659134, -0.05149881914258003, -0.10440129041671753, 0.07477894425392151, 0.09990715980529785, 0.09172062575817108, 0.013837967067956924, 0.03087271749973297, 0.20527006685733795, -0.5950254201889038, 0.11815816909074783, 0.0739341527223587, -0.04225445166230202, -0.12658365070819855, 0.2238714098930359, -0.11926678568124771, -0.14564014971256256, -0.014564905315637589, -0.16251255571842194, 0.015550168231129646, 0.05834556743502617, -0.24224266409873962, -0.09619919210672379, -0.21330462396144867, 0.04541127756237984, -0.5376536846160889, -0.27440768480300903, 0.14755313098430634, 0.15996406972408295, -0.17281100153923035, -0.03561723232269287, 0.2473265379667282, -0.3036053776741028, -0.04583662375807762, 0.029126297682523727, 0.5117505192756653, -0.16061925888061523, 0.22869382798671722, 0.15402059257030487, -0.30805280804634094, -0.09585680067539215, 0.2961466610431671, 0.07869932800531387, 0.6132939457893372, 0.26672834157943726, -0.1296985149383545, -0.0742892250418663, -0.1857837736606598, 0.028044018894433975, -0.05543212220072746, -0.1514921486377716, -0.09317365288734436, -0.5300406217575073, -0.1492166817188263, 0.014804750680923462, 0.08396221697330475, -0.05404322221875191, -0.3928050994873047, 0.06104310229420662, -0.023352093994617462, -0.11520762741565704, 0.5194783210754395, -0.26166027784347534, -0.012811634689569473, 0.08456651866436005, 0.20913496613502502, -0.03305302932858467, 0.35819515585899353, -0.29380130767822266, 0.16457165777683258, -0.363707572221756, 0.03021150827407837, -0.36024025082588196, 0.11077054589986801, -0.08119373023509979, 0.0006983305793255568, 0.008161052130162716, -0.0413796529173851, -0.4019407033920288, 0.035592734813690186, 0.014924631454050541, -0.32129809260368347, -0.11898789554834366, 0.3147646188735962, -0.16095013916492462, 0.012807230465114117, -0.08501655608415604, 0.0032583826687186956, 0.09099269658327103, -0.007875733077526093, -0.159702867269516, -0.23357075452804565, -0.034553930163383484, 0.18374940752983093, -0.019151873886585236, 0.0700126364827156, -0.3109716475009918, 0.1210654228925705, -0.08099593222141266, 0.32947519421577454, 0.09409534931182861, 0.1667669266462326, 0.13493898510932922, 0.06277641654014587, -0.021413689479231834, -0.4710448682308197, 0.13354459404945374, -0.005636283196508884, -0.03516232967376709, -0.00638795830309391, 0.19364739954471588, -0.021231601014733315, 0.07167898118495941, -0.0971996933221817, -0.11882081627845764, -0.28124260902404785, 0.1283772587776184, -0.16787229478359222, -0.00900278240442276, 0.3413640260696411, 0.0018572965636849403, -0.1528659462928772, 0.17964880168437958, -0.09890913963317871, -0.24326927959918976, 0.2747400999069214, 0.029493270441889763, -0.16443844139575958, -0.038118354976177216, -0.22407162189483643, 0.05722743645310402, -0.07640964537858963, 0.14645564556121826, 0.22001290321350098, -0.11203677952289581, 0.013361827470362186, 0.013538463041186333, 0.13196785748004913, -0.028771398589015007, 0.04280420020222664, -0.1073160171508789, 0.12539313733577728, 0.0401066355407238, 0.15062418580055237, -0.033126216381788254, -0.11195346713066101, -0.12935902178287506, 0.012812393717467785, 0.2433614730834961, 0.23168082535266876, 0.11477989703416824, -0.13476307690143585, 0.018739832565188408, -0.403144896030426, -0.01625027507543564, 0.15679138898849487, 0.017304040491580963, -0.05829663574695587, 0.2598981261253357, 0.077166847884655, -0.19979901611804962, -0.029368389397859573, -0.20234271883964539, 0.10696278512477875, -0.1177595779299736, -0.44866296648979187, -0.3539426028728485, 0.014395380392670631, 0.10248465836048126, 0.2224615514278412, -0.16432274878025055, 0.12782207131385803, 0.11392941325902939, -0.1642250120639801, -0.20823365449905396, 0.034562788903713226, -0.2728557884693146, -0.18636472523212433, 0.058864034712314606, -0.30483758449554443, 0.07505173981189728, 0.008792283944785595, 0.08050818741321564, -0.027101607993245125, -0.2538553476333618, -0.1694088578224182, 0.013873732648789883, -0.06538892537355423, 0.11471551656723022, 0.08550792932510376, 0.007658218964934349, -0.05046085640788078, -0.07100784033536911, 0.24373531341552734, 0.27116769552230835, 0.05512389913201332, -0.06640791147947311, -0.1523371785879135, -0.06596963107585907, 0.021094145253300667, -0.04898455739021301, 0.03972350060939789, 0.055900271981954575, -0.17698730528354645, -0.042975593358278275, 0.09809565544128418, -0.1622893363237381, -0.14561541378498077, 0.2749176025390625, -0.07452850788831711, -0.21169130504131317, -0.1336926966905594, 0.008363165892660618, 0.09729443490505219, 0.20377777516841888, -0.15471842885017395, -0.022886674851179123, 0.14632943272590637, -0.12395480275154114, 0.036075085401535034, 0.14584936201572418, -0.1351051926612854, 0.11341547220945358, 0.17730525135993958, -0.22532494366168976, 0.19128237664699554, 0.1016247421503067, -0.5352965593338013, 0.3670019805431366, 0.09708735346794128, 0.198517844080925, -0.03668878600001335, -0.16185663640499115, -0.08155789226293564, -0.011877176351845264, 0.014794046990573406, 0.1814478486776352, -0.022258656099438667, 0.02617735229432583, -0.08823483437299728, -0.007619151845574379, 0.09750057011842728, -0.012104576453566551, -0.10435571521520615, -0.15852734446525574, -0.19140323996543884, -0.20392267405986786, 0.12725500762462616, -0.29412028193473816, 0.4223581552505493, -0.04906083643436432, -0.1197044849395752, 0.06320018321275711, -0.006385465152561665, -0.19705331325531006, 0.014345464296638966, 0.02134225331246853, 0.3928990960121155, 0.32645636796951294, -0.03333434835076332, -0.42971864342689514, -0.2517637014389038, 0.004513876512646675, -0.06083960831165314, 0.01971863955259323, 0.1456017643213272, -0.3089844882488251, 0.05706970393657684, -0.028242871165275574, -0.22532100975513458, 0.055646348744630814, 0.1343977302312851, -0.007110314909368753, 0.06744718551635742, 0.14437812566757202, -0.12422114610671997, 0.023468663915991783, 0.1007012128829956, -0.06976412981748581, -0.41212257742881775, -0.6320419907569885, 0.9495021104812622, 0.5253148674964905, -0.5085963010787964, 0.09997128695249557, -0.4377620816230774, -0.07582441717386246, 0.4825858473777771, -0.7948804497718811, 1.0051952600479126, 0.5676062107086182, 0.2079491913318634, -0.2718861401081085, 0.040307339280843735, -0.8157050609588623, 0.018100209534168243, -0.43081381916999817, -0.2509438097476959, -0.3890816867351532, 0.06587111204862595, 0.28007015585899353, 0.15515582263469696, 0.22123609483242035, 0.26149535179138184, 0.32849040627479553, 0.25522729754447937, 0.1410948634147644, -0.2956342101097107, -0.11445935815572739, -0.05121541768312454, 0.06702494621276855, 0.16507570445537567, 0.4131193161010742, 0.47522422671318054, 0.29178208112716675, 0.2081787884235382, -0.24168452620506287, -0.008659345097839832, -0.007546902634203434, -0.45107966661453247, -0.024885641410946846, -0.21899281442165375, 0.05909840762615204, 0.4059584438800812, 0.3730604350566864, 0.09874490648508072, -0.03625784069299698, -0.08399846404790878, -0.20232567191123962, 0.11848782002925873, -0.24128533899784088, 0.09241405874490738, 0.014297939836978912, -0.12032955884933472, -0.14974914491176605, -0.4633026421070099, -0.3924446105957031, -0.17514558136463165, 0.3011452555656433, 0.41362783312797546, -0.1805090457201004, -0.011004540137946606, -0.019111042842268944, 0.2829381227493286, 0.19509395956993103, 0.22778773307800293, -0.07369417697191238, -0.2251880168914795, -0.09388108551502228, -0.16013135015964508, 0.24587804079055786, 0.17624250054359436, 0.13279376924037933, 0.25886622071266174, 0.3724331855773926, 0.11337629705667496, 0.3998158872127533, 0.08930296450853348, -0.06585226953029633, 0.43204542994499207, -0.32879048585891724, 0.2128266841173172, -0.2891029417514801, -0.19846735894680023, 0.11240562796592712, -0.07083642482757568, 0.33719751238822937, 0.16351701319217682, 0.24242667853832245, 0.014115629717707634, -0.5187845230102539, -0.29045650362968445, -0.2143760323524475, 0.12022849172353745, -0.2463950365781784, 0.34463366866111755, 0.0744103342294693, 0.05833262950181961, 0.09770766645669937, -0.08004336059093475, 0.044927798211574554, 0.5183648467063904, -0.22530609369277954, -0.35686764121055603, -0.24158918857574463, 0.07521165162324905, -0.08977634459733963, 0.2552817761898041, 0.15138734877109528, 0.30306506156921387, -0.08647435903549194, 0.15564128756523132, 0.023945815861225128, -0.3721553087234497, 0.0024486312177032232, 0.3672757148742676, -0.19066376984119415, 0.07843031734228134, 0.003633952932432294, -0.14005206525325775, 0.19872719049453735, 0.06653475016355515, -0.06972832977771759, 0.09863357245922089, -0.06389005482196808, 0.13878101110458374, 0.13939757645130157, 0.1474296599626541, 0.11857903003692627, -0.12511710822582245, 0.017884667962789536, 0.10108739882707596, -0.018440986052155495, -0.012869950383901596, 0.15172865986824036, 0.05276485159993172, 0.0984419509768486, 0.011475433595478535, 0.4499282240867615, -0.1269323229789734, 0.008856390602886677, 0.028992127627134323, -0.13149434328079224, -0.08792789280414581, 0.2827383875846863, -0.11584660410881042, 0.17104114592075348, 0.07535538077354431, 0.16064366698265076, -0.22006025910377502, -0.0955761969089508, -0.2740364670753479, -0.016370443627238274, -0.005611424334347248, 0.30678996443748474, -0.04087024927139282, 0.06063127517700195, 0.06609504669904709, 0.006678303238004446, 0.44598886370658875, -0.2782933712005615, -0.18592415750026703, 0.2077767252922058, 0.06861814856529236, 0.22024483978748322, -0.06047895550727844, -0.08439590036869049, -0.23051998019218445, -0.13462349772453308, 0.1445803940296173, 0.22858178615570068, 0.03758186101913452, -0.05836856737732887, 0.2750891149044037, -0.12781673669815063, 0.29584261775016785, -0.3436192274093628, -0.4330666661262512, -0.2990036606788635, 0.3602182865142822, -0.18497931957244873, 0.23497144877910614, 0.01719893142580986, 0.33061128854751587, 0.14658674597740173, -0.2857140600681305, 0.014159470796585083, -0.049030791968107224, -0.5005193948745728, 0.13573132455348969, 0.42883577942848206, 0.273394376039505, -0.04681263118982315, -0.2171255201101303, -0.07461507618427277, -0.3922203481197357, 0.6080064177513123, 0.405931681394577, 0.3257234990596771, -0.004034572280943394, -0.049026258289813995, 0.12955313920974731, 0.16602903604507446, -0.2961888015270233, -0.17178486287593842, 0.06876318156719208, 0.14218926429748535, -0.47629493474960327, -0.1294410675764084, -0.0718880295753479, 0.13970652222633362, 0.1375647485256195, 0.1291445642709732, -0.29393279552459717, -0.19397684931755066, 0.052618563175201416, 0.00292572402395308, -0.1318843513727188, -0.3299708664417267, -0.00813419558107853, 0.07538270950317383, -0.018041376024484634, -0.052720945328474045, -0.20045122504234314, 0.19258804619312286, -0.2037719190120697, -0.05334652587771416, -0.0089423144236207, 0.15664362907409668, 0.11480827629566193, -0.34198227524757385, -0.20699840784072876, -0.13358479738235474, 0.27513813972473145, 0.05050913989543915, 0.0024613395798951387, 0.20828752219676971, -0.23754377663135529, 0.0449264720082283, 0.06962630897760391, 0.130221426486969, -0.03651847317814827, 0.08671547472476959, -0.21779727935791016, 0.005767667666077614, 0.21005991101264954, -0.2708730399608612, -0.0478818342089653, 0.03192271292209625, 0.00511780334636569, -0.1309725046157837, 0.05801675468683243, -0.03658149763941765, 0.1267862766981125, -0.29279395937919617, -0.2834394574165344, -0.04371485859155655, 0.08826158940792084, -0.25396454334259033, -0.2249467819929123, -0.1898588091135025, -0.21131406724452972, -0.34864550828933716, 0.060278262943029404, 0.07743079215288162, 0.3048914074897766, -0.023170534521341324, -0.1720600724220276, 0.1752534806728363, -0.43280619382858276, 0.025638964027166367, 0.11031139642000198, -0.01729578524827957, -0.14195367693901062, 0.158183753490448, -0.07868999242782593, 0.24772928655147552, 0.19656851887702942, 0.2172006517648697, -0.18412050604820251, -0.1070609986782074, 0.1118275448679924, 0.24460551142692566, -0.16785502433776855, 0.03606018051505089, 0.0426354743540287, -0.13222740590572357, 0.129331573843956, 0.006268971133977175, 0.05729061737656593, -0.05143054574728012, -0.1049644723534584, -0.028388632461428642, 0.23967871069908142, 0.0727212131023407, -0.09515245258808136, 0.1361750215291977, -0.008733498863875866, 0.11185772716999054, -0.06801380217075348, -0.1718999594449997, -0.03372843936085701, -0.08577337116003036, -0.04959969222545624, 0.22954553365707397, -0.04024318605661392, -0.13306815922260284, 0.18592943251132965, -0.3649289011955261, -0.009676944464445114, 0.1954452395439148, 0.19952961802482605, -0.05544671788811684, -0.19308346509933472, -0.18960905075073242, 0.014864113181829453, 0.07939378917217255, 0.0038361395709216595, 0.029778970405459404, 0.18060298264026642, -0.013124153017997742, 0.062106676399707794, 0.2799854874610901, 0.07004851847887039, 0.11582629382610321, -0.11132437735795975, 0.18961648643016815, 0.05812236666679382, -0.24485814571380615, -0.09835560619831085, -0.14746615290641785, 0.02934558130800724, 0.26538339257240295, -0.06599100679159164, -0.1928509920835495, 0.15294507145881653, 0.4952601492404938, -0.06461605429649353, -0.1493649184703827, -0.5959568619728088, -0.005185100715607405, -0.02779386378824711, 0.16294851899147034, 0.024439716711640358, -0.304470032453537, -0.062491606920957565, 0.09481475502252579, 0.03253456950187683, -0.049444783478975296, 0.2667704224586487, 0.13582517206668854, -0.17339752614498138, 0.011926667764782906, 0.17534464597702026, 0.228715181350708, 0.10917090624570847, 0.013698217459022999, -0.17495320737361908, -0.09737883508205414, -0.04308060184121132, 0.18726016581058502, -0.11361925303936005, 0.04504314064979553, 0.048792749643325806, 0.10041482746601105, 0.12038347870111465, 0.5498488545417786, -0.012525258585810661, 0.33862921595573425, 0.38023051619529724, -0.16209226846694946, -0.1905093938112259, -0.0008576500113122165, -0.01664040796458721, -0.18759366869926453, 0.16912230849266052, -0.16868752241134644, 0.17548097670078278, 0.08528389036655426, 0.28467196226119995, -0.10117504000663757, -0.0156943891197443, -0.11675199866294861, 0.04641610383987427, -0.03470172360539436, 0.024812275543808937, -0.012713742442429066, -0.10212406516075134, 0.09174326807260513, -0.02756424807012081, -0.09386295825242996, 0.04017295688390732, 0.0858556404709816, 0.27690353989601135, -0.1796092540025711, -0.0779263824224472, -0.16780614852905273, -0.08346404880285263, -0.2850504219532013, -0.23379991948604584, 0.14784391224384308, -0.22652040421962738, 0.05599292740225792, 0.046793270856142044, -0.09062851220369339, -0.0769200250506401, 0.43241316080093384, 0.1266600787639618, 0.13839536905288696, -0.18073798716068268, -0.07484346628189087, -0.17164382338523865, 0.23323805630207062, 0.0786789283156395, 0.10550230741500854, -0.3476521968841553, -0.06345666944980621, 0.3674757480621338, -0.46371427178382874, 0.1094641387462616, 0.054640404880046844, -0.03505028784275055, 0.14855451881885529, 0.0773792639374733, -0.2125309854745865, -0.11076769977807999, 0.17735306918621063, -0.0827447697520256, 0.14724746346473694, 0.14512652158737183, -0.1796368956565857, 0.1068686991930008, 0.26992136240005493, -0.28910234570503235, 0.002976343734189868, 0.011863915249705315, 0.2858238220214844, 0.2504081428050995, 0.15220049023628235, -0.24836723506450653, 0.11312702298164368, 0.06180867552757263, -0.10792701691389084, -0.10214177519083023, -0.1848578006029129, 0.047606684267520905, -0.18786881864070892, -0.14107745885849, 0.2514442801475525, 0.0832020714879036, -0.06162455305457115, -0.005871982779353857, -0.16752392053604126, -0.03048398718237877, 0.2660212218761444, 0.2174295037984848, -0.05303320288658142, -0.3145190179347992, -0.28746649622917175, -0.029704559594392776, 0.2682003974914551, 0.030882157385349274, 0.1593593955039978, -0.3839271664619446, -0.038879286497831345, 0.19653552770614624, -0.20409022271633148, 0.07335884124040604, 0.15945708751678467, -0.1814444363117218, 0.20396453142166138, 0.14304694533348083, -0.3061610162258148, -0.17573626339435577, -0.01313382014632225, 0.29944267868995667, 0.053415652364492416, 0.011713256128132343, -0.19645968079566956, -0.09125703573226929, 0.1436823010444641, -0.19845540821552277, 0.5446615219116211, -0.24395465850830078, 0.02145705744624138, -0.05216066166758537, 0.27303457260131836, -0.01183303166180849, 0.23908667266368866, -0.1486455649137497, 0.027190739288926125, 0.23239456117153168, -0.1713983565568924, -0.3008061647415161, -0.05533011257648468, 0.03917473554611206, 0.08759051561355591, 0.022898169234395027, 0.23116308450698853, -0.20847535133361816, 0.003770984010770917, -0.01486915536224842, -0.096609927713871, -0.12384789437055588, 0.19048796594142914, -0.12515950202941895, -0.1423456072807312, -0.11676431447267532, -0.0063227214850485325, -0.1684996783733368, 0.3286612927913666, -0.30452221632003784, 0.07386530190706253, 0.3238469362258911, -0.12373850494623184, -0.11207150667905807, 0.011795688420534134, -0.033661577850580215, -0.19567182660102844, -0.06481832265853882, -0.12050767242908478, -0.1565743088722229, -0.12744280695915222, 0.4049076437950134, -0.021902645006775856, -0.24944503605365753, 0.019122809171676636, -0.290011465549469, -0.047929223626852036, 0.006433215923607349, -0.05426245555281639, -0.13562732934951782, -0.05327906459569931, -0.08155293017625809, 0.03992050141096115, 0.22348381578922272, 0.006428936962038279, -0.16130702197551727, -0.2626756429672241, 0.1579434722661972, -0.10039528459310532, -0.1571245938539505, 0.00766528956592083, -0.23463435471057892, -0.2664158344268799, 0.06322764605283737, 0.04884355887770653, -0.06966196000576019, 0.16604092717170715, 0.08343077450990677, -0.17503267526626587, -0.265802264213562, 0.042946603149175644, 0.04583638533949852, 0.12714703381061554, 0.08184372633695602, -0.275071382522583, -0.19633401930332184, -0.17824269831180573, -0.18928809463977814, 0.04859436675906181, -0.019625434651970863, -0.12768477201461792, -0.09621010720729828, 0.05015956982970238, -0.07421690970659256, -0.20266933739185333, -0.06148431822657585, 0.04580562934279442, 0.005508332513272762, 0.14501866698265076, -0.003872217610478401, -0.12108047306537628, 0.03250102326273918, 0.3786986768245697, 0.011591514572501183, 0.147133469581604, -0.016851481050252914, 0.045099612325429916, 0.05876952037215233, -0.291282594203949, 0.12810522317886353, 0.14453105628490448, -0.06845549494028091, 0.04126023128628731, -0.035869937390089035, -0.5919943451881409, -0.22660177946090698, -0.009921668097376823, -0.07078403234481812, -0.2725106179714203, -0.15159063041210175, 0.21767458319664001, -0.0994238406419754, -0.06735759973526001, -0.23218071460723877, -0.09297478199005127, -0.03374619036912918, 0.007386614102870226, 0.1468234360218048, 0.15646474063396454, -0.22077584266662598, -0.09948807954788208, 0.03182030841708183, 0.3234088718891144, -0.02893190272152424, -0.021584276109933853, -0.22954119741916656, -0.10355325043201447, -0.09233344346284866, -0.034943725913763046, 0.21430613100528717, -0.08724339306354523, -0.13231828808784485, -0.05581233277916908, 0.04591657593846321, -0.28989923000335693, 0.0018570342799648643, 0.21880149841308594, 0.018384939059615135, 0.13682030141353607, -0.10143900662660599, -0.036569200456142426, 0.09734528511762619, -0.2075406312942505, -0.16738547384738922, 0.1333950012922287, 0.25756973028182983, 0.09252777695655823, 0.07157581299543381, -0.04302011802792549, -0.04417221620678902, 0.22426778078079224, 0.3247365355491638, -0.2455427348613739, -0.1529700756072998, -0.04521587863564491, 0.3021705746650696, -0.37956973910331726, -0.10572074353694916, 0.1677643358707428, -0.19191449880599976, -0.2625039517879486, 0.6351010799407959, -0.4165186583995819, -0.008280094712972641, 0.11784923821687698, 0.43162164092063904, 0.10559789091348648, -0.15837788581848145, -0.35032257437705994, -0.12591570615768433, 0.3178199529647827, -0.12031078338623047, -0.21647818386554718, -0.1762544810771942, -0.20108111202716827, -0.3908828794956207, 0.24865606427192688, 0.23639659583568573, -0.06718490272760391, -0.1883857250213623, 0.3450332283973694, -0.10466280579566956, -0.36046507954597473, -0.16683581471443176, -0.14854317903518677, -0.016094457358121872, 0.3146628439426422, -0.04257016256451607, -0.3872096836566925, 0.1775365173816681, 0.05674150586128235, 0.08275831490755081, 0.4066773056983948, -0.1233673244714737, 0.10511080920696259, 0.12837351858615875, -0.2621314525604248, 0.05499430373311043, 0.38228920102119446, 0.31457069516181946, -0.24154920876026154, -0.23315715789794922, -0.13825376331806183, 0.46954721212387085, -0.10036159306764603, -0.06681954115629196, 0.201214000582695, 0.007068801671266556, -0.09259508550167084, -0.11855360865592957, -0.11627880483865738, -0.3541489839553833, 0.03686155378818512, 0.08717118203639984, 0.12494347989559174, -0.16856642067432404, 0.011332384310662746, 0.12991668283939362, 0.11912532895803452, 0.14669211208820343, 0.06359007209539413, -0.022691378369927406, 0.13422982394695282, 0.258735716342926, -0.015505040064454079, 0.15552572906017303, -0.024647455662488937, -0.34658753871917725, 0.08806312084197998, 0.07179980725049973, -0.12576358020305634, -0.39052751660346985, 0.08496234565973282, 0.22973822057247162, 0.08051660656929016, 0.11695306748151779, -0.22827628254890442, 0.13420303165912628, 0.2078077793121338, 0.018468113616108894, -0.05445507913827896, -0.1428910493850708, 0.029843658208847046, 0.12438125908374786, 0.012325398623943329, -0.21055574715137482, -0.004655157215893269, 0.019134005531668663, -0.21328076720237732, -0.0066750370897352695, 0.019527820870280266, 0.2185317724943161, -0.1736220270395279, -0.01069521252065897, 0.13545560836791992, -0.15841905772686005, 0.00047671704669483006, 0.4428352117538452, -0.05745084583759308, 0.004803715739399195, 0.3558651804924011, 0.07125864923000336, 0.032918140292167664, -0.220156729221344, -0.22716766595840454, -0.05242227017879486, 0.18562045693397522, 0.019517624750733376, 0.24162960052490234, -0.08137942105531693, -0.08125446736812592, -0.04488864168524742, -0.09726191312074661, 0.02506072074174881, -0.18623654544353485, -0.25222617387771606, 0.04493970423936844, 0.12329862266778946, -0.2705114185810089, -0.08273765444755554, 0.061543382704257965, -0.18810641765594482, 0.22339774668216705, 0.011048753745853901, -0.21338620781898499, -0.10368179529905319, -0.15617501735687256, 0.10260695964097977, 0.10484106093645096, -0.008073327131569386, 0.012999502010643482, -0.42652326822280884, -0.023797668516635895, 0.27813827991485596, 0.16456834971904755, 0.00469114538282156, -0.053508564829826355, -0.35692620277404785, 0.17033106088638306, -0.3436545729637146, 0.13075831532478333, 0.13291630148887634, -0.09836319833993912, -0.12071294337511063, -0.11069729924201965, -0.09780809283256531, 0.12536996603012085, 0.10066871345043182, -0.03080831654369831, -0.20841187238693237, -0.09012770652770996, 0.17149344086647034, 0.056789103895425797, 0.12377487123012543, -0.08527236431837082, -0.2761635482311249, -0.1015240028500557, -0.11968658864498138, -0.6159080266952515, -0.07886920124292374, -0.2933306097984314, 0.25423872470855713, -0.05369250103831291, 0.21715226769447327, -0.1320296823978424, -0.14156563580036163, 0.12869785726070404, -0.6093184947967529, 0.28665146231651306, -0.16085638105869293, 0.22091256082057953, 0.049687936902046204, 0.19738034904003143, -0.016100464388728142, 0.06687740236520767, 0.060344845056533813, 0.0304565466940403, 0.08378835022449493, -0.2676519453525543, 0.1664121448993683, 0.015666604042053223, -0.12760819494724274, 0.137653186917305, -0.20056594908237457, -0.30431175231933594, -0.2182595133781433, 0.06848030537366867, -0.02743220143020153, -0.16791510581970215, -0.10740301012992859, 0.06371154636144638, -0.00554442685097456, -0.014292831532657146, 0.005500782281160355, -0.13426373898983002, -0.010824739001691341, 0.2890486717224121, 0.11013856530189514, -0.059929389506578445, -0.10161849111318588, -0.22141098976135254, 0.12124670296907425, 0.31235888600349426, 0.23124927282333374, -0.07379606366157532, 0.02774183452129364, 0.10765207558870316, -0.05696748197078705, -0.10557367652654648, 0.1924699991941452, 0.11516354233026505, -0.2253468632698059, 0.27599823474884033, -0.020699355751276016, -0.08387498557567596, -0.1676717847585678, -0.3511899411678314, -0.18205353617668152, 0.19506531953811646, -0.0376349575817585, 0.06398703902959824, 0.08309251815080643, 0.20747160911560059, 0.03131964057683945, -1.6103753296192735e-05, 0.13907037675380707, -0.43356454372406006, 0.18890997767448425, -0.05111115798354149, -0.297136127948761, 0.06408833712339401, 0.13913221657276154, -0.30647674202919006, 0.12147100269794464, 0.14091530442237854, -0.01429860107600689, -0.11337807774543762, -0.09955865889787674, -0.0350450724363327, -0.1794043332338333, 0.11467393487691879, -0.46887272596359253, -0.13041672110557556, 0.03773718327283859, 0.37224987149238586, 0.036877747625112534, 0.13422082364559174, -0.3672237992286682, -0.2519617974758148, 0.08865237236022949, 0.20854134857654572, -0.02658768557012081, -0.06945274770259857, -0.45302632451057434, -0.15554407238960266, 0.05651557072997093, 0.09939988702535629, 0.07574932277202606, -0.00012258462083991617, -0.12925183773040771, 0.23372437059879303, 0.042750511318445206, -0.186664417386055, -0.11521570384502411, -0.22212067246437073, -0.27224797010421753, 0.42828139662742615, 0.21683400869369507, 0.13995200395584106, -0.09516079723834991, -0.24405889213085175, -0.02313944697380066, -0.13401161134243011, 0.18980935215950012, 0.21237589418888092, 0.12139829993247986, -0.0589752271771431, 0.13725289702415466, -0.24498823285102844, -0.08082341402769089, 0.050717469304800034, -0.12736904621124268, 0.4709419012069702, 0.470948189496994, 0.11193552613258362, 0.10275464504957199, -0.11525598168373108, 0.03089013881981373, 0.013154380954802036, 0.35247400403022766, -0.23391813039779663, -0.11728351563215256, -0.22500433027744293, 0.06900013238191605, -0.04911545664072037, 0.26055148243904114, 0.027662595734000206, -0.1647081971168518, -0.03313973546028137, 0.07336000353097916, -0.04722096398472786, 0.13778731226921082, 0.09160184115171432, 0.01350109837949276, -0.36044076085090637, 0.2577282786369324, -0.10303386300802231, 0.043766602873802185, -0.049745481461286545, -0.14956733584403992, 0.006411695387214422, 0.363210529088974, 0.6033098697662354, 0.8251489400863647, -0.2982010245323181, -0.3376772999763489, -0.2343466728925705, -0.217946857213974, -0.06339924782514572, 0.14780953526496887, -0.0009592355345375836, 0.01501977164298296, -0.06107708811759949, -0.19417709112167358, -0.05572529882192612, 0.16752967238426208, -0.07634513825178146, -0.05547866225242615, 0.177268847823143, -0.09734173119068146, 0.0295585747808218, -0.24573129415512085, 0.22027602791786194, -0.06937018036842346, -0.19088438153266907, 0.22575514018535614, 0.11779402196407318, -0.030810143798589706, 0.15580248832702637, 0.15530921518802643, -0.1290634721517563, -0.1350957304239273, -0.018419228494167328, 0.22875358164310455, 0.05948370695114136, 0.17124898731708527, -0.09577911347150803, -0.07748278230428696, -0.18008331954479218, 0.06165770813822746, 0.11365987360477448, -0.31853535771369934, -0.16158325970172882, -0.17303414642810822, 0.02256174199283123, 0.08063679188489914, -0.20048534870147705, 0.07540646195411682, 0.11308933794498444, -0.08668094873428345, -0.02107297256588936, -0.23495502769947052, -0.3031201660633087, -0.06328495591878891, 0.2507314682006836, 0.0709448829293251, 0.18200545012950897, -0.09486192464828491, -0.1611272543668747, 0.051529660820961, 0.4381364583969116, 0.09176308661699295, -0.10978721082210541, -0.17043985426425934, 0.11174793541431427, 0.1750400960445404, -0.0008974054362624884, -0.08041172474622726, -0.10866764187812805, -0.07196786254644394, -0.27687394618988037, -0.07508720457553864, 0.2863168716430664, -0.12382347136735916, -0.2670365273952484, 0.038612000644207, -0.2662043273448944, 0.1374357044696808, 0.10488167405128479, 0.2889113128185272, -0.03168625012040138, -0.18557827174663544, -0.28595876693725586, -0.06986747682094574, 0.31568026542663574, -0.014657987281680107, -0.02813763916492462, -0.2952035963535309, -0.1139005720615387, -0.43574225902557373, -0.17265470325946808, -0.00984280277043581, -0.06069707125425339, -0.22361735999584198, 0.09459612518548965, 0.07462078332901001, -0.14904814958572388, 0.012747046537697315, 0.14773032069206238, 0.45195895433425903, 0.12374819070100784, 0.07171522825956345, -0.07616737484931946, 0.21102523803710938, -0.0743059515953064, 0.3586365282535553, -0.13795536756515503, 0.059446148574352264, 0.014322514645755291, -0.2085106074810028, -0.23691736161708832, -0.07584242522716522, 0.1798529177904129, -0.01704237423837185, -0.057364095002412796, 0.29292845726013184, 0.03896109387278557, -0.03292367234826088, 0.25376614928245544, 0.8486992120742798, -0.1295400708913803, 0.9321343898773193, -0.7511123418807983, -0.7097205519676208, -0.01120672281831503, 0.8768296837806702, 0.041485633701086044, 0.39878445863723755, 0.583018958568573, -1.0609408617019653, 0.8192414045333862, 0.5769652724266052, -1.2528773546218872, -0.032602161169052124, 0.049643032252788544, -0.24632927775382996, -0.3287532329559326, 0.17193730175495148, -0.3466847240924835, 0.04266331344842911, 0.2282826453447342, -0.12099475413560867, -0.1756839007139206, -0.06465243548154831, -0.09233813732862473, -0.0012613515136763453, 0.1565469652414322, -0.014102454297244549, -0.066817507147789, 0.26625004410743713, -0.20564551651477814, -0.3514658510684967, -0.0747133418917656, 0.13920359313488007, -0.38506078720092773, 0.08773542940616608, 0.5605846047401428, 0.36042970418930054, -0.703692615032196, -0.25523698329925537, -0.09165284037590027, 0.14486847817897797, -0.24626950919628143, 0.007522814907133579, 0.27345186471939087, 0.5584515333175659, 0.21234606206417084, 0.15626560151576996, -0.23538406193256378, -0.10741614550352097, -0.11008293181657791, 0.038139209151268005, -0.27446338534355164, -0.1205342635512352, 0.1824071705341339, 0.17226660251617432, -0.007217093836516142, 0.08451937884092331, -0.02552214078605175, -0.12840108573436737, 0.04057252034544945, -0.1596297323703766, 0.28850269317626953, -0.3243388533592224, 0.14690563082695007, -0.1761123389005661, 0.3148106336593628, 0.08492385596036911, 0.23607558012008667, 0.3270815908908844, 0.024004990234971046, 0.11972347646951675, -0.23896445333957672, 0.027466027066111565, 0.0399213582277298, 0.18613208830356598, -0.055168233811855316, 0.216246098279953, -0.2800726592540741, 0.30576154589653015, 0.11444544047117233, 0.08188924193382263, 0.15848298370838165, 0.2267424762248993, -0.3605402112007141, 0.0047311121597886086, -0.42741790413856506, 0.34770312905311584, 0.41784438490867615, 0.27832430601119995, 0.1790384203195572, -0.08050107210874557, -0.17724254727363586, -0.34101560711860657, -0.1805535852909088, -0.21511965990066528, 0.3155800402164459, 0.23617498576641083, 0.2939935326576233, -0.16090933978557587, 0.24239318072795868, 0.11225992441177368, -0.09789200872182846, 0.42978206276893616, 0.190292090177536, -0.3293086588382721, 0.11506336182355881, 0.2232237607240677, 0.12570683658123016, -0.5728554725646973, 0.19797927141189575, -0.04468095675110817, -0.3290814161300659, -0.05400790274143219, -0.35687774419784546, -0.2563931345939636, -0.10328315943479538, 0.2006990909576416, 0.1385364830493927, -0.2839254140853882, 0.05919620394706726, 0.011411985382437706, 0.2602677047252655, 0.04962390288710594, -0.008445968851447105, 0.25260284543037415, -0.231952503323555, -0.02397482842206955, 0.11761061102151871, -0.10564249008893967, 0.29937443137168884, 0.040108248591423035, -0.07092077285051346, 0.2740502655506134, 0.1658257693052292, 0.0987158790230751, 0.004876532591879368, -0.11629354953765869, 0.25192511081695557, -0.00034994861925952137, 0.21449397504329681, 0.14236684143543243, 0.12457996606826782, -0.36241263151168823, 0.17450784146785736, -0.14779888093471527, -0.0955590233206749, 0.09925448149442673, 0.2839981019496918, -0.2740185558795929, -0.3584136962890625, 0.0032984097488224506, -0.19745980203151703, 0.08122774958610535, -0.28729549050331116, 0.20897312462329865, 0.34822961688041687, 0.13912023603916168, 0.0018343254923820496, 0.004590778145939112, -0.1326492428779602, 0.10381161421537399, -0.0887642428278923, -0.054770804941654205, 0.26490017771720886, -0.16461420059204102, 0.10724532604217529, -0.1850840449333191, -0.22065012156963348, 0.08974970132112503, -0.14987759292125702, 0.19533954560756683, -0.12781675159931183, 0.26425790786743164, 0.10363098978996277, -0.3075599670410156, 0.01826874352991581, -0.27798256278038025, -0.5317704677581787, -0.14754995703697205, 0.11633419990539551, -0.061951130628585815, -0.1433328241109848, 0.2393878847360611, -0.10023410618305206, -0.01996157318353653, -0.13135859370231628, -0.29409143328666687, 0.0910363420844078, 0.12628446519374847, -0.29551416635513306, -0.3902428150177002, 0.15189042687416077, -0.3564335107803345, -0.20391808450222015, 0.12368153780698776, -0.03364836424589157, 0.016022587195038795, 0.06936617940664291, -0.40759873390197754, -0.07454021275043488, 0.22165322303771973, -0.042468681931495667, -0.08164846152067184, 0.4586464762687683, -0.003951944410800934, -0.2013782411813736, 0.22390930354595184, 0.08476890623569489, 0.14510327577590942, 0.37550243735313416, -0.06286616623401642, -0.2386019229888916, -0.4259355068206787, 0.20702898502349854, 0.08132380247116089, 0.31405317783355713, -0.37622523307800293, -0.14748358726501465, -0.3981180787086487, 0.06009050831198692, -0.19619332253932953, -0.22323063015937805, -0.2925925850868225, 0.31615790724754333, -0.08331738412380219, 0.19093064963817596, 0.12765392661094666, 0.17508310079574585, -0.4231433868408203, -0.03413014858961105, 0.0044527603313326836, 0.13273297250270844, 0.26450544595718384, -0.4800037443637848, -0.4337492287158966, -0.12047886848449707, -0.1886737048625946, -0.19668832421302795, 0.545525074005127, -0.1117200031876564, 0.09829185158014297, 0.175372913479805, -0.22949591279029846, -0.11867479979991913, 0.18618139624595642, 0.2847180664539337, -0.5336301922798157, 0.10737346112728119, -0.2833282947540283, 0.10882506519556046, 0.2286633551120758, 0.2972028851509094, 0.1760157346725464, 0.40234655141830444, -0.11470324546098709, 0.06537766009569168, -0.3044227361679077, -0.2943045496940613, -0.36298805475234985, -0.42562001943588257, -0.21968305110931396, 0.0815744698047638, -0.20566217601299286, 0.09685592353343964, -0.2209942489862442, 0.06593292206525803, -0.12482671439647675, -0.24967315793037415, 0.13454747200012207, -0.13497833907604218, -0.17913225293159485, 0.061817388981580734, -0.14445407688617706, 0.12043549120426178, -0.168668732047081, 0.03338562697172165, 0.06608842313289642, 0.1920231580734253, -0.15322215855121613, 0.09912515431642532, 0.1982477903366089, 0.462612509727478, 0.04107869789004326, 0.003026577876880765, -0.2160501778125763, -0.06225818395614624, 0.08063865453004837, -0.12212803959846497, -0.33918964862823486, 0.20015019178390503, 0.05345277488231659, -0.2808653712272644, -0.2756142318248749, 0.09124451875686646, 0.03540251776576042, -0.08341864496469498, 0.11110017448663712, -0.06066097691655159, 0.17700913548469543, 0.1407434195280075, -0.016378533095121384, 0.20132462680339813, -0.0374772809445858, -0.027220822870731354, 0.02110244892537594, -0.20382167398929596, -0.3448501527309418, 0.1579066962003708, 0.10531444102525711, -0.1703268587589264, -0.14021575450897217, -0.13800881803035736, 0.10005610436201096, 0.3640272915363312, -0.10439877212047577, -0.19749228656291962, -0.0213330015540123, 0.025134172290563583, -0.3251499831676483, 0.10434897989034653, -0.11980864405632019, -0.3827526867389679, -0.28846555948257446, -0.1209506243467331, 0.24903690814971924, -0.16605958342552185, -0.14312328398227692, 0.019758837297558784, -0.04327956587076187, 0.0049651069566607475, 0.5712498426437378, -0.009065513499081135, 0.1723363846540451, -0.00691442983224988, -0.10489226132631302, 0.13303010165691376, 0.43519872426986694, 0.07954296469688416, -0.04575803875923157, 0.06352682411670685, 0.09627524018287659, -0.25749367475509644, 0.07653062790632248, -0.34545662999153137, -0.07264602184295654, -0.12267027050256729, 0.45364242792129517, 0.23436522483825684, -0.45146462321281433, 0.08264095336198807, 0.06600040942430496, -0.20495806634426117, -0.25924673676490784, 0.07447514683008194, 0.04131241515278816, -0.11063619703054428, 0.17518572509288788, -0.19169282913208008, -0.19785691797733307, -0.029577402397990227, 0.2559523284435272, 0.007256645243614912, 0.22759325802326202, -0.10701466351747513, 0.06920522451400757, -0.12851378321647644, 0.16627392172813416, -0.11405866593122482, -0.2184651792049408, -0.10942170768976212, 0.034603361040353775, -0.2296038717031479, 0.23643703758716583, -0.13380573689937592, -0.26322993636131287, 0.3000210225582123, 0.20111355185508728, -0.06703942269086838, -0.333151251077652, -0.24573557078838348, -0.11217548698186874, 0.22058002650737762, -0.03845999017357826, 0.24628868699073792, 0.4185301661491394, 0.15620335936546326, 0.17915789783000946, -0.09742828458547592, -0.1023712232708931, -0.08128025382757187, 0.30179139971733093, 0.2653779685497284, 0.08906526863574982, -0.11051524430513382, 0.2163049578666687, 0.10713144391775131, 0.22192390263080597, 0.28820478916168213, 0.09995714575052261, 0.07272160798311234, 0.0934888944029808, 0.1573864370584488, -0.3785359263420105, 0.028784317895770073, -0.10084256529808044, -0.30259475111961365, 0.05087036266922951, -0.07302740961313248, 0.2626776695251465, 0.1872331202030182, -0.11080162227153778, 0.03230280056595802, 0.20859917998313904, 0.006107342895120382, 0.06343234330415726, 0.1059892550110817, -0.10919857025146484, -0.23805645108222961, -0.0513458326458931, -0.0037497880402952433, -0.09884852170944214, -0.1543736606836319, -0.008963394910097122, 0.11504444479942322, 0.009283307939767838, 0.014864511787891388, 0.11938256770372391, -0.008003574796020985, -0.02877146564424038, -0.05745028704404831, -0.06437214463949203, -0.09742465615272522, -0.20365573465824127, -0.19059064984321594, -0.1894705593585968, 0.13141226768493652, 0.1915547102689743, 0.13472552597522736, -0.30114975571632385, -0.15982797741889954, -0.2411433607339859, 0.4280253052711487, 0.2075120061635971, -0.03503420203924179, 0.013388636521995068, -0.06970876455307007, -0.01486081164330244, 0.393792062997818, -0.12056013941764832, -0.2055826187133789, -0.02590962126851082, -0.020537136122584343, -0.03628750890493393, 0.0888957753777504, 0.09770958870649338, -0.04546383395791054, -0.13505835831165314, -0.2208314836025238, 0.024942755699157715, 0.25654199719429016, 0.031318116933107376, 0.06493525207042694, -0.4984338879585266, -0.15298597514629364, -0.11902930587530136, -0.1864495575428009, 0.020795568823814392, 0.2566242516040802, -0.22598247230052948, 0.08769486099481583, 0.15688331425189972, -0.4092097580432892, 0.1364573985338211, -0.01612956076860428, 0.4870302081108093, 0.22302457690238953, 0.21060387790203094, -0.07355397194623947, -0.11960619688034058, 0.43422138690948486, 0.023394912481307983, -0.02094740979373455, 0.13107381761074066, -0.16894963383674622, 0.011457146145403385, 0.2645472288131714, 0.07528070360422134, 0.0063913664780557156, 0.159848153591156, -0.1930220127105713, 0.23671187460422516, -0.6693211197853088, -0.10832549631595612, 0.20195366442203522, -0.2723238468170166, -0.060041286051273346, 0.015408209525048733, -0.05859968811273575, -0.36535340547561646, 0.3027248978614807, -0.149671733379364, 0.046726666390895844, -0.2185613065958023, 0.3163301646709442, 0.06368641555309296, 0.1312493085861206, -0.11583568900823593, -0.05063558742403984, -0.2296905666589737, 0.6628468632698059, -0.1909136176109314, 0.18034395575523376, 0.5383617281913757, -0.2049461305141449, -0.36263296008110046, 0.14483289420604706, 0.07405050843954086, -0.13244524598121643, 0.42662787437438965, -0.050681207329034805, 0.05755412578582764, -0.236919566988945, 0.4840743839740753, -0.3958212733268738, 0.09955896437168121, 0.24196963012218475, -0.5780093669891357, 0.072807177901268, -0.06463202089071274, -0.5507741570472717, -0.44179871678352356, 0.06792989373207092, 0.15598346292972565, 0.06194563955068588, 0.14262786507606506, -0.3003436326980591, -0.605628490447998, -0.13288699090480804, 0.40550926327705383, -0.3672875761985779, -0.41896191239356995, -0.06344237923622131, -0.021980037912726402, -0.0040795947425067425, -0.09876217693090439, 0.4751822352409363, -0.19094616174697876, 0.02344289794564247, 0.20296227931976318, 0.053836170583963394, -0.09133784472942352, -0.6081494092941284, 0.0939440205693245, -0.12686869502067566, 0.27575650811195374, -0.18619222939014435, -0.09658041596412659, -0.08323019742965698, 0.025611240416765213, -0.48098212480545044, 0.027227621525526047, 0.03712804615497589, 0.28596654534339905, -0.21780379116535187, -0.022085852921009064, 0.1872662454843521, -0.7208412289619446, 0.06106671318411827, 0.10907399654388428, 0.7647121548652649, -0.2230530083179474, -0.09066762775182724, 0.04985283315181732, 0.053589899092912674, -0.013942491263151169, 0.08706223219633102, 0.324834406375885, 0.044544436037540436, 0.14048975706100464, -0.18527688086032867, -0.002466626698151231, -0.29020383954048157, 0.030352549627423286, -0.15236011147499084, -0.33083903789520264, -0.24927730858325958, -0.15517975389957428, 0.06841174513101578, -0.07986476272344589, -0.05827891826629639, 0.12362967431545258, -0.16837568581104279, 0.047269150614738464, -0.15169522166252136, -0.15586672723293304, -0.10600484907627106, -0.08180733025074005, 0.09890647232532501, -0.08665751665830612, -0.1282421350479126, 0.19315297901630402, 0.17774777114391327, 0.28156325221061707, -0.14625927805900574, 